{"learner":{"attributes":{},"feature_names":["Hour_Sin","Hour_Cos","Day_Sin","Day_Cos","SMA_50","SMA_200","Dist_SMA_50","Dist_SMA_200","EMA_20","Dist_EMA_20","ADX","ADX_Pos","ADX_Neg","Efficiency_Ratio","RSI","ROC","Stoch_K","Stoch_D","BB_Width","BB_Pos","ATR","ATR_Pct","VWAP","Dist_VWAP","SuperTrend_Upper","SuperTrend_Lower","Dist_ST_Upper","Dist_ST_Lower","Pivot_Point","Pivot_R1","Pivot_S1","Dist_Pivot","Log_Return","Return_Lag_1","Return_Lag_2","Return_Lag_3","Return_Lag_5","Volume_Change","Aroon_Up","Aroon_Down","Aroon_Osc","AO","Hist_Vol","RVI","Fractal_Up","Fractal_Down","Bars_Since_Fractal_Up","Bars_Since_Fractal_Down","BB_Upper","BB_Lower","BB_Mid","BB_PctB"],"feature_types":["float","float","float","float","float","float","float","float","float","float","float","float","float","float","float","float","float","float","float","float","float","float","float","float","float","float","float","float","float","float","float","float","float","float","float","float","float","float","float","float","float","float","float","float","int","int","int","int","float","float","float","float"],"gradient_booster":{"model":{"cats":{"enc":[],"feature_segments":[],"sorted_idx":[]},"gbtree_model_param":{"num_parallel_tree":"1","num_trees":"300"},"iteration_indptr":[0,1,2,3,4,5,6,7,8,9,10,11,12,13,14,15,16,17,18,19,20,21,22,23,24,25,26,27,28,29,30,31,32,33,34,35,36,37,38,39,40,41,42,43,44,45,46,47,48,49,50,51,52,53,54,55,56,57,58,59,60,61,62,63,64,65,66,67,68,69,70,71,72,73,74,75,76,77,78,79,80,81,82,83,84,85,86,87,88,89,90,91,92,93,94,95,96,97,98,99,100,101,102,103,104,105,106,107,108,109,110,111,112,113,114,115,116,117,118,119,120,121,122,123,124,125,126,127,128,129,130,131,132,133,134,135,136,137,138,139,140,141,142,143,144,145,146,147,148,149,150,151,152,153,154,155,156,157,158,159,160,161,162,163,164,165,166,167,168,169,170,171,172,173,174,175,176,177,178,179,180,181,182,183,184,185,186,187,188,189,190,191,192,193,194,195,196,197,198,199,200,201,202,203,204,205,206,207,208,209,210,211,212,213,214,215,216,217,218,219,220,221,222,223,224,225,226,227,228,229,230,231,232,233,234,235,236,237,238,239,240,241,242,243,244,245,246,247,248,249,250,251,252,253,254,255,256,257,258,259,260,261,262,263,264,265,266,267,268,269,270,271,272,273,274,275,276,277,278,279,280,281,282,283,284,285,286,287,288,289,290,291,292,293,294,295,296,297,298,299,300],"tree_info":[0,0,0,0,0,0,0,0,0,0,0,0,0,0,0,0,0,0,0,0,0,0,0,0,0,0,0,0,0,0,0,0,0,0,0,0,0,0,0,0,0,0,0,0,0,0,0,0,0,0,0,0,0,0,0,0,0,0,0,0,0,0,0,0,0,0,0,0,0,0,0,0,0,0,0,0,0,0,0,0,0,0,0,0,0,0,0,0,0,0,0,0,0,0,0,0,0,0,0,0,0,0,0,0,0,0,0,0,0,0,0,0,0,0,0,0,0,0,0,0,0,0,0,0,0,0,0,0,0,0,0,0,0,0,0,0,0,0,0,0,0,0,0,0,0,0,0,0,0,0,0,0,0,0,0,0,0,0,0,0,0,0,0,0,0,0,0,0,0,0,0,0,0,0,0,0,0,0,0,0,0,0,0,0,0,0,0,0,0,0,0,0,0,0,0,0,0,0,0,0,0,0,0,0,0,0,0,0,0,0,0,0,0,0,0,0,0,0,0,0,0,0,0,0,0,0,0,0,0,0,0,0,0,0,0,0,0,0,0,0,0,0,0,0,0,0,0,0,0,0,0,0,0,0,0,0,0,0,0,0,0,0,0,0,0,0,0,0,0,0,0,0,0,0,0,0,0,0,0,0,0,0,0,0,0,0,0,0,0,0,0,0,0,0,0,0,0,0,0,0],"trees":[{"base_weights":[-1.1082206E0,-1.877966E0,-8.7681407E-1,-2.5E-2,-9.4097614E-2,-9.957386E-1,1.3642384E0,2.3868313E-1,-1.1105937E0,1.6875E0,-3.7037036E-1,4.568528E-1,-6.4E-1,-1.1351779E0,1.9607843E-1,1.8787879E0,9.0909094E-1,-1E0,4.5454547E-2,-4.117647E-2,2.826087E-2,-5.121951E-2,3.846154E-2,-2.9411767E-2,-5.821518E-2,-2.1212121E-2,5.454546E-2,2.5E-2,9.578948E-2,-7.692308E-3,6.666667E-2,-7.333334E-2,1.1111111E-2],"categories":[],"categories_nodes":[],"categories_segments":[],"categories_sizes":[],"default_left":[0,0,0,0,0,0,0,0,0,0,0,0,0,0,0,0,0,0,0,0,0,0,0,0,0,0,0,0,0,0,0,0,0],"id":0,"left_children":[1,3,5,-1,-1,7,9,11,13,15,17,19,21,23,25,27,29,31,-1,-1,-1,-1,-1,-1,-1,-1,-1,-1,-1,-1,-1,-1,-1],"loss_changes":[1.6953076E2,2.74292E-1,1.9878033E2,0E0,0E0,1.0007794E2,2.1792648E1,1.1938283E1,2.091803E1,3.0568237E0,6.3468013E0,7.2988167E0,7.5591745E0,9.39093E0,7.540107E0,3.0477905E-1,3.9254084E0,3.1777773E0,0E0,0E0,0E0,0E0,0E0,0E0,0E0,0E0,0E0,0E0,0E0,0E0,0E0,0E0,0E0],"parents":[2147483647,0,0,1,1,2,2,5,5,6,6,7,7,8,8,9,9,10,10,11,11,12,12,13,13,14,14,15,15,16,16,17,17],"right_children":[2,4,6,-1,-1,8,10,12,14,16,18,20,22,24,26,28,30,32,-1,-1,-1,-1,-1,-1,-1,-1,-1,-1,-1,-1,-1,-1,-1],"split_conditions":[1E0,-2.706564E-1,5.377078E-4,-2.5E-2,-9.4097614E-2,1E0,2.6535694E-3,3.7571293E1,4.041268E-4,-2.1347676E-5,1.9322652E-3,1.6460602E4,-2.8386136E-4,1.645142E4,-1.8369701E-16,-1.327735E-3,1.7249006E-3,-2.8198384E-4,4.5454547E-2,-4.117647E-2,2.826087E-2,-5.121951E-2,3.846154E-2,-2.9411767E-2,-5.821518E-2,-2.1212121E-2,5.454546E-2,2.5E-2,9.578948E-2,-7.692308E-3,6.666667E-2,-7.333334E-2,1.1111111E-2],"split_indices":[46,15,33,0,0,47,27,10,32,31,33,5,34,50,1,9,27,36,0,0,0,0,0,0,0,0,0,0,0,0,0,0,0],"split_type":[0,0,0,0,0,0,0,0,0,0,0,0,0,0,0,0,0,0,0,0,0,0,0,0,0,0,0,0,0,0,0,0,0],"sum_hessian":[9.6E2,2.2025E2,7.3975E2,1E0,2.1925E2,7.03E2,3.675E1,5.975E1,6.4325E2,3.1E1,5.75E0,4.825E1,1.15E1,6.315E2,1.175E1,2.375E1,7.25E0,4E0,1.75E0,3.25E0,4.5E1,9.25E0,2.25E0,3.3E1,5.985E2,7.25E0,4.5E0,1E0,2.275E1,2.25E0,5E0,2.75E0,1.25E0],"tree_param":{"num_deleted":"0","num_feature":"52","num_nodes":"33","size_leaf_vector":"1"}},{"base_weights":[-1.0540588E0,-8.942968E-2,-8.3354485E-1,-9.4679916E-1,1.3025457E0,2.2639017E-1,-1.0560126E0,1.6117122E0,-3.5459083E-1,4.3384045E-1,-6.0936433E-1,-1.0794501E0,1.8895479E-1,8.977973E-2,8.6523765E-1,-9.6318156E-1,4.402298E-2,-7.4084974E-3,3.3459418E-2,-4.893785E-2,3.7139844E-2,-2.7990406E-2,-5.5356886E-2,-2.0282118E-2,5.234644E-2,-2.7028227E-2,6.636786E-2,-7.071531E-2,1.0802657E-2],"categories":[],"categories_nodes":[],"categories_segments":[],"categories_sizes":[],"default_left":[0,0,0,0,0,0,0,0,0,0,0,0,0,0,0,0,0,0,0,0,0,0,0,0,0,0,0,0,0],"id":1,"left_children":[1,-1,3,5,7,9,11,13,15,17,19,21,23,-1,25,27,-1,-1,-1,-1,-1,-1,-1,-1,-1,-1,-1,-1,-1],"loss_changes":[1.5399194E2,0E0,1.8029187E2,9.037274E1,1.9879986E1,1.0794058E1,1.8987366E1,2.8308792E0,5.9181294E0,6.843747E0,6.9670544E0,8.472961E0,6.926954E0,0E0,6.072756E0,2.963488E0,0E0,0E0,0E0,0E0,0E0,0E0,0E0,0E0,0E0,0E0,0E0,0E0,0E0],"parents":[2147483647,0,0,2,2,3,3,4,4,5,5,6,6,7,7,8,8,9,9,10,10,11,11,12,12,14,14,15,15],"right_children":[2,-1,4,6,8,10,12,14,16,18,20,22,24,-1,26,28,-1,-1,-1,-1,-1,-1,-1,-1,-1,-1,-1,-1,-1],"split_conditions":[1E0,-8.942968E-2,5.377078E-4,1E0,2.6535694E-3,3.7571293E1,4.041268E-4,4.637222E-7,1.9322652E-3,-5E-1,-2.8386136E-4,1.645142E4,-1.8369701E-16,8.977973E-2,1.7249006E-3,-2.8198384E-4,4.402298E-2,-7.4084974E-3,3.3459418E-2,-4.893785E-2,3.7139844E-2,-2.7990406E-2,-5.5356886E-2,-2.0282118E-2,5.234644E-2,-2.7028227E-2,6.636786E-2,-7.071531E-2,1.0802657E-2],"split_indices":[46,0,33,47,27,10,32,32,33,1,34,50,1,0,27,36,0,0,0,0,0,0,0,0,0,0,0,0,0],"split_type":[0,0,0,0,0,0,0,0,0,0,0,0,0,0,0,0,0,0,0,0,0,0,0,0,0,0,0,0,0],"sum_hessian":[9.589174E2,2.1976524E2,7.3915216E2,7.0246466E2,3.6687515E1,5.9732742E1,6.427319E2,3.0942152E1,5.7453637E0,4.823964E1,1.1493104E1,6.30986E2,1.1745838E1,2.3698874E1,7.2432775E0,3.9962673E0,1.7490964E0,1.3996645E1,3.4242996E1,9.243936E0,2.2491682E0,3.2992863E1,5.9799316E2,7.249184E0,4.4966545E0,1.7499743E0,5.4933033E0,2.746306E0,1.2499614E0],"tree_param":{"num_deleted":"0","num_feature":"52","num_nodes":"29","size_leaf_vector":"1"}},{"base_weights":[-1.0046221E0,-1.710307E0,-7.935952E-1,-8.570986E-2,-2.8381644E-2,-9.014772E-1,1.2463968E0,2.1546102E-1,-1.005613E0,1.5432209E0,-3.3992523E-1,4.1288832E-1,-5.8077246E-1,-1.0280064E0,1.8220699E-1,1.7196702E0,8.2873803E-1,-9.290577E-1,4.26637E-2,-3.9693568E-2,2.5772074E-2,-4.680975E-2,3.5881277E-2,-4.8996773E-2,-6.661389E-2,-1.9396491E-2,5.0294083E-2,2.8704083E-2,8.780029E-2,-2.6173113E-2,6.37477E-2,-6.831967E-2,1.0503123E-2],"categories":[],"categories_nodes":[],"categories_segments":[],"categories_sizes":[],"default_left":[0,0,0,0,0,0,0,0,0,0,0,0,0,0,0,0,0,0,0,0,0,0,0,0,0,0,0,0,0,0,0,0,0],"id":2,"left_children":[1,3,5,-1,-1,7,9,11,13,15,17,19,21,23,25,27,29,31,-1,-1,-1,-1,-1,-1,-1,-1,-1,-1,-1,-1,-1,-1,-1],"loss_changes":[1.4114166E2,2.380371E-3,1.6364758E2,0E0,0E0,8.186505E1,1.8187286E1,9.779999E0,1.7271606E1,2.5812988E0,5.5251117E0,6.499942E0,6.428168E0,7.9171753E0,6.3702135E0,1.4045715E-2,5.6296163E0,2.7707605E0,0E0,0E0,0E0,0E0,0E0,0E0,0E0,0E0,0E0,0E0,0E0,0E0,0E0,0E0,0E0],"parents":[2147483647,0,0,1,1,2,2,5,5,6,6,7,7,8,8,9,9,10,10,11,11,12,12,13,13,14,14,15,15,16,16,17,17],"right_children":[2,4,6,-1,-1,8,10,12,14,16,18,20,22,24,26,28,30,32,-1,-1,-1,-1,-1,-1,-1,-1,-1,-1,-1,-1,-1,-1,-1],"split_conditions":[1E0,3.1601521E-3,5.377078E-4,-8.570986E-2,-2.8381644E-2,1E0,2.6535694E-3,3.7571293E1,4.041268E-4,4.637222E-7,1.9322652E-3,1.6460602E4,-2.8386136E-4,-9.327975E-5,-1.8369701E-16,5.9607014E-4,1.7249006E-3,-2.8198384E-4,4.26637E-2,-3.9693568E-2,2.5772074E-2,-4.680975E-2,3.5881277E-2,-4.8996773E-2,-6.661389E-2,-1.9396491E-2,5.0294083E-2,2.8704083E-2,8.780029E-2,-2.6173113E-2,6.37477E-2,-6.831967E-2,1.0503123E-2],"split_indices":[46,36,33,0,0,47,27,10,32,32,33,5,34,31,1,33,27,36,0,0,0,0,0,0,0,0,0,0,0,0,0,0,0],"split_type":[0,0,0,0,0,0,0,0,0,0,0,0,0,0,0,0,0,0,0,0,0,0,0,0,0,0,0,0,0,0,0,0,0],"sum_hessian":[9.558926E2,2.1841084E2,7.3748175E2,2.1717131E2,1.2395332E0,7.0097003E2,3.6511696E1,5.968901E1,6.41281E2,3.0779558E1,5.7321353E0,4.8215378E1,1.1473629E1,6.29547E2,1.173405E1,2.3555416E1,7.2241426E0,3.9856334E0,1.7465019E0,3.248514E0,4.4966866E1,9.226841E0,2.246788E0,5.473011E2,8.22459E1,7.24688E0,4.48717E0,1.2406186E0,2.2314798E1,1.7494729E0,5.47467E0,2.7357836E0,1.2498499E0],"tree_param":{"num_deleted":"0","num_feature":"52","num_nodes":"33","size_leaf_vector":"1"}},{"base_weights":[-9.592734E-1,-1.6413144E0,-7.5655836E-1,-2.6518319E-2,-8.225908E-2,-8.5943675E-1,1.1967245E0,2.0451668E-1,-9.588564E-1,1.4829605E0,-3.2625684E-1,3.922953E-1,-5.5400074E-1,-9.8029196E-1,1.7580272E-1,1.6537114E0,7.9489124E-1,-8.9731985E-1,4.1370753E-2,5.5902418E-2,1.0390353E-2,-4.4817593E-2,3.4680966E-2,-2.4200266E-2,-5.03451E-2,-1.8552545E-2,4.837178E-2,2.7273068E-2,8.4462784E-2,-2.5350744E-2,6.133486E-2,-6.611824E-2,1.0212214E-2],"categories":[],"categories_nodes":[],"categories_segments":[],"categories_sizes":[],"default_left":[0,0,0,0,0,0,0,0,0,0,0,0,0,0,0,0,0,0,0,0,0,0,0,0,0,0,0,0,0,0,0,0,0],"id":3,"left_children":[1,3,5,-1,-1,7,9,11,13,15,17,19,21,23,25,27,29,31,-1,-1,-1,-1,-1,-1,-1,-1,-1,-1,-1,-1,-1,-1,-1],"loss_changes":[1.3041547E2,6.1157227E-2,1.4891235E2,0E0,0E0,7.420697E1,1.6717587E1,8.851314E0,1.5740051E1,2.389656E0,5.163977E0,6.35177E0,5.9365406E0,7.81073E0,5.8636456E0,3.7139893E-2,5.2283583E0,2.5965943E0,0E0,0E0,0E0,0E0,0E0,0E0,0E0,0E0,0E0,0E0,0E0,0E0,0E0,0E0,0E0],"parents":[2147483647,0,0,1,1,2,2,5,5,6,6,7,7,8,8,9,9,10,10,11,11,12,12,13,13,14,14,15,15,16,16,17,17],"right_children":[2,4,6,-1,-1,8,10,12,14,16,18,20,22,24,26,28,30,32,-1,-1,-1,-1,-1,-1,-1,-1,-1,-1,-1,-1,-1,-1,-1],"split_conditions":[1E0,5.009418E0,5.377078E-4,-2.6518319E-2,-8.225908E-2,1E0,2.6535694E-3,3.7571293E1,4.041268E-4,4.637222E-7,1.9322652E-3,1.6835045E4,-2.8386136E-4,1.645142E4,-1.8369701E-16,1.681194E4,1.7249006E-3,-2.8198384E-4,4.1370753E-2,5.5902418E-2,1.0390353E-2,-4.4817593E-2,3.4680966E-2,-2.4200266E-2,-5.03451E-2,-1.8552545E-2,4.837178E-2,2.7273068E-2,8.4462784E-2,-2.5350744E-2,6.133486E-2,-6.611824E-2,1.0212214E-2],"split_indices":[46,17,33,0,0,47,27,10,32,32,33,22,34,50,1,22,27,36,0,0,0,0,0,0,0,0,0,0,0,0,0,0,0],"split_type":[0,0,0,0,0,0,0,0,0,0,0,0,0,0,0,0,0,0,0,0,0,0,0,0,0,0,0,0,0,0,0,0,0],"sum_hessian":[9.51244E2,2.1632272E2,7.3492126E2,1.2296076E0,2.1509311E2,6.9868207E2,3.623922E1,5.9617695E1,6.390644E2,3.0527939E1,5.7112794E0,4.817444E1,1.1443254E1,6.2734875E2,1.1715603E1,2.3333979E1,7.19396E0,3.9688966E0,1.7423829E0,8.738406E0,3.943603E1,9.200232E0,2.2430234E0,3.290198E1,5.944468E2,7.243284E0,4.472318E0,1.2330831E0,2.2100895E1,1.7483789E0,5.4455814E0,2.719225E0,1.2496717E0],"tree_param":{"num_deleted":"0","num_feature":"52","num_nodes":"33","size_leaf_vector":"1"}},{"base_weights":[-9.172615E-1,-1.5799105E0,-7.2188133E-1,-1.5836494E0,-2.5522796E-2,-8.2003725E-1,1.1517981E0,-2.5763024E-2,-7.9369344E-2,1.9546929E-1,-9.152376E-1,1.4287792E0,-3.1348526E-1,3.7433442E-1,-5.288589E-1,-9.357889E-1,1.6971323E-1,1.5950092E0,7.633756E-1,-8.6770356E-1,4.0138807E-2,-8.782539E-3,2.990186E-2,-4.2946454E-2,3.3534568E-2,-4.4470396E-2,-6.1523538E-2,-1.7747853E-2,4.65654E-2,2.5599828E-2,8.1529E-2,-2.4559315E-2,5.9102125E-2,-6.408721E-2,9.929656E-3],"categories":[],"categories_nodes":[],"categories_segments":[],"categories_sizes":[],"default_left":[0,0,0,0,0,0,0,0,0,0,0,0,0,0,0,0,0,0,0,0,0,0,0,0,0,0,0,0,0,0,0,0,0,0,0],"id":4,"left_children":[1,3,5,7,-1,9,11,-1,-1,13,15,17,19,21,23,25,27,29,31,33,-1,-1,-1,-1,-1,-1,-1,-1,-1,-1,-1,-1,-1,-1,-1],"loss_changes":[1.213631E2,4.9743652E-2,1.3567654E2,3.4240723E-2,0E0,6.753381E1,1.5417198E1,0E0,0E0,8.041293E0,1.4365723E1,2.2334023E0,4.8314524E0,6.150411E0,5.4870605E0,7.4544067E0,5.4018693E0,9.145737E-2,4.8635497E0,2.4385076E0,0E0,0E0,0E0,0E0,0E0,0E0,0E0,0E0,0E0,0E0,0E0,0E0,0E0,0E0,0E0],"parents":[2147483647,0,0,1,1,2,2,3,3,5,5,6,6,9,9,10,10,11,11,12,12,13,13,14,14,15,15,16,16,17,17,18,18,19,19],"right_children":[2,4,6,8,-1,10,12,-1,-1,14,16,18,20,22,24,26,28,30,32,34,-1,-1,-1,-1,-1,-1,-1,-1,-1,-1,-1,-1,-1,-1,-1],"split_conditions":[1E0,3.1601521E-3,5.377078E-4,-2.6877493E-1,-2.5522796E-2,1E0,2.6535694E-3,-2.5763024E-2,-7.9369344E-2,3.7571293E1,4.041268E-4,4.637222E-7,1.9322652E-3,-5E-1,-2.8386136E-4,-9.327975E-5,-1.8369701E-16,5.182728E-3,1.7249006E-3,-2.8198384E-4,4.0138807E-2,-8.782539E-3,2.990186E-2,-4.2946454E-2,3.3534568E-2,-4.4470396E-2,-6.1523538E-2,-1.7747853E-2,4.65654E-2,2.5599828E-2,8.1529E-2,-2.4559315E-2,5.9102125E-2,-6.408721E-2,9.929656E-3],"split_indices":[46,36,33,15,0,47,27,0,0,10,32,32,33,1,34,31,1,42,27,36,0,0,0,0,0,0,0,0,0,0,0,0,0,0,0],"split_type":[0,0,0,0,0,0,0,0,0,0,0,0,0,0,0,0,0,0,0,0,0,0,0,0,0,0,0,0,0,0,0,0,0,0,0],"sum_hessian":[9.452037E2,2.1361691E2,7.315868E2,2.1239357E2,1.2233431E0,6.957035E2,3.5883286E1,1.2244945E0,2.1116907E2,5.953954E1,6.3616394E2,3.0199596E1,5.683689E0,4.813605E1,1.1403487E1,6.244726E2,1.169137E1,2.3045385E1,7.1542125E0,3.946795E0,1.7368942E0,1.3980081E1,3.415597E1,9.165462E0,2.2380257E0,5.4302246E2,8.1450096E1,7.2385736E0,4.452797E0,1.222357E0,2.1823029E1,1.7467499E0,5.4074626E0,2.6973627E0,1.2494323E0],"tree_param":{"num_deleted":"0","num_feature":"52","num_nodes":"35","size_leaf_vector":"1"}},{"base_weights":[-8.783375E-1,-1.5249742E0,-6.895211E-1,-2.4109196E-2,-1.5286916E0,-7.83219E-1,1.1108885E0,-7.661622E-2,-2.4875067E-2,-8.6576986E-1,2.962895E-1,1.3797218E0,-3.0152303E-1,-8.90095E-1,1.5174991E-1,1.179376E0,1.0919649E-2,1.5423886E0,7.3391896E-1,-8.399809E-1,3.896312E-2,-1.3436789E-2,-4.553252E-2,-2.0262595E-2,4.0125202E-2,-1.5798638E-3,6.755174E-2,2.2989672E-2,-2.5600836E-2,2.430311E-2,7.888597E-2,-2.3797143E-2,5.7026662E-2,-6.2206354E-2,9.655182E-3],"categories":[],"categories_nodes":[],"categories_segments":[],"categories_sizes":[],"default_left":[0,0,0,0,0,0,0,0,0,0,0,0,0,0,0,0,0,0,0,0,0,0,0,0,0,0,0,0,0,0,0,0,0,0,0],"id":5,"left_children":[1,3,5,-1,7,9,11,-1,-1,13,15,17,19,21,23,25,27,29,31,33,-1,-1,-1,-1,-1,-1,-1,-1,-1,-1,-1,-1,-1,-1,-1],"loss_changes":[1.13598694E2,8.236694E-2,1.237847E2,0E0,2.5024414E-2,6.2027496E1,1.4258877E1,0E0,0E0,1.6079346E1,1.2584005E1,2.1042938E0,4.524691E0,7.7926636E0,6.0865955E0,2.5784874E0,9.340141E0,1.1766052E-1,4.530669E0,2.2944326E0,0E0,0E0,0E0,0E0,0E0,0E0,0E0,0E0,0E0,0E0,0E0,0E0,0E0,0E0,0E0],"parents":[2147483647,0,0,1,1,2,2,4,4,5,5,6,6,9,9,10,10,11,11,12,12,13,13,14,14,15,15,16,16,17,17,18,18,19,19],"right_children":[2,4,6,-1,8,10,12,-1,-1,14,16,18,20,22,24,26,28,30,32,34,-1,-1,-1,-1,-1,-1,-1,-1,-1,-1,-1,-1,-1,-1,-1],"split_conditions":[1E0,5.009418E0,5.377078E-4,-2.4109196E-2,3.1601521E-3,1E0,2.6535694E-3,-7.661622E-2,-2.4875067E-2,4.041268E-4,1.5501065E-4,4.637222E-7,1.9322652E-3,1.638817E4,-1.8369701E-16,2.4162257E-2,3.2705223E1,5.9607014E-4,1.7249006E-3,-2.8198384E-4,3.896312E-2,-1.3436789E-2,-4.553252E-2,-2.0262595E-2,4.0125202E-2,-1.5798638E-3,6.755174E-2,2.2989672E-2,-2.5600836E-2,2.430311E-2,7.888597E-2,-2.3797143E-2,5.7026662E-2,-6.2206354E-2,9.655182E-3],"split_indices":[46,17,33,0,36,45,27,0,0,32,31,32,33,49,1,13,12,33,27,36,0,0,0,0,0,0,0,0,0,0,0,0,0,0,0],"split_type":[0,0,0,0,0,0,0,0,0,0,0,0,0,0,0,0,0,0,0,0,0,0,0,0,0,0,0,0,0,0,0,0,0,0,0],"sum_hessian":[9.380197E2,2.1039767E2,7.276221E2,1.211689E0,2.0918599E2,6.92165E2,3.5457058E1,2.0796739E2,1.218598E0,6.431786E2,4.8986385E1,2.9806873E1,5.650187E0,6.282839E2,1.4894719E1,1.1198733E1,3.778765E1,2.2700638E1,7.106235E0,3.9200065E0,1.7301805E0,2.0569553E1,6.0771436E2,8.228734E0,6.6659846E0,1.4916636E0,9.70707E0,2.0398718E1,1.7388933E1,1.212309E0,2.1488329E1,1.7446398E0,5.361595E0,2.6708694E0,1.2491372E0],"tree_param":{"num_deleted":"0","num_feature":"52","num_nodes":"35","size_leaf_vector":"1"}},{"base_weights":[-8.4185654E-1,-1.4754001E0,-6.5894496E-1,-2.3453962E-2,-1.4790035E0,-7.484052E-1,1.0734359E0,-7.412585E-2,-2.4247702E-2,-8.2767004E-1,2.8310934E-1,1.3350596E0,-2.9029432E-1,-8.510273E-1,1.4578891E-1,1.0971441E0,-5.017546E-4,1.4949691E0,7.062911E-1,-8.1395507E-1,3.7839405E-2,-1.2811667E-2,-4.3540247E-2,-1.9377572E-2,3.853136E-2,-1.5325359E-3,6.236446E-2,-2.784132E-2,1.7619526E-2,2.3066474E-2,7.65106E-2,-2.30627E-2,5.5089314E-2,-6.04584E-2,9.388547E-3],"categories":[],"categories_nodes":[],"categories_segments":[],"categories_sizes":[],"default_left":[0,0,0,0,0,0,0,0,0,0,0,0,0,0,0,0,0,0,0,0,0,0,0,0,0,0,0,0,0,0,0,0,0,0,0],"id":6,"left_children":[1,3,5,-1,7,9,11,-1,-1,13,15,17,19,21,23,25,27,29,31,33,-1,-1,-1,-1,-1,-1,-1,-1,-1,-1,-1,-1,-1,-1,-1],"loss_changes":[1.0690765E2,5.9570312E-2,1.13037506E2,0E0,2.4719238E-3,5.658661E1,1.3221649E1,0E0,0E0,1.4682617E1,1.1527256E1,1.9967003E0,4.2411985E0,7.134186E0,5.583013E0,2.2227535E0,7.6617136E0,1.431694E-1,4.2259264E0,2.1626375E0,0E0,0E0,0E0,0E0,0E0,0E0,0E0,0E0,0E0,0E0,0E0,0E0,0E0,0E0,0E0],"parents":[2147483647,0,0,1,1,2,2,4,4,5,5,6,6,9,9,10,10,11,11,12,12,13,13,14,14,15,15,16,16,17,17,18,18,19,19],"right_children":[2,4,6,-1,8,10,12,-1,-1,14,16,18,20,22,24,26,28,30,32,34,-1,-1,-1,-1,-1,-1,-1,-1,-1,-1,-1,-1,-1,-1,-1],"split_conditions":[1E0,-2.6877493E-1,5.377078E-4,-2.3453962E-2,3.1601521E-3,1E0,2.6535694E-3,-7.412585E-2,-2.4247702E-2,4.041268E-4,1.6866576E-4,4.637222E-7,1.9322652E-3,1.638817E4,-1.8369701E-16,2.4162257E-2,2.4E1,-1.2631348E-3,1.7249006E-3,-2.8198384E-4,3.7839405E-2,-1.2811667E-2,-4.3540247E-2,-1.9377572E-2,3.853136E-2,-1.5325359E-3,6.236446E-2,-2.784132E-2,1.7619526E-2,2.3066474E-2,7.65106E-2,-2.30627E-2,5.5089314E-2,-6.04584E-2,9.388547E-3],"split_indices":[46,15,33,0,36,45,27,0,0,32,31,32,33,49,1,13,38,9,27,36,0,0,0,0,0,0,0,0,0,0,0,0,0,0,0],"split_type":[0,0,0,0,0,0,0,0,0,0,0,0,0,0,0,0,0,0,0,0,0,0,0,0,0,0,0,0,0,0,0,0,0,0,0],"sum_hessian":[9.299418E2,2.067531E2,7.2318866E2,1.205746E0,2.0554735E2,6.882171E2,3.497157E1,2.0433372E2,1.2136202E0,6.3928973E2,4.892741E1,2.9360039E1,5.6115284E0,6.2443274E2,1.4856962E1,1.1900763E1,3.7026646E1,2.230881E1,7.0512304E0,3.8891528E0,1.7223758E0,2.0544E1,6.0388873E2,8.2202215E0,6.63674E0,1.491725E0,1.0409038E1,1.41467705E1,2.2879875E1,1.2001286E0,2.110868E1,1.7420974E0,5.309133E0,2.6403615E0,1.2487912E0],"tree_param":{"num_deleted":"0","num_feature":"52","num_nodes":"35","size_leaf_vector":"1"}},{"base_weights":[-8.076911E-1,-1.4304011E0,-6.301686E-1,-2.1932442E-2,-7.17032E-2,-7.1561456E-1,1.0389624E0,-7.91767E-1,2.7045965E-1,1.2941731E0,-2.797327E-1,-8.128848E-1,1.9840552E-1,1.0863781E0,8.884112E-3,4.3621907E-1,1.3930848E0,-7.8945524E-1,3.6763843E-2,-1.2215969E-2,-4.1592214E-2,-2.7697066E-2,5.3459585E-2,7.722446E-3,6.544668E-2,2.1268882E-2,-2.3792638E-2,4.9515177E-2,-1.0795869E-2,3.0518293E-2,7.2586544E-2,-5.882849E-2,9.1294935E-3],"categories":[],"categories_nodes":[],"categories_segments":[],"categories_sizes":[],"default_left":[0,0,0,0,0,0,0,0,0,0,0,0,0,0,0,0,0,0,0,0,0,0,0,0,0,0,0,0,0,0,0,0,0],"id":7,"left_children":[1,3,5,-1,-1,7,9,11,13,15,17,19,21,23,25,27,29,31,-1,-1,-1,-1,-1,-1,-1,-1,-1,-1,-1,-1,-1,-1,-1],"loss_changes":[1.0102771E2,1.1117554E-1,1.033302E2,0E0,0E0,5.1641693E1,1.2288136E1,1.3460541E1,1.0628265E1,1.927002E0,3.9787843E0,6.5118103E0,9.819916E0,2.3057947E0,8.026041E0,1.8555304E0,3.2231903E-1,2.0416563E0,0E0,0E0,0E0,0E0,0E0,0E0,0E0,0E0,0E0,0E0,0E0,0E0,0E0,0E0,0E0],"parents":[2147483647,0,0,1,1,2,2,5,5,6,6,7,7,8,8,9,9,10,10,11,11,12,12,13,13,14,14,15,15,16,16,17,17],"right_children":[2,4,6,-1,-1,8,10,12,14,16,18,20,22,24,26,28,30,32,-1,-1,-1,-1,-1,-1,-1,-1,-1,-1,-1,-1,-1,-1,-1],"split_conditions":[1E0,5.009418E0,5.377078E-4,-2.1932442E-2,-7.17032E-2,1E0,2.6535694E-3,5.126547E-4,1.5501065E-4,7.185546E1,1.9322652E-3,1.638817E4,-1.8369701E-16,3.0434728E-3,3.2705223E1,6.234898E-1,1.6823484E4,-2.8198384E-4,3.6763843E-2,-1.2215969E-2,-4.1592214E-2,-2.7697066E-2,5.3459585E-2,7.722446E-3,6.544668E-2,2.1268882E-2,-2.3792638E-2,4.9515177E-2,-1.0795869E-2,3.0518293E-2,7.2586544E-2,-5.882849E-2,9.1294935E-3],"split_indices":[46,17,33,0,0,45,27,32,31,43,33,49,1,18,12,3,22,36,0,0,0,0,0,0,0,0,0,0,0,0,0,0,0],"split_type":[0,0,0,0,0,0,0,0,0,0,0,0,0,0,0,0,0,0,0,0,0,0,0,0,0,0,0,0,0,0,0,0,0],"sum_hessian":[9.210592E2,2.027609E2,7.182983E2,1.1904689E0,2.0157042E2,6.838614E2,3.443689E1,6.350174E2,4.884399E1,2.8868486E1,5.568404E0,6.2193225E2,1.3085144E1,1.1092026E1,3.7751965E1,3.543402E0,2.5325085E1,3.8548002E0,1.713604E0,2.0517958E1,6.014143E2,7.215186E0,5.8699574E0,2.46482E0,8.627206E0,2.0371181E1,1.7380783E1,1.6353676E0,1.9080343E0,2.5603948E0,2.276469E1,2.606401E0,1.2483991E0],"tree_param":{"num_deleted":"0","num_feature":"52","num_nodes":"33","size_leaf_vector":"1"}},{"base_weights":[-7.754401E-1,-1.3892022E0,-6.028916E-1,-2.1361023E-2,-1.3927921E0,-6.870626E-1,9.6126294E-1,-1.3963488E0,-2.1861544E-2,1.8498366E-1,-7.6841676E-1,1.2095922E0,-3.2285866E-1,-1.1608253E0,-7.165512E-2,-5.47473E-1,3.4511772E-1,-7.869573E-1,1.3981892E-1,1.9732521E-1,1.3525167E0,-8.133061E-1,3.573298E-2,-6.8146005E-2,-3.236473E-2,-7.112147E-3,-6.858735E-2,3.2621227E-2,-1.121174E-2,-3.7880234E-2,-6.388832E-2,-1.3028385E-2,6.224714E-2,4.062609E-2,-3.1721592E-2,2.874916E-3,7.049327E-2,-5.7303824E-2,-5.1983556E-4],"categories":[],"categories_nodes":[],"categories_segments":[],"categories_sizes":[],"default_left":[0,0,0,0,0,0,0,0,0,0,0,0,0,0,0,0,0,0,0,0,0,0,0,0,0,0,0,0,0,0,0,0,0,0,0,0,0,0,0],"id":8,"left_children":[1,3,5,-1,7,9,11,13,-1,15,17,19,21,23,-1,25,27,29,31,33,35,37,-1,-1,-1,-1,-1,-1,-1,-1,-1,-1,-1,-1,-1,-1,-1,-1,-1],"loss_changes":[9.580762E1,9.390259E-2,9.467444E1,0E0,6.341553E-2,4.825714E1,1.2151417E1,4.272461E-2,0E0,7.071309E0,1.0559235E1,4.234829E0,4.0240154E0,2.4254189E0,0E0,3.4502528E0,8.678328E0,7.794922E0,6.192986E0,3.0844676E0,1.9312096E0,1.3405316E0,0E0,0E0,0E0,0E0,0E0,0E0,0E0,0E0,0E0,0E0,0E0,0E0,0E0,0E0,0E0,0E0,0E0],"parents":[2147483647,0,0,1,1,2,2,4,4,5,5,6,6,7,7,9,9,10,10,11,11,12,12,13,13,15,15,16,16,17,17,18,18,19,19,20,20,21,21],"right_children":[2,4,6,-1,8,10,12,14,-1,16,18,20,22,24,-1,26,28,30,32,34,36,38,-1,-1,-1,-1,-1,-1,-1,-1,-1,-1,-1,-1,-1,-1,-1,-1,-1],"split_conditions":[1E0,-2.6877493E-1,4.7493473E-4,-2.1361023E-2,3.1601521E-3,1E0,2.6535694E-3,1.3940858E-3,-2.1861544E-2,1.6500191E4,3.7377316E-4,7.185546E1,1.9322652E-3,9.717565E-4,-7.165512E-2,4.986713E-4,1.6935326E4,-9.208185E-5,1.4469485E-3,-9.8222794E-5,1.681194E4,-2.8198384E-4,3.573298E-2,-6.8146005E-2,-3.236473E-2,-7.112147E-3,-6.858735E-2,3.2621227E-2,-1.121174E-2,-3.7880234E-2,-6.388832E-2,-1.3028385E-2,6.224714E-2,4.062609E-2,-3.1721592E-2,2.874916E-3,7.049327E-2,-5.7303824E-2,-5.1983556E-4],"split_indices":[46,15,33,0,36,47,27,27,0,4,32,43,33,33,0,31,4,32,34,31,22,36,0,0,0,0,0,0,0,0,0,0,0,0,0,0,0,0,0],"split_type":[0,0,0,0,0,0,0,0,0,0,0,0,0,0,0,0,0,0,0,0,0,0,0,0,0,0,0,0,0,0,0,0,0,0,0,0,0,0,0],"sum_hessian":[9.1157574E2,1.9848946E2,7.130863E2,1.1841183E0,1.9730533E2,6.77205E2,3.5881298E1,1.9611407E2,1.1912665E0,5.7677586E1,6.195274E2,3.011547E1,5.765827E0,3.0870964E1,1.652431E2,9.913621E0,4.7763966E1,6.0726434E2,1.2263055E1,4.020535E0,2.6094936E1,4.061847E0,1.7039798E0,2.0965992E1,9.904972E0,7.432311E0,2.4813101E0,3.092588E1,1.6838083E1,5.7539655E2,3.1867836E1,9.562704E0,2.7003512E0,2.324431E0,1.6961043E0,1.1915087E0,2.4903427E1,2.569499E0,1.4923482E0],"tree_param":{"num_deleted":"0","num_feature":"52","num_nodes":"39","size_leaf_vector":"1"}},{"base_weights":[-7.452539E-1,-1.3517942E0,-5.772813E-1,-1.9961458E-2,-1.3554701E0,-6.5534836E-1,9.751294E-1,-1.3589722E0,-2.1324847E-2,-7.260602E-1,2.4988334E-1,1.2179695E0,-2.5855288E-1,-1.1271325E0,-6.976553E-2,-7.40514E-1,5.077296E-1,1.0302063E0,1.5830988E-3,1.3855779E0,5.903988E-1,-7.419252E-1,3.4743708E-2,-6.637183E-2,-3.119695E-2,-1.51263615E-2,-3.8289465E-2,6.0344536E-2,-1.1092904E-2,-3.4364003E-3,5.9598543E-2,1.987864E-2,-2.2920411E-2,1.9704126E-2,7.109219E-2,-2.4683438E-2,4.912093E-2,-5.5873312E-2,8.892126E-3],"categories":[],"categories_nodes":[],"categories_segments":[],"categories_sizes":[],"default_left":[0,0,0,0,0,0,0,0,0,0,0,0,0,0,0,0,0,0,0,0,0,0,0,0,0,0,0,0,0,0,0,0,0,0,0,0,0,0,0],"id":9,"left_children":[1,3,5,-1,7,9,11,13,-1,15,17,19,21,23,-1,25,27,29,31,33,35,37,-1,-1,-1,-1,-1,-1,-1,-1,-1,-1,-1,-1,-1,-1,-1,-1,-1],"loss_changes":[9.119119E1,1.4178467E-1,8.65269E1,0E0,5.114746E-2,4.3411438E1,1.0600948E1,5.053711E-2,0E0,1.1551514E1,9.623478E0,2.2178688E0,3.4981031E0,2.3276787E0,0E0,6.6300354E0,4.271915E0,2.2133665E0,7.229132E0,2.320404E-1,3.8108835E0,1.8491423E0,0E0,0E0,0E0,0E0,0E0,0E0,0E0,0E0,0E0,0E0,0E0,0E0,0E0,0E0,0E0,0E0,0E0],"parents":[2147483647,0,0,1,1,2,2,4,4,5,5,6,6,7,7,9,9,10,10,11,11,12,12,13,13,15,15,16,16,17,17,18,18,19,19,20,20,21,21],"right_children":[2,4,6,-1,8,10,12,14,-1,16,18,20,22,24,-1,26,28,30,32,34,36,38,-1,-1,-1,-1,-1,-1,-1,-1,-1,-1,-1,-1,-1,-1,-1,-1,-1],"split_conditions":[1E0,5.009418E0,5.377078E-4,-1.9961458E-2,3.1601521E-3,1E0,2.6535694E-3,1.3940858E-3,-2.1324847E-2,9.6E1,1.5501065E-4,4.637222E-7,1.9322652E-3,9.717565E-4,-6.976553E-2,1.645142E4,4.3094265E-1,2.4162257E-2,3.2705223E1,5.9607014E-4,1.7249006E-3,-2.8198384E-4,3.4743708E-2,-6.637183E-2,-3.119695E-2,-1.51263615E-2,-3.8289465E-2,6.0344536E-2,-1.1092904E-2,-3.4364003E-3,5.9598543E-2,1.987864E-2,-2.2920411E-2,1.9704126E-2,7.109219E-2,-2.4683438E-2,4.912093E-2,-5.5873312E-2,8.892126E-3],"split_indices":[46,17,33,0,36,45,27,27,0,38,31,32,33,33,0,50,13,13,12,33,27,36,0,0,0,0,0,0,0,0,0,0,0,0,0,0,0,0,0],"split_type":[0,0,0,0,0,0,0,0,0,0,0,0,0,0,0,0,0,0,0,0,0,0,0,0,0,0,0,0,0,0,0,0,0,0,0,0,0,0,0],"sum_hessian":[9.0172424E2,1.9403314E2,7.076911E2,1.1672063E0,1.9286594E2,6.743571E2,3.3333992E1,1.9168044E2,1.1854999E0,6.2568024E2,4.8676857E1,2.7862272E1,5.4717207E0,3.0311255E1,1.6136917E2,6.188305E2,6.849758E0,1.099E1,3.7686855E1,2.1036192E1,6.826079E0,3.7781115E0,1.693609E0,2.0509216E1,9.802038E0,3.4470592E1,5.8435986E2,3.1637442E0,3.686014E0,1.4839615E0,9.506039E0,2.032527E1,1.7361586E1,1.1610129E0,1.987518E1,1.7440084E0,5.082071E0,2.5301201E0,1.2479916E0],"tree_param":{"num_deleted":"0","num_feature":"52","num_nodes":"39","size_leaf_vector":"1"}},{"base_weights":[-7.164769E-1,-1.3173125E0,-5.52725E-1,-1.9454492E-2,-1.3209494E0,-6.296419E-1,9.035705E-1,-1.3244128E0,-2.0803628E-2,1.6999856E-1,-7.0515E-1,1.1412361E0,-3.029879E-1,-1.0949422E0,-6.802916E-2,-5.321265E-1,3.2381454E-1,-7.2289526E-1,1.5033284E-1,1.6164908E-1,1.2833238E0,-7.6951367E-1,3.3793207E-2,-6.1006594E-2,-1.6985768E-2,2.054635E-2,-4.1097187E-2,3.973499E-2,-8.4835023E-4,-3.4707014E-2,-6.0400337E-2,-1.1743306E-2,6.041467E-2,3.8048636E-2,-3.1308636E-2,2.0586546E-3,6.7017406E-2,-5.4527283E-2,-5.4013816E-4],"categories":[],"categories_nodes":[],"categories_segments":[],"categories_sizes":[],"default_left":[0,0,0,0,0,0,0,0,0,0,0,0,0,0,0,0,0,0,0,0,0,0,0,0,0,0,0,0,0,0,0,0,0,0,0,0,0,0,0],"id":10,"left_children":[1,3,5,-1,7,9,11,13,-1,15,17,19,21,23,-1,25,27,29,31,33,35,37,-1,-1,-1,-1,-1,-1,-1,-1,-1,-1,-1,-1,-1,-1,-1,-1,-1],"loss_changes":[8.707611E1,1.288147E-1,7.93168E1,0E0,4.2053223E-2,4.0473816E1,1.0577044E1,7.119751E-2,0E0,6.487001E0,9.382141E0,3.9706078E0,3.5622027E0,2.4908943E0,0E0,3.3129578E0,7.8098273E0,7.511963E0,5.68007E0,2.812073E0,1.7914886E0,1.2009757E0,0E0,0E0,0E0,0E0,0E0,0E0,0E0,0E0,0E0,0E0,0E0,0E0,0E0,0E0,0E0,0E0,0E0],"parents":[2147483647,0,0,1,1,2,2,4,4,5,5,6,6,7,7,9,9,10,10,11,11,12,12,13,13,15,15,16,16,17,17,18,18,19,19,20,20,21,21],"right_children":[2,4,6,-1,8,10,12,14,-1,16,18,20,22,24,-1,26,28,30,32,34,36,38,-1,-1,-1,-1,-1,-1,-1,-1,-1,-1,-1,-1,-1,-1,-1,-1,-1],"split_conditions":[1E0,-2.6877493E-1,4.7493473E-4,-1.9454492E-2,3.1601521E-3,1E0,2.6535694E-3,1.3940858E-3,-2.0803628E-2,1.6500191E4,3.7377316E-4,7.185546E1,1.9322652E-3,4E1,-6.802916E-2,1.6425512E4,1.6794264E4,-9.208185E-5,1.4469485E-3,-9.8222794E-5,1.681194E4,-2.8198384E-4,3.3793207E-2,-6.1006594E-2,-1.6985768E-2,2.054635E-2,-4.1097187E-2,3.973499E-2,-8.4835023E-4,-3.4707014E-2,-6.0400337E-2,-1.1743306E-2,6.041467E-2,3.8048636E-2,-3.1308636E-2,2.0586546E-3,6.7017406E-2,-5.4527283E-2,-5.4013816E-4],"split_indices":[46,15,33,0,36,47,27,27,0,4,32,43,33,38,0,4,28,32,34,31,22,36,0,0,0,0,0,0,0,0,0,0,0,0,0,0,0,0,0],"split_type":[0,0,0,0,0,0,0,0,0,0,0,0,0,0,0,0,0,0,0,0,0,0,0,0,0,0,0,0,0,0,0,0,0,0,0,0,0,0,0],"sum_hessian":[8.914285E2,1.8940869E2,7.0201984E2,1.1606734E0,1.8824802E2,6.6734064E2,3.4679153E1,1.8706837E2,1.1796441E0,5.7470417E1,6.0987024E2,2.9017485E1,5.6616693E0,2.9729677E1,1.573387E2,9.885678E0,4.7584736E1,5.9762866E2,1.2241589E1,3.946568E0,2.5070915E1,3.9790807E0,1.6825887E0,2.497425E1,4.7554255E0,2.225643E0,7.660035E0,1.94194E1,2.8165339E1,5.664814E2,3.114729E1,9.544483E0,2.697105E0,2.2607877E0,1.6857802E0,1.1760143E0,2.3894901E1,2.4886825E0,1.4903982E0],"tree_param":{"num_deleted":"0","num_feature":"52","num_nodes":"39","size_leaf_vector":"1"}},{"base_weights":[-6.892148E-1,-1.2852924E0,-5.2950394E-1,-1.8198859E-2,-1.2890284E0,-6.008054E-1,9.200476E-1,-1.0644054E0,-1.324308E0,-6.66598E-1,2.3143065E-1,1.3247591E0,1.9437808E-1,-1.2690157E0,-5.6130546E-1,-1.3286656E0,-2.029728E-2,-6.866068E-1,1.4218883E-1,9.8158336E-1,-4.994896E-3,1.7134635E-2,6.814365E-2,7.596392E-1,-1.2991294E-1,-6.554329E-2,-1.2773518E-2,3.181599E-2,-5.6584757E-2,-6.671E-2,-2.5736531E-2,-3.2085866E-2,-4.8594173E-2,-4.651379E-2,2.058694E-2,4.3681865E-3,6.0129195E-2,1.8709248E-2,-2.2231886E-2,-1.41724795E-2,5.810832E-2,-5.181257E-2,2.2162661E-2],"categories":[],"categories_nodes":[],"categories_segments":[],"categories_sizes":[],"default_left":[0,0,0,0,0,0,0,0,0,0,0,0,0,0,0,0,0,0,0,0,0,0,0,0,0,0,0,0,0,0,0,0,0,0,0,0,0,0,0,0,0,0,0],"id":11,"left_children":[1,3,5,-1,7,9,11,13,15,17,19,21,23,25,27,29,-1,31,33,35,37,-1,-1,39,41,-1,-1,-1,-1,-1,-1,-1,-1,-1,-1,-1,-1,-1,-1,-1,-1,-1,-1],"loss_changes":[8.327731E1,1.6986084E-1,7.261694E1,0E0,5.2612305E-2,3.6575348E1,9.458773E0,2.390522E0,8.242798E-2,1.0077454E1,8.779465E0,3.2148743E-1,2.4848192E0,5.403671E-1,7.898095E0,7.904053E-3,0E0,7.085144E0,4.926428E0,2.2389908E0,6.603351E0,0E0,0E0,2.3831992E0,5.199876E0,0E0,0E0,0E0,0E0,0E0,0E0,0E0,0E0,0E0,0E0,0E0,0E0,0E0,0E0,0E0,0E0,0E0,0E0],"parents":[2147483647,0,0,1,1,2,2,4,4,5,5,6,6,7,7,8,8,9,9,10,10,11,11,12,12,13,13,14,14,15,15,17,17,18,18,19,19,20,20,23,23,24,24],"right_children":[2,4,6,-1,8,10,12,14,16,18,20,22,24,26,28,30,-1,32,34,36,38,-1,-1,40,42,-1,-1,-1,-1,-1,-1,-1,-1,-1,-1,-1,-1,-1,-1,-1,-1,-1,-1],"split_conditions":[1E0,5.009418E0,5.377078E-4,-1.8198859E-2,1.3940858E-3,1E0,4.637222E-7,9.717565E-4,3.1601521E-3,4.041268E-4,1.5501065E-4,-1.2631348E-3,9.717565E-4,2.1292205E0,7.401772E1,9.294315E-4,-2.029728E-2,-9.327975E-5,-2.9084898E-4,3.0434728E-3,3.2705223E1,1.7134635E-2,6.814365E-2,6E1,9.400914E-1,-6.554329E-2,-1.2773518E-2,3.181599E-2,-5.6584757E-2,-6.671E-2,-2.5736531E-2,-3.2085866E-2,-4.8594173E-2,-4.651379E-2,2.058694E-2,4.3681865E-3,6.0129195E-2,1.8709248E-2,-2.2231886E-2,-1.41724795E-2,5.810832E-2,-5.181257E-2,2.2162661E-2],"split_indices":[46,17,33,0,27,45,32,33,36,32,31,9,33,41,43,21,0,31,34,18,12,0,0,39,19,0,0,0,0,0,0,0,0,0,0,0,0,0,0,0,0,0,0],"split_type":[0,0,0,0,0,0,0,0,0,0,0,0,0,0,0,0,0,0,0,0,0,0,0,0,0,0,0,0,0,0,0,0,0,0,0,0,0,0,0,0,0,0,0],"sum_hessian":[8.809101E2,1.8466191E2,6.962482E2,1.1432897E0,1.8351862E2,6.641644E2,3.20838E1,2.9142286E1,1.5437633E2,6.1568994E2,4.8474495E1,2.0066814E1,1.2016988E1,1.9634546E1,9.507741E0,1.5320262E2,1.1737168E0,6.009733E2,1.4716596E1,1.0861227E1,3.7613266E1,1.1229677E0,1.8943846E1,3.891456E0,8.125532E0,1.8574251E1,1.0602947E0,3.0300574E0,6.4776835E0,1.5153305E2,1.6695575E0,5.2207245E2,7.890088E1,2.463559E0,1.22530365E1,2.428849E0,8.432378E0,2.0275282E1,1.7337984E1,1.165935E0,2.7255208E0,2.8348644E0,5.2906675E0],"tree_param":{"num_deleted":"0","num_feature":"52","num_nodes":"43","size_leaf_vector":"1"}},{"base_weights":[-6.632377E-1,-1.255717E0,-5.073056E-1,-1.0666289E0,-1.3018609E0,-5.777208E-1,8.512334E-1,-1.1061237E0,1.0851678E-2,-1.3065976E0,-1.9805199E-2,1.5860984E-1,-6.481478E-1,1.0843089E0,-2.9709285E-1,-1.2156912E0,-5.7453144E-1,-6.562951E-2,-2.5101492E-2,-5.107818E-1,3.0546787E-1,-6.6465205E-1,1.3509306E-1,1.3421021E-1,1.2258844E0,3.6555704E-2,-7.2432923E-1,-6.206773E-2,-1.109759E-2,-4.8453998E-2,5.6866974E-2,1.3951213E-3,-5.254055E-2,2.9443163E-2,-1.0795333E-2,-3.217099E-2,-6.457726E-2,-1.1760588E-2,5.78129E-2,3.556654E-2,-3.0174611E-2,1.4445627E-3,6.41432E-2,-5.8445822E-2,6.919266E-3],"categories":[],"categories_nodes":[],"categories_segments":[],"categories_sizes":[],"default_left":[0,0,0,0,0,0,0,0,0,0,0,0,0,0,0,0,0,0,0,0,0,0,0,0,0,0,0,0,0,0,0,0,0,0,0,0,0,0,0,0,0,0,0,0,0],"id":12,"left_children":[1,3,5,7,9,11,13,15,-1,17,-1,19,21,23,25,27,29,-1,-1,31,33,35,37,39,41,-1,43,-1,-1,-1,-1,-1,-1,-1,-1,-1,-1,-1,-1,-1,-1,-1,-1,-1,-1],"loss_changes":[7.9854126E1,1.8933105E-1,6.6632095E1,2.3191757E0,8.670044E-2,3.422104E1,9.549149E0,1.6284218E0,0E0,1.4419556E-2,0E0,5.88111E0,7.8547516E0,3.7191963E0,3.429575E0,5.463486E-1,6.993869E0,0E0,0E0,3.186292E0,7.2763324E0,7.0016174E0,5.2737913E0,2.5015354E0,1.6684189E0,0E0,2.143222E0,0E0,0E0,0E0,0E0,0E0,0E0,0E0,0E0,0E0,0E0,0E0,0E0,0E0,0E0,0E0,0E0,0E0,0E0],"parents":[2147483647,0,0,1,1,2,2,3,3,4,4,5,5,6,6,7,7,9,9,11,11,12,12,13,13,14,14,15,15,16,16,19,19,20,20,21,21,22,22,23,23,24,24,26,26],"right_children":[2,4,6,8,10,12,14,16,-1,18,-1,20,22,24,26,28,30,-1,-1,32,34,36,38,40,42,-1,44,-1,-1,-1,-1,-1,-1,-1,-1,-1,-1,-1,-1,-1,-1,-1,-1,-1,-1],"split_conditions":[1E0,1.4747763E-3,4.7493473E-4,8.115696E-3,3.1601521E-3,1E0,2.6535694E-3,8E0,1.0851678E-2,9.294315E-4,-1.9805199E-2,1.6500191E4,3.7377316E-4,7.185546E1,3.2E1,5.6745727E-3,9.717565E-4,-6.562951E-2,-2.5101492E-2,7.964957E1,1.6935326E4,2.48277E-5,1.4469485E-3,-9.8222794E-5,1.681194E4,3.6555704E-2,1.4469485E-3,-6.206773E-2,-1.109759E-2,-4.8453998E-2,5.6866974E-2,1.3951213E-3,-5.254055E-2,2.9443163E-2,-1.0795333E-2,-3.217099E-2,-6.457726E-2,-1.1760588E-2,5.78129E-2,3.556654E-2,-3.0174611E-2,1.4445627E-3,6.41432E-2,-5.8445822E-2,6.919266E-3],"split_indices":[46,27,33,7,36,47,27,40,0,21,0,4,32,43,39,7,33,0,0,43,4,31,34,31,22,0,33,0,0,0,0,0,0,0,0,0,0,0,0,0,0,0,0,0,0],"split_type":[0,0,0,0,0,0,0,0,0,0,0,0,0,0,0,0,0,0,0,0,0,0,0,0,0,0,0,0,0,0,0,0,0,0,0,0,0,0,0,0,0,0,0,0,0],"sum_hessian":[8.702437E2,1.7984642E2,6.9039734E2,4.0009724E1,1.398367E2,6.569227E2,3.3474583E1,3.8949657E1,1.0600667E0,1.3866896E2,1.1677334E0,5.723764E1,5.996851E2,2.7872965E1,5.601619E0,3.1226597E1,7.723061E0,1.3701701E2,1.6519552E0,9.852235E0,4.7385406E1,5.874577E2,1.2227364E1,3.8673773E0,2.4005587E1,1.4355335E0,4.1660852E0,3.0197565E1,1.029031E0,6.6291046E0,1.0939566E0,5.407016E0,4.445219E0,3.061503E1,1.6770376E1,5.701728E2,1.728492E1,9.538194E0,2.68917E0,2.1899111E0,1.6774664E0,1.1592748E0,2.2846312E1,2.5150585E0,1.6510267E0],"tree_param":{"num_deleted":"0","num_feature":"52","num_nodes":"45","size_leaf_vector":"1"}},{"base_weights":[-6.384886E-1,-1.2278826E0,-4.8625648E-1,-1.0097733E0,-1.2680353E0,-5.5147105E-1,8.68331E-1,-1.1876347E0,-4.4728335E-2,-1.2738512E0,-2.276105E-2,-6.127286E-1,2.1394633E-1,1.2725194E0,1.6789807E-1,-1.2539986E0,1.2638988E-2,8.9041674E-1,-7.937111E-1,-6.391949E-2,-1.9326836E-2,-6.2582785E-1,4.7401667E-1,9.3569595E-1,-1.1242575E-2,1.5511979E-2,6.559226E-2,-1.0157436E-1,8.1123877E-1,-1.6137717E-2,-6.433519E-2,9.252902E-3,5.8603477E-2,-4.6187412E-2,-1.08653875E-2,-2.822454E-2,-4.1017618E-2,5.73782E-2,-1.1260707E-2,3.6196038E-3,5.7617825E-2,3.6181316E-2,-1.1210683E-2,3.1562936E-2,-2.2957565E-2,5.0456878E-2,8.195805E-3],"categories":[],"categories_nodes":[],"categories_segments":[],"categories_sizes":[],"default_left":[0,0,0,0,0,0,0,0,0,0,0,0,0,0,0,0,0,0,0,0,0,0,0,0,0,0,0,0,0,0,0,0,0,0,0,0,0,0,0,0,0,0,0,0,0,0,0],"id":13,"left_children":[1,3,5,7,9,11,13,15,17,19,-1,21,23,25,27,29,-1,31,33,-1,-1,35,37,39,41,-1,-1,43,45,-1,-1,-1,-1,-1,-1,-1,-1,-1,-1,-1,-1,-1,-1,-1,-1,-1,-1],"loss_changes":[7.660391E1,2.605896E-1,6.10316E1,5.485321E0,1.0411072E-1,3.0823013E1,8.809828E0,2.917694E0,4.9516187E0,8.21991E-2,0E0,8.928253E0,8.014593E0,3.5207748E-1,2.3039672E0,3.8193893E-1,0E0,4.1219926E-1,9.1130495E-2,0E0,0E0,6.6904755E0,3.9275396E0,2.109315E0,6.1914206E0,0E0,0E0,2.889397E0,3.3345985E-1,0E0,0E0,0E0,0E0,0E0,0E0,0E0,0E0,0E0,0E0,0E0,0E0,0E0,0E0,0E0,0E0,0E0,0E0],"parents":[2147483647,0,0,1,1,2,2,3,3,4,4,5,5,6,6,7,7,8,8,9,9,11,11,12,12,13,13,14,14,15,15,17,17,18,18,21,21,22,22,23,23,24,24,27,27,28,28],"right_children":[2,4,6,8,10,12,14,16,18,20,-1,22,24,26,28,30,-1,32,34,-1,-1,36,38,40,42,-1,-1,44,46,-1,-1,-1,-1,-1,-1,-1,-1,-1,-1,-1,-1,-1,-1,-1,-1,-1,-1],"split_conditions":[1E0,3.588032E-1,5.377078E-4,9.717565E-4,5.3989708E1,1E0,4.637222E-7,7.874402E-3,7.329991E1,3.1601521E-3,-2.276105E-2,9.6E1,1.5501065E-4,-1.2631348E-3,1.694962E4,-1.7023655E-3,1.2638988E-2,0E0,3.3599533E1,-6.391949E-2,-1.9326836E-2,1.7030111E4,4.3094265E-1,3.0434728E-3,7.559212E-2,1.5511979E-2,6.559226E-2,9.717565E-4,4.9264318E-1,-1.6137717E-2,-6.433519E-2,9.252902E-3,5.8603477E-2,-4.6187412E-2,-1.08653875E-2,-2.822454E-2,-4.1017618E-2,5.73782E-2,-1.1260707E-2,3.6196038E-3,5.7617825E-2,3.6181316E-2,-1.1210683E-2,3.1562936E-2,-2.2957565E-2,5.0456878E-2,8.195805E-3],"split_indices":[46,19,33,33,10,45,32,7,43,36,0,38,31,9,22,26,0,0,11,0,0,22,13,18,13,0,0,33,13,0,0,0,0,0,0,0,0,0,0,0,0,0,0,0,0,0,0],"split_type":[0,0,0,0,0,0,0,0,0,0,0,0,0,0,0,0,0,0,0,0,0,0,0,0,0,0,0,0,0,0,0,0,0,0,0,0,0,0,0,0,0,0,0,0,0,0,0],"sum_hessian":[8.594206E2,1.7496114E2,6.844595E2,3.1266998E1,1.4369414E2,6.5358636E2,3.087306E1,2.6206404E1,5.060593E0,1.4211009E2,1.5840366E0,6.0533966E2,4.8246746E1,1.9058496E1,1.1814564E1,2.5175898E1,1.0305067E0,2.1666188E0,2.8939743E0,1.409484E2,1.1617093E0,5.985491E2,6.7905827E0,1.0723109E1,3.7523636E1,1.0972952E0,1.7961203E1,8.920288E0,2.894276E0,1.2229285E0,2.3952969E1,1.091117E0,1.0755018E0,1.8695866E0,1.0243876E0,4.5802695E2,1.4052213E2,3.132226E0,3.6583567E0,2.4189017E0,8.304207E0,7.8924656E0,2.963117E1,2.6742303E0,6.2460575E0,1.7885436E0,1.1057323E0],"tree_param":{"num_deleted":"0","num_feature":"52","num_nodes":"47","size_leaf_vector":"1"}},{"base_weights":[-6.144471E-1,-1.2018267E0,-4.6570164E-1,-1.0099541E0,-1.2493099E0,-5.3026205E-1,8.053218E-1,-1.0502375E0,1.1761E-2,-1.2540963E0,-1.886167E-2,1.4681938E-1,-5.959014E-1,1.0317436E0,-2.7538124E-1,-1.1620072E0,-5.205192E-1,-6.301301E-2,-2.3050597E-2,-6.7803985E-1,2.5708538E-1,-1.2843777E-1,-6.225511E-1,1.04448676E-1,1.1741338E0,3.5785217E-2,-6.924895E-1,-5.9402216E-2,-9.872897E-3,-4.5830745E-2,5.517263E-2,2.057636E-2,-6.287461E-2,2.4236469E-2,-1.0420104E-2,3.9087195E-2,-1.9325495E-2,-2.7691662E-2,-3.963464E-2,3.328075E-2,-2.9511724E-2,7.115273E-4,6.1585616E-2,-5.6462176E-2,6.9370554E-3],"categories":[],"categories_nodes":[],"categories_segments":[],"categories_sizes":[],"default_left":[0,0,0,0,0,0,0,0,0,0,0,0,0,0,0,0,0,0,0,0,0,0,0,0,0,0,0,0,0,0,0,0,0,0,0,0,0,0,0,0,0,0,0,0,0],"id":14,"left_children":[1,3,5,7,9,11,13,15,-1,17,-1,19,21,23,25,27,29,-1,-1,31,33,35,37,39,41,-1,43,-1,-1,-1,-1,-1,-1,-1,-1,-1,-1,-1,-1,-1,-1,-1,-1,-1,-1],"loss_changes":[7.3674774E1,2.966919E-1,5.619374E1,2.2109375E0,8.164978E-2,2.8857971E1,8.419767E0,1.6514435E0,0E0,6.303406E-2,0E0,5.450866E0,7.274353E0,3.5347462E0,3.2027469E0,5.3534317E-1,6.4477415E0,0E0,0E0,5.0099564E0,5.600395E0,8.076997E0,6.0878296E0,2.2581573E0,1.5796318E0,0E0,2.0144193E0,0E0,0E0,0E0,0E0,0E0,0E0,0E0,0E0,0E0,0E0,0E0,0E0,0E0,0E0,0E0,0E0,0E0,0E0],"parents":[2147483647,0,0,1,1,2,2,3,3,4,4,5,5,6,6,7,7,9,9,11,11,12,12,13,13,14,14,15,15,16,16,19,19,20,20,21,21,22,22,23,23,24,24,26,26],"right_children":[2,4,6,8,10,12,14,16,-1,18,-1,20,22,24,26,28,30,-1,-1,32,34,36,38,40,42,-1,44,-1,-1,-1,-1,-1,-1,-1,-1,-1,-1,-1,-1,-1,-1,-1,-1,-1,-1],"split_conditions":[1E0,1.4747763E-3,4.7493473E-4,8.115696E-3,3.1601521E-3,1E0,2.6535694E-3,8E0,1.1761E-2,9.294315E-4,-1.886167E-2,1.6467725E4,1.645142E4,7.185546E1,3.2E1,5.6745727E-3,9.717565E-4,-6.301301E-2,-2.3050597E-2,1.6425512E4,1.6935326E4,1.6464113E4,1.69874E4,-9.8222794E-5,1.681194E4,3.5785217E-2,1.4469485E-3,-5.9402216E-2,-9.872897E-3,-4.5830745E-2,5.517263E-2,2.057636E-2,-6.287461E-2,2.4236469E-2,-1.0420104E-2,3.9087195E-2,-1.9325495E-2,-2.7691662E-2,-3.963464E-2,3.328075E-2,-2.9511724E-2,7.115273E-4,6.1585616E-2,-5.6462176E-2,6.9370554E-3],"split_indices":[46,27,33,7,36,47,27,40,0,21,0,50,50,43,39,7,33,0,0,4,4,5,22,31,22,0,33,0,0,0,0,0,0,0,0,0,0,0,0,0,0,0,0,0,0],"split_type":[0,0,0,0,0,0,0,0,0,0,0,0,0,0,0,0,0,0,0,0,0,0,0,0,0,0,0,0,0,0,0,0,0,0,0,0,0,0,0,0,0,0,0,0,0],"sum_hessian":[8.486559E2,1.7005348E2,6.786024E2,3.8152874E1,1.319006E2,6.4635425E2,3.2248146E1,3.7108894E1,1.0439802E0,1.3074495E2,1.1556573E0,5.7013462E1,5.893408E2,2.669954E1,5.5486093E0,2.9657568E1,7.4513264E0,1.2915211E2,1.5928353E0,6.1156225E0,5.089784E1,3.209959E1,5.572412E2,3.784842E0,2.2914696E1,1.4314611E0,4.1171484E0,2.8652414E1,1.0051527E0,6.340432E0,1.1108942E0,2.223843E0,3.8917794E0,3.415379E1,1.6744053E1,6.6426816E0,2.545691E1,3.9995868E2,1.5728252E2,2.1167617E0,1.6680803E0,1.1426923E0,2.1772005E1,2.4639783E0,1.6531699E0],"tree_param":{"num_deleted":"0","num_feature":"52","num_nodes":"45","size_leaf_vector":"1"}},{"base_weights":[-5.9171146E-1,-1.1772857E0,-4.4642073E-1,-9.554663E-1,-1.2186921E0,-5.061305E-1,8.2311076E-1,-1.1368281E0,-1.0731112E-2,-1.2246749E0,-2.0826101E-2,-5.632046E-1,1.979538E-1,1.2271227E0,1.4769106E-1,-1.205292E0,1.3484421E-2,8.8218504E-1,-7.54072E-1,-6.1464258E-2,-1.840922E-2,-5.7593876E-1,4.7604057E-1,8.925244E-1,-1.627431E-2,1.3343453E-2,6.344446E-2,-1.10428914E-1,7.709076E-1,-1.4607929E-2,-6.194521E-2,5.8151525E-2,9.059903E-3,-9.654732E-3,-4.429889E-2,-1.4412559E-3,-2.9759306E-2,6.74976E-2,-2.1742037E-3,-6.779432E-3,5.2704055E-2,1.7118795E-2,-2.1538964E-2,-4.8268005E-2,9.602612E-3,4.8297584E-2,7.2804964E-3],"categories":[],"categories_nodes":[],"categories_segments":[],"categories_sizes":[],"default_left":[0,0,0,0,0,0,0,0,0,0,0,0,0,0,0,0,0,0,0,0,0,0,0,0,0,0,0,0,0,0,0,0,0,0,0,0,0,0,0,0,0,0,0,0,0,0,0],"id":15,"left_children":[1,3,5,7,9,11,13,15,17,19,-1,21,23,25,27,29,-1,31,33,-1,-1,35,37,39,41,-1,-1,43,45,-1,-1,-1,-1,-1,-1,-1,-1,-1,-1,-1,-1,-1,-1,-1,-1,-1,-1],"loss_changes":[7.084299E1,3.6161804E-1,5.1485962E1,5.259123E0,1.444397E-1,2.5993164E1,8.180784E0,2.8095894E0,4.62406E0,7.987976E-2,0E0,8.162003E0,7.3106003E0,4.2490005E-1,2.1130326E0,3.9879608E-1,0E0,4.1342402E-1,1.0966158E-1,0E0,0E0,6.1881104E0,3.5829737E0,2.0657625E0,5.864651E0,0E0,0E0,2.7168221E0,3.249128E-1,0E0,0E0,0E0,0E0,0E0,0E0,0E0,0E0,0E0,0E0,0E0,0E0,0E0,0E0,0E0,0E0,0E0,0E0],"parents":[2147483647,0,0,1,1,2,2,3,3,4,4,5,5,6,6,7,7,8,8,9,9,11,11,12,12,13,13,14,14,15,15,17,17,18,18,21,21,22,22,23,23,24,24,27,27,28,28],"right_children":[2,4,6,8,10,12,14,16,18,20,-1,22,24,26,28,30,-1,32,34,-1,-1,36,38,40,42,-1,-1,44,46,-1,-1,-1,-1,-1,-1,-1,-1,-1,-1,-1,-1,-1,-1,-1,-1,-1,-1],"split_conditions":[1E0,3.588032E-1,5.377078E-4,9.717565E-4,5.3989708E1,1E0,4.637222E-7,7.874402E-3,7.329991E1,3.1601521E-3,-2.0826101E-2,9.6E1,1.5501065E-4,5.9607014E-4,1.694962E4,-1.7023655E-3,1.3484421E-2,-2.5881904E-1,1.6681934E4,-6.1464258E-2,-1.840922E-2,1.638817E4,9.400914E-1,2.4162257E-2,3.2705223E1,1.3343453E-2,6.344446E-2,1.4528603E-4,1E0,-1.4607929E-2,-6.194521E-2,5.8151525E-2,9.059903E-3,-9.654732E-3,-4.429889E-2,-1.4412559E-3,-2.9759306E-2,6.74976E-2,-2.1742037E-3,-6.779432E-3,5.2704055E-2,1.7118795E-2,-2.1538964E-2,-4.8268005E-2,9.602612E-3,4.8297584E-2,7.2804964E-3],"split_indices":[46,19,33,33,10,45,32,7,43,36,0,38,31,33,22,26,0,1,4,0,0,49,19,13,12,0,0,31,47,0,0,0,0,0,0,0,0,0,0,0,0,0,0,0,0,0,0],"split_type":[0,0,0,0,0,0,0,0,0,0,0,0,0,0,0,0,0,0,0,0,0,0,0,0,0,0,0,0,0,0,0,0,0,0,0,0,0,0,0,0,0,0,0,0,0,0,0],"sum_hessian":[8.378552E2,1.6514766E2,6.727076E2,2.9765493E1,1.3538216E2,6.430637E2,2.9643845E1,2.4801077E1,4.964418E0,1.338571E2,1.5250522E0,5.9502985E2,4.8033897E1,1.8037579E1,1.1606265E1,2.3786312E1,1.0147636E0,2.1704478E0,2.79397E0,1.3270752E2,1.14959E0,5.882674E2,6.762397E0,1.0576506E1,3.745739E1,1.05986E0,1.697772E1,8.788929E0,2.8173363E0,1.1885791E0,2.2597734E1,1.0790153E0,1.0914326E0,1.0009499E0,1.7930202E0,2.007668E1,5.6819073E2,1.9253156E0,4.8370814E0,1.4581134E0,9.118392E0,2.0175E1,1.7282393E1,1.7241966E0,7.0647326E0,1.732229E0,1.0851073E0],"tree_param":{"num_deleted":"0","num_feature":"52","num_nodes":"47","size_leaf_vector":"1"}},{"base_weights":[-5.6966275E-1,-1.1541516E0,-4.2766756E-1,-9.585046E-1,-1.2033046E0,-4.8678756E-1,7.6105255E-1,-1.0857171E0,-4.0898576E-1,-6.141612E-2,-8.374685E-1,1.3616551E-1,-5.4793715E-1,9.8562545E-1,-2.713373E-1,-1.143672E0,8.171173E-3,-7.7442557E-1,5.3545285E-2,-5.6958433E-2,-9.7803056E-2,-4.886464E-1,2.7364367E-1,-5.638301E-1,1.7959186E-1,8.1019185E-2,1.1290131E0,-7.150884E-1,3.2029286E-2,-1.26576675E-2,-5.8576472E-2,-4.87328E-2,8.35112E-3,-3.636437E-2,1.9870471E-2,-5.200983E-3,-6.395354E-2,3.5122592E-2,-1.6375304E-3,-2.6783025E-2,-5.265159E-2,-8.911855E-3,5.7516374E-2,3.127832E-2,-2.8679986E-2,1.9857414E-4,5.9358817E-2,-5.1476385E-2,6.985806E-5],"categories":[],"categories_nodes":[],"categories_segments":[],"categories_sizes":[],"default_left":[0,0,0,0,0,0,0,0,0,0,0,0,0,0,0,0,0,0,0,0,0,0,0,0,0,0,0,0,0,0,0,0,0,0,0,0,0,0,0,0,0,0,0,0,0,0,0,0,0],"id":16,"left_children":[1,3,5,7,9,11,13,15,17,-1,19,21,23,25,27,29,-1,31,-1,-1,33,35,37,39,41,43,45,47,-1,-1,-1,-1,-1,-1,-1,-1,-1,-1,-1,-1,-1,-1,-1,-1,-1,-1,-1,-1,-1],"loss_changes":[6.823294E1,3.9744568E-1,4.7302902E1,2.1631355E0,1.15112305E-1,2.4332062E1,7.6934834E0,2.3355827E0,5.4885488E0,0E0,2.374929E0,5.0918674E0,6.808319E0,3.3488407E0,3.091124E0,4.1018295E-1,0E0,1.5745978E0,0E0,0E0,1.6362706E0,3.1409152E0,6.3232055E0,7.2620544E0,4.775959E0,2.0364647E0,1.4883423E0,1.0939643E0,0E0,0E0,0E0,0E0,0E0,0E0,0E0,0E0,0E0,0E0,0E0,0E0,0E0,0E0,0E0,0E0,0E0,0E0,0E0,0E0,0E0],"parents":[2147483647,0,0,1,1,2,2,3,3,4,4,5,5,6,6,7,7,8,8,10,10,11,11,12,12,13,13,14,14,15,15,17,17,20,20,21,21,22,22,23,23,24,24,25,25,26,26,27,27],"right_children":[2,4,6,8,10,12,14,16,18,-1,20,22,24,26,28,30,-1,32,-1,-1,34,36,38,40,42,44,46,48,-1,-1,-1,-1,-1,-1,-1,-1,-1,-1,-1,-1,-1,-1,-1,-1,-1,-1,-1,-1,-1],"split_conditions":[1E0,1.4747763E-3,4.7493473E-4,8E0,9.6E1,1E0,2.6535694E-3,5.938519E-3,9.717565E-4,-6.141612E-2,8.660254E-1,1.6500191E4,3.7377316E-4,7.185546E1,1.9322652E-3,-3.1811578E-4,8.171173E-3,4.0191994E-3,5.3545285E-2,-5.6958433E-2,1.6552664E4,4.986713E-4,1.6794264E4,-9.208185E-5,1.4469485E-3,-9.8222794E-5,1.681194E4,-2.8198384E-4,3.2029286E-2,-1.26576675E-2,-5.8576472E-2,-4.87328E-2,8.35112E-3,-3.636437E-2,1.9870471E-2,-5.200983E-3,-6.395354E-2,3.5122592E-2,-1.6375304E-3,-2.6783025E-2,-5.265159E-2,-8.911855E-3,5.7516374E-2,3.127832E-2,-2.8679986E-2,1.9857414E-4,5.9358817E-2,-5.1476385E-2,6.985806E-5],"split_indices":[46,27,33,40,40,47,27,7,33,0,1,4,32,43,33,34,0,18,0,0,5,31,28,32,34,31,22,36,0,0,0,0,0,0,0,0,0,0,0,0,0,0,0,0,0,0,0,0,0],"split_type":[0,0,0,0,0,0,0,0,0,0,0,0,0,0,0,0,0,0,0,0,0,0,0,0,0,0,0,0,0,0,0,0,0,0,0,0,0,0,0,0,0,0,0,0,0,0,0,0,0],"sum_hessian":[8.270845E2,1.602649E2,6.668196E2,3.629568E1,1.23969215E2,6.357897E2,3.1029964E1,2.8680452E1,7.6152263E0,1.1382754E2,1.0141674E1,5.67214E1,5.7906824E2,2.5523256E1,5.5067067E0,2.748949E1,1.1909635E0,6.4894443E0,1.1257823E0,6.819837E0,3.3218374E0,9.768966E0,4.6952435E1,5.6690906E2,1.2159153E1,3.7062478E0,2.1817009E1,3.8493962E0,1.6573104E0,1.1398357E0,2.6349653E1,5.322222E0,1.1672218E0,1.2562858E0,2.0655518E0,7.332509E0,2.4364567E0,1.9028637E1,2.79238E1,5.3802325E2,2.8885841E1,9.480775E0,2.6783786E0,2.0474498E0,1.658798E0,1.1249828E0,2.0692026E1,2.3716521E0,1.4777442E0],"tree_param":{"num_deleted":"0","num_feature":"52","num_nodes":"49","size_leaf_vector":"1"}},{"base_weights":[-5.487876E-1,-1.1322538E0,-4.1004115E-1,-9.053519E-1,-1.1752199E0,-4.646816E-1,7.802862E-1,-1.0906669E0,1.8684361E-2,-1.1812598E0,-1.9858042E-2,-5.178062E-1,1.8299474E-1,1.1871153E0,1.260074E-1,-1.1604898E0,7.604569E-3,8.700796E-1,-3.5897035E-2,-1.1861415E0,-1.6900687E-2,-5.356304E-1,1.6730805E-1,6.32861E-2,5.4466218E-2,1.1726786E-2,6.154868E-2,-1.2361095E-1,7.3843884E-1,-1.3072892E-2,-5.9932705E-2,5.7374295E-2,8.865056E-3,-2.2897117E-2,-5.9636213E-2,-2.455598E-2,-4.1198526E-2,-4.3534685E-2,2.1311702E-2,-2.4808196E-2,1.9227188E-2,-4.747765E-2,8.747969E-3,4.6343468E-2,6.78887E-3],"categories":[],"categories_nodes":[],"categories_segments":[],"categories_sizes":[],"default_left":[0,0,0,0,0,0,0,0,0,0,0,0,0,0,0,0,0,0,0,0,0,0,0,0,0,0,0,0,0,0,0,0,0,0,0,0,0,0,0,0,0,0,0,0,0],"id":17,"left_children":[1,3,5,7,9,11,13,15,17,19,-1,21,23,25,27,29,-1,31,-1,33,-1,35,37,-1,39,-1,-1,41,43,-1,-1,-1,-1,-1,-1,-1,-1,-1,-1,-1,-1,-1,-1,-1,-1],"loss_changes":[6.570401E1,4.613495E-1,4.3412605E1,5.031584E0,1.3323975E-1,2.1891144E1,7.682331E0,2.2931442E0,4.30719E0,1.2063599E-1,0E0,7.242157E0,6.716562E0,4.6429634E-1,1.9868724E0,4.82996E-1,0E0,4.0687656E-1,0E0,5.570984E-2,0E0,6.9250183E0,4.56758E0,0E0,8.302495E0,0E0,0E0,2.5497382E0,2.981727E-1,0E0,0E0,0E0,0E0,0E0,0E0,0E0,0E0,0E0,0E0,0E0,0E0,0E0,0E0,0E0,0E0],"parents":[2147483647,0,0,1,1,2,2,3,3,4,4,5,5,6,6,7,7,8,8,9,9,11,11,12,12,13,13,14,14,15,15,17,17,19,19,21,21,22,22,24,24,27,27,28,28],"right_children":[2,4,6,8,10,12,14,16,18,20,-1,22,24,26,28,30,-1,32,-1,34,-1,36,38,-1,40,-1,-1,42,44,-1,-1,-1,-1,-1,-1,-1,-1,-1,-1,-1,-1,-1,-1,-1,-1],"split_conditions":[1E0,3.588032E-1,5.377078E-4,9.717565E-4,5.3989708E1,1E0,4.637222E-7,7.687014E-3,7.329991E1,3.1601521E-3,-1.9858042E-2,4.041268E-4,1.4640527E-3,-1.2631348E-3,1.694962E4,-2.6588958E-2,7.604569E-3,-2.9680654E-4,-3.5897035E-2,-3.2401673E-4,-1.6900687E-2,-9.327975E-5,-2.9084898E-4,6.32861E-2,2.4E1,1.1726786E-2,6.154868E-2,1.4528603E-4,2.5957946E-3,-1.3072892E-2,-5.9932705E-2,5.7374295E-2,8.865056E-3,-2.2897117E-2,-5.9636213E-2,-2.455598E-2,-4.1198526E-2,-4.3534685E-2,2.1311702E-2,-2.4808196E-2,1.9227188E-2,-4.747765E-2,8.747969E-3,4.6343468E-2,6.78887E-3],"split_indices":[46,19,33,33,10,45,32,7,43,36,0,32,27,9,22,23,0,34,0,35,0,31,34,0,38,0,0,31,9,0,0,0,0,0,0,0,0,0,0,0,0,0,0,0,0],"split_type":[0,0,0,0,0,0,0,0,0,0,0,0,0,0,0,0,0,0,0,0,0,0,0,0,0,0,0,0,0,0,0,0,0,0,0,0,0,0,0,0,0,0,0,0,0],"sum_hessian":[8.163579E2,1.5545734E2,6.609006E2,2.8264612E1,1.27192726E2,6.324771E2,2.8423426E1,2.3392859E1,4.871755E0,1.25698746E2,1.4939811E0,5.8471716E2,4.775996E1,1.7023726E1,1.1399701E1,2.2211147E1,1.1817102E0,2.1757922E0,2.6959627E0,1.2457094E2,1.127806E0,5.7010333E2,1.46138315E1,4.12904E0,4.363092E1,1.0286895E0,1.5995035E1,8.665806E0,2.7338955E0,1.2241765E0,2.098697E1,1.0849838E0,1.0908085E0,1.7482028E0,1.2282274E2,4.9620755E2,7.38958E1,2.4458826E0,1.2167949E1,1.6163708E1,2.7467215E1,1.721964E0,6.943842E0,1.6728847E0,1.0610108E0],"tree_param":{"num_deleted":"0","num_feature":"52","num_nodes":"45","size_leaf_vector":"1"}},{"base_weights":[-5.2850986E-1,-1.1114064E0,-3.9294815E-1,-9.106331E-1,-1.1626499E0,-4.471121E-1,7.208664E-1,-1.0445577E0,-3.560061E-1,-5.9430152E-2,-7.906905E-1,1.2667845E-1,-5.041675E-1,1.0981933E0,8.851029E-2,-2.3267189E-1,-1.129255E0,-7.066409E-1,4.0116865E-2,-1.0155672E0,6.4602043E-3,2.6736993E-1,-4.5167863E-1,-5.817646E-2,-5.301647E-1,-1.3767831E-2,1.2124021E0,-1.3011299E-1,4.1287445E-2,3.7001025E-2,-4.1811198E-2,-5.8163315E-2,-9.1261435E-3,-4.5826633E-2,1.0168592E-2,-7.537981E-3,-5.557021E-2,-1.2141849E-2,2.3742795E-2,-3.7068173E-2,2.8304696E-2,4.0792573E-2,-1.5584714E-2,-2.3089739E-2,-3.5031114E-2,6.268433E-2,1.5322058E-2,2.9769657E-2,-2.641198E-2],"categories":[],"categories_nodes":[],"categories_segments":[],"categories_sizes":[],"default_left":[0,0,0,0,0,0,0,0,0,0,0,0,0,0,0,0,0,0,0,0,0,0,0,0,0,0,0,0,0,0,0,0,0,0,0,0,0,0,0,0,0,0,0,0,0,0,0,0,0],"id":18,"left_children":[1,3,5,7,9,11,13,15,17,-1,19,21,23,25,27,29,31,33,-1,35,-1,37,39,41,43,-1,45,47,-1,-1,-1,-1,-1,-1,-1,-1,-1,-1,-1,-1,-1,-1,-1,-1,-1,-1,-1,-1,-1],"loss_changes":[6.3317795E1,5.0187683E-1,3.9906433E1,2.2618046E0,1.9189453E-1,2.0568558E1,7.254408E0,1.6656513E0,3.984143E0,0E0,2.3308635E0,4.7951546E0,6.576721E0,3.3471718E0,2.1385858E0,2.9134965E0,5.9700394E-1,1.5215497E0,0E0,5.4997826E-1,0E0,5.0732203E0,3.8432708E0,7.4585114E0,5.9507294E0,0E0,2.8604317E-1,3.3714836E0,0E0,0E0,0E0,0E0,0E0,0E0,0E0,0E0,0E0,0E0,0E0,0E0,0E0,0E0,0E0,0E0,0E0,0E0,0E0,0E0,0E0],"parents":[2147483647,0,0,1,1,2,2,3,3,4,4,5,5,6,6,7,7,8,8,10,10,11,11,12,12,13,13,14,14,15,15,16,16,17,17,19,19,21,21,22,22,23,23,24,24,26,26,27,27],"right_children":[2,4,6,8,10,12,14,16,18,-1,20,22,24,26,28,30,32,34,-1,36,-1,38,40,42,44,-1,46,48,-1,-1,-1,-1,-1,-1,-1,-1,-1,-1,-1,-1,-1,-1,-1,-1,-1,-1,-1,-1,-1],"split_conditions":[1E0,1.4747763E-3,4.7493473E-4,4E1,9.6E1,1E0,4.637222E-7,-8.660254E-1,9.549756E-4,-5.9430152E-2,9.659258E-1,3.7571293E1,1.645142E4,2.1578894E1,6.8E1,-2.9416947E-4,9.048025E0,1.4377845E-3,4.0116865E-2,7.605483E1,6.4602043E-3,-5E-1,-2.8386136E-4,1.6464113E4,1.69874E4,-1.3767831E-2,6.3080496E-1,1.9392115E1,4.1287445E-2,3.7001025E-2,-4.1811198E-2,-5.8163315E-2,-9.1261435E-3,-4.5826633E-2,1.0168592E-2,-7.537981E-3,-5.557021E-2,-1.2141849E-2,2.3742795E-2,-3.7068173E-2,2.8304696E-2,4.0792573E-2,-1.5584714E-2,-2.3089739E-2,-3.5031114E-2,6.268433E-2,1.5322058E-2,2.9769657E-2,-2.641198E-2],"split_indices":[46,27,33,38,40,47,32,1,33,0,1,10,50,11,40,35,20,27,0,17,0,1,34,5,22,0,13,10,0,0,0,0,0,0,0,0,0,0,0,0,0,0,0,0,0,0,0,0,0],"split_type":[0,0,0,0,0,0,0,0,0,0,0,0,0,0,0,0,0,0,0,0,0,0,0,0,0,0,0,0,0,0,0,0,0,0,0,0,0,0,0,0,0,0,0,0,0,0,0,0,0],"sum_hessian":[8.058308E2,1.5068925E2,6.5514154E2,3.4456905E1,1.16232346E2,6.2533075E2,2.9810799E1,2.7043432E1,7.4134727E0,1.0659898E2,9.633359E0,5.6446175E1,5.688846E2,1.8208885E1,1.1601914E1,2.9086847E0,2.4134748E1,5.9901786E0,1.4232938E0,7.6574264E0,1.9759328E0,4.583422E1,1.0611951E1,3.151269E1,5.373719E2,1.2895012E0,1.6919384E1,9.583502E0,2.0184119E0,1.0271721E0,1.8815126E0,2.3076994E1,1.0577551E0,4.861682E0,1.1284969E0,1.0206286E0,6.636798E0,1.3201479E1,3.2632744E1,8.472139E0,2.1398115E0,6.5866013E0,2.4926088E1,3.8618384E2,1.5118803E2,1.5814883E1,1.104501E0,3.2200742E0,6.363428E0],"tree_param":{"num_deleted":"0","num_feature":"52","num_nodes":"49","size_leaf_vector":"1"}},{"base_weights":[-5.0894266E-1,-1.0915216E0,-3.764891E-1,-8.588522E-1,-1.136245E0,-4.266538E-1,7.413788E-1,-1.0483332E0,4.381868E-2,-1.1426966E0,-1.742982E-2,-4.7618532E-1,1.703714E-1,1.1485696E0,1.2031269E-1,-1.1210438E0,8.694781E-3,8.4921175E-1,-6.8241E-1,-1.1479026E0,-1.5424269E-2,-4.881092E-1,4.6388683E-1,8.242276E-1,-2.6860146E-2,1.1002077E-2,5.9680887E-2,-1.2265541E-1,7.1848345E-1,-1.1383662E-2,-5.8041323E-2,5.5343747E-2,9.071934E-3,-3.9776698E-2,-1.124797E-2,-2.11054E-2,-5.773724E-2,-2.1550125E-2,-3.3606004E-2,6.5721795E-2,-2.1044267E-3,2.654922E-4,5.202213E-2,3.3978093E-2,-1.1538371E-2,2.8052378E-2,-2.2249395E-2,4.5501243E-2,5.9940848E-3],"categories":[],"categories_nodes":[],"categories_segments":[],"categories_sizes":[],"default_left":[0,0,0,0,0,0,0,0,0,0,0,0,0,0,0,0,0,0,0,0,0,0,0,0,0,0,0,0,0,0,0,0,0,0,0,0,0,0,0,0,0,0,0,0,0,0,0,0,0],"id":19,"left_children":[1,3,5,7,9,11,13,15,17,19,-1,21,23,25,27,29,-1,31,33,35,-1,37,39,41,43,-1,-1,45,47,-1,-1,-1,-1,-1,-1,-1,-1,-1,-1,-1,-1,-1,-1,-1,-1,-1,-1,-1,-1],"loss_changes":[6.1053635E1,5.5404663E-1,3.6795456E1,4.800932E0,2.1260071E-1,1.8510406E1,7.019558E0,2.2404938E0,3.9620464E0,1.6186523E-1,0E0,6.679947E0,6.274097E0,4.4753075E-1,1.8794304E0,5.126076E-1,0E0,3.4763813E-1,7.0972443E-3,9.7076416E-2,0E0,5.689575E0,3.3793173E0,1.9892964E0,5.661228E0,0E0,0E0,2.369534E0,3.1582808E-1,0E0,0E0,0E0,0E0,0E0,0E0,0E0,0E0,0E0,0E0,0E0,0E0,0E0,0E0,0E0,0E0,0E0,0E0,0E0,0E0],"parents":[2147483647,0,0,1,1,2,2,3,3,4,4,5,5,6,6,7,7,8,8,9,9,11,11,12,12,13,13,14,14,15,15,17,17,18,18,19,19,21,21,22,22,23,23,24,24,27,27,28,28],"right_children":[2,4,6,8,10,12,14,16,18,20,-1,22,24,26,28,30,-1,32,34,36,-1,38,40,42,44,-1,-1,46,48,-1,-1,-1,-1,-1,-1,-1,-1,-1,-1,-1,-1,-1,-1,-1,-1,-1,-1,-1,-1],"split_conditions":[1E0,3.588032E-1,5.377078E-4,9.717565E-4,9.294315E-4,1E0,4.637222E-7,7.687014E-3,7.329991E1,3.1601521E-3,-1.742982E-2,9.6E1,1.5501065E-4,7.0412555E0,1.694962E4,-2.6588958E-2,8.694781E-3,-2.9680654E-4,-9.9332276E-5,-3.2401673E-4,-1.5424269E-2,1.7030111E4,9.400914E-1,3.0434728E-3,7.559212E-2,1.1002077E-2,5.9680887E-2,9.717565E-4,2.5957946E-3,-1.1383662E-2,-5.8041323E-2,5.5343747E-2,9.071934E-3,-3.9776698E-2,-1.124797E-2,-2.11054E-2,-5.773724E-2,-2.1550125E-2,-3.3606004E-2,6.5721795E-2,-2.1044267E-3,2.654922E-4,5.202213E-2,3.3978093E-2,-1.1538371E-2,2.8052378E-2,-2.2249395E-2,4.5501243E-2,5.9940848E-3],"split_indices":[46,19,33,33,21,45,32,7,43,36,0,38,31,20,22,23,0,34,31,35,0,22,19,18,13,0,0,33,9,0,0,0,0,0,0,0,0,0,0,0,0,0,0,0,0,0,0,0,0],"split_type":[0,0,0,0,0,0,0,0,0,0,0,0,0,0,0,0,0,0,0,0,0,0,0,0,0,0,0,0,0,0,0,0,0,0,0,0,0,0,0,0,0,0,0,0,0,0,0,0,0],"sum_hessian":[7.955381E2,1.460252E2,6.495129E2,2.680066E1,1.1922455E2,6.2220935E2,2.7303522E1,2.2017553E1,4.783106E0,1.178088E2,1.4157453E0,5.747299E2,4.7479427E1,1.5978292E1,1.132523E1,2.0859411E1,1.1581423E0,2.1876457E0,2.5954602E0,1.1670446E2,1.104343E0,5.680061E2,6.7238107E0,1.026621E1,3.721322E1,1.0116124E0,1.4966681E1,8.619191E0,2.7060385E0,1.1759034E0,1.9683508E1,1.1040727E0,1.083573E0,1.4883444E0,1.1071157E0,1.6753904E0,1.1502907E2,4.3602924E2,1.3197687E2,1.9119614E0,4.811849E0,2.358377E0,7.907832E0,7.8129873E0,2.940023E1,2.5242949E0,6.0948963E0,1.6559231E0,1.0501153E0],"tree_param":{"num_deleted":"0","num_feature":"52","num_nodes":"49","size_leaf_vector":"1"}},{"base_weights":[-4.8988208E-1,-1.0725316E0,-3.6046728E-1,-8.6638695E-1,-1.1260374E0,-4.0852934E-1,7.240384E-1,-1.0051504E0,-3.066708E-1,-5.7664294E-2,-7.442244E-1,-4.5629045E-1,1.6391923E-1,1.130561E0,1.1956714E-1,-2.0526125E-1,-1.0914216E0,-6.590022E-1,3.9660715E-2,-5.3359568E-2,-1.5360521E-2,-4.733563E-1,1.8268152E-1,6.02276E-2,4.3614287E-2,1.0707607E-2,5.8817405E-2,-9.322716E-2,4.0382724E-2,3.5375264E-2,-4.011517E-2,-5.6367714E-2,-6.999533E-3,-4.3780003E-2,1.18799275E-2,-3.404589E-2,2.3790114E-2,-2.25672E-2,-5.4545756E-2,-4.1216284E-2,2.161161E-2,-2.3938777E-2,1.7888516E-2,2.8567567E-2,-2.361921E-2],"categories":[],"categories_nodes":[],"categories_segments":[],"categories_sizes":[],"default_left":[0,0,0,0,0,0,0,0,0,0,0,0,0,0,0,0,0,0,0,0,0,0,0,0,0,0,0,0,0,0,0,0,0,0,0,0,0,0,0,0,0,0,0,0,0],"id":20,"left_children":[1,3,5,7,9,11,13,15,17,-1,19,21,23,25,27,29,31,33,-1,-1,35,37,39,-1,41,-1,-1,43,-1,-1,-1,-1,-1,-1,-1,-1,-1,-1,-1,-1,-1,-1,-1,-1,-1],"loss_changes":[5.8910934E1,5.952759E-1,3.3914673E1,2.3079948E0,2.8337097E-1,1.6978294E1,6.6793156E0,1.6083832E0,3.6737123E0,0E0,2.3679657E0,6.3119736E0,6.000067E0,4.3883896E-1,1.8717574E0,2.6476104E0,6.5369225E-1,1.5100765E0,0E0,0E0,1.6723462E0,7.0703735E0,4.26974E0,0E0,7.45354E0,0E0,0E0,2.8571265E0,0E0,0E0,0E0,0E0,0E0,0E0,0E0,0E0,0E0,0E0,0E0,0E0,0E0,0E0,0E0,0E0,0E0],"parents":[2147483647,0,0,1,1,2,2,3,3,4,4,5,5,6,6,7,7,8,8,10,10,11,11,12,12,13,13,14,14,15,15,16,16,17,17,20,20,21,21,22,22,24,24,27,27],"right_children":[2,4,6,8,10,12,14,16,18,-1,20,22,24,26,28,30,32,34,-1,-1,36,38,40,-1,42,-1,-1,44,-1,-1,-1,-1,-1,-1,-1,-1,-1,-1,-1,-1,-1,-1,-1,-1,-1],"split_conditions":[1E0,1.4747763E-3,5.377078E-4,4E1,9.6E1,1E0,4.637222E-7,-8.660254E-1,9.549756E-4,-5.7664294E-2,8.660254E-1,4.041268E-4,1.4640527E-3,-1.2631348E-3,6.8E1,-2.9416947E-4,5.3144337E1,4.1974243E-3,3.9660715E-2,-5.3359568E-2,1.675782E4,2.48277E-5,-2.9084898E-4,6.02276E-2,2.4E1,1.0707607E-2,5.8817405E-2,1.9392115E1,4.0382724E-2,3.5375264E-2,-4.011517E-2,-5.6367714E-2,-6.999533E-3,-4.3780003E-2,1.18799275E-2,-3.404589E-2,2.3790114E-2,-2.25672E-2,-5.4545756E-2,-4.1216284E-2,2.161161E-2,-2.3938777E-2,1.7888516E-2,2.8567567E-2,-2.361921E-2],"split_indices":[46,27,33,38,40,45,32,1,33,0,1,32,27,9,40,35,14,18,0,0,24,31,34,0,38,0,0,10,0,0,0,0,0,0,0,0,0,0,0,0,0,0,0,0,0],"split_type":[0,0,0,0,0,0,0,0,0,0,0,0,0,0,0,0,0,0,0,0,0,0,0,0,0,0,0,0,0,0,0,0,0,0,0,0,0,0,0,0,0,0,0,0,0],"sum_hessian":[7.8540344E2,1.414194E2,6.43984E2,3.2684895E1,1.0873452E2,6.172525E2,2.6731491E1,2.5553827E1,7.131065E0,9.960551E1,9.129008E0,5.6990643E2,4.7346085E1,1.5462338E1,1.1269152E1,2.8167505E0,2.2737078E1,5.7045455E0,1.4265194E0,6.0042706E0,3.1247373E0,5.553336E2,1.4572824E1,3.97241E0,4.3373672E1,1.0059432E0,1.4456395E1,9.2676115E0,2.001541E0,1.0406985E0,1.776052E0,2.1731443E1,1.0056343E0,4.613463E0,1.0910827E0,1.1627703E0,1.961967E0,5.378918E2,1.7441814E1,2.4367228E0,1.2136101E1,1.6091743E1,2.7281929E1,3.1824975E0,6.085114E0],"tree_param":{"num_deleted":"0","num_feature":"52","num_nodes":"45","size_leaf_vector":"1"}},{"base_weights":[-4.7171423E-1,-1.054328E0,-3.4532022E-1,-8.150567E-1,-1.101027E0,-3.9310905E-1,6.698176E-1,-1.0088328E0,6.51832E-2,-1.1077709E0,-1.5933683E-2,1.1681451E-1,-4.447085E-1,8.9455664E-1,-2.6873213E-1,-1.0847828E0,9.698096E-3,8.290165E-1,-6.506781E-1,-1.1133125E0,-1.4123133E-2,-4.7392422E-1,2.4744767E-1,-1.1374342E-2,-4.7037232E-1,8.881258E-4,1.0464375E0,-7.008795E-1,3.0772135E-2,-8.57001E-3,-5.6245632E-2,5.3766806E-2,8.993448E-3,-9.861044E-3,-3.846052E-2,-1.9488242E-2,-5.6022454E-2,-4.9936976E-3,-6.2206615E-2,3.8816467E-2,1.1547835E-3,4.096326E-2,-1.2886174E-2,-3.0414505E-2,-1.9547379E-2,3.461149E-2,-2.1545723E-2,-2.3080648E-3,5.5436928E-2,-4.9910396E-2,-9.429396E-4],"categories":[],"categories_nodes":[],"categories_segments":[],"categories_sizes":[],"default_left":[0,0,0,0,0,0,0,0,0,0,0,0,0,0,0,0,0,0,0,0,0,0,0,0,0,0,0,0,0,0,0,0,0,0,0,0,0,0,0,0,0,0,0,0,0,0,0,0,0,0,0],"id":21,"left_children":[1,3,5,7,9,11,13,15,17,19,-1,21,23,25,27,29,-1,31,33,35,-1,37,39,41,43,45,47,49,-1,-1,-1,-1,-1,-1,-1,-1,-1,-1,-1,-1,-1,-1,-1,-1,-1,-1,-1,-1,-1,-1,-1],"loss_changes":[5.6812927E1,6.437988E-1,3.1287926E1,4.5643883E0,2.4084473E-1,1.6138931E1,6.3831673E0,2.1905956E0,3.6549668E0,1.9404602E-1,0E0,4.5140047E0,6.171524E0,3.2195969E0,2.874935E0,5.600834E-1,0E0,3.1765723E-1,3.6499977E-2,1.3186646E-1,0E0,2.9470103E0,5.5961504E0,6.775594E0,5.50589E0,1.6259936E0,1.4316216E0,9.470844E-1,0E0,0E0,0E0,0E0,0E0,0E0,0E0,0E0,0E0,0E0,0E0,0E0,0E0,0E0,0E0,0E0,0E0,0E0,0E0,0E0,0E0,0E0,0E0],"parents":[2147483647,0,0,1,1,2,2,3,3,4,4,5,5,6,6,7,7,8,8,9,9,11,11,12,12,13,13,14,14,15,15,17,17,18,18,19,19,21,21,22,22,23,23,24,24,25,25,26,26,27,27],"right_children":[2,4,6,8,10,12,14,16,18,20,-1,22,24,26,28,30,-1,32,34,36,-1,38,40,42,44,46,48,50,-1,-1,-1,-1,-1,-1,-1,-1,-1,-1,-1,-1,-1,-1,-1,-1,-1,-1,-1,-1,-1,-1,-1],"split_conditions":[1E0,3.588032E-1,4.7493473E-4,9.717565E-4,9.294315E-4,1E0,2.6535694E-3,7.687014E-3,7.329991E1,3.1601521E-3,-1.5933683E-2,1.6500191E4,1.645142E4,7.185546E1,1.9322652E-3,-1.653334E-3,9.698096E-3,-2.5881904E-1,0E0,-3.2401673E-4,-1.4123133E-2,4.986713E-4,1.6695184E4,1.6464113E4,-1.00833626E-4,-1.0115606E-4,1.681194E4,-2.8198384E-4,3.0772135E-2,-8.57001E-3,-5.6245632E-2,5.3766806E-2,8.993448E-3,-9.861044E-3,-3.846052E-2,-1.9488242E-2,-5.6022454E-2,-4.9936976E-3,-6.2206615E-2,3.8816467E-2,1.1547835E-3,4.096326E-2,-1.2886174E-2,-3.0414505E-2,-1.9547379E-2,3.461149E-2,-2.1545723E-2,-2.3080648E-3,5.5436928E-2,-4.9910396E-2,-9.429396E-4],"split_indices":[46,19,33,33,21,47,27,7,43,36,0,4,50,43,33,26,0,1,0,35,0,31,50,5,31,31,22,36,0,0,0,0,0,0,0,0,0,0,0,0,0,0,0,0,0,0,0,0,0,0,0],"split_type":[0,0,0,0,0,0,0,0,0,0,0,0,0,0,0,0,0,0,0,0,0,0,0,0,0,0,0,0,0,0,0,0,0,0,0,0,0,0,0,0,0,0,0,0,0,0,0,0,0,0,0],"sum_hessian":[7.754513E2,1.3693002E2,6.3852124E2,2.5374178E1,1.1155585E2,6.1039874E2,2.8122492E1,2.0676388E1,4.69779E0,1.1019006E2,1.3657818E0,5.5974594E1,5.5442413E2,2.2727247E1,5.395245E0,1.9540617E1,1.1357709E0,2.1962714E0,2.5015187E0,1.0910848E2,1.0815845E0,9.660548E0,4.631405E1,3.1080029E1,5.233441E2,3.447568E0,1.927968E1,3.763239E0,1.632006E0,1.0442355E0,1.849638E1,1.1161946E0,1.0800767E0,1.0704107E0,1.4311079E0,1.6088563E0,1.07499626E2,7.26297E0,2.397578E0,1.3061913E1,3.3252136E1,6.577249E0,2.4502779E1,1.8881534E2,3.3452878E2,1.0935742E0,2.3539937E0,1.0540172E0,1.8225662E1,2.2978728E0,1.4653661E0],"tree_param":{"num_deleted":"0","num_feature":"52","num_nodes":"51","size_leaf_vector":"1"}},{"base_weights":[-4.542388E-1,-1.0367781E0,-3.3088413E-1,-8.251503E-1,-1.0926803E0,-3.749171E-1,6.896918E-1,-9.683017E-1,-2.649524E-1,-5.606618E-2,-7.0078E-1,-4.219284E-1,1.2467566E-1,1.1007212E0,1.029385E-1,-5.210996E-1,-5.840196E-2,3.3503863E-1,-4.7270894E-2,-5.175052E-2,1.9189488E-2,-4.3572545E-1,3.355266E-1,-7.7547306E-1,2.2916017E-1,1.1383006E-2,5.732028E-2,-1.0519455E-1,3.8933538E-2,8.751005E-3,-4.485031E-2,-2.0349152E-2,7.026804E-2,-3.260068E-2,2.4638116E-2,-2.0699266E-2,-5.270892E-2,4.5843896E-2,-4.006361E-2,-5.9095826E-2,2.0405238E-2,-1.2348044E-2,2.3578046E-2,2.6809497E-2,-2.3281002E-2],"categories":[],"categories_nodes":[],"categories_segments":[],"categories_sizes":[],"default_left":[0,0,0,0,0,0,0,0,0,0,0,0,0,0,0,0,0,0,0,0,0,0,0,0,0,0,0,0,0,0,0,0,0,0,0,0,0,0,0,0,0,0,0,0,0],"id":22,"left_children":[1,3,5,7,9,11,13,15,17,-1,19,21,23,25,27,29,-1,31,-1,-1,33,35,37,39,41,-1,-1,43,-1,-1,-1,-1,-1,-1,-1,-1,-1,-1,-1,-1,-1,-1,-1,-1,-1],"loss_changes":[5.4751404E1,6.778717E-1,2.8758446E1,2.3082333E0,3.651123E-1,1.4346687E1,6.2977247E0,1.6330376E0,3.5364232E0,0E0,2.3419137E0,5.961891E0,5.173348E0,3.58387E-1,1.7771747E0,2.6570072E0,0E0,4.4867344E0,0E0,0E0,1.6058339E0,6.9177628E0,7.6872034E0,3.2495334E0,5.698207E0,0E0,0E0,2.5836341E0,0E0,0E0,0E0,0E0,0E0,0E0,0E0,0E0,0E0,0E0,0E0,0E0,0E0,0E0,0E0,0E0,0E0],"parents":[2147483647,0,0,1,1,2,2,3,3,4,4,5,5,6,6,7,7,8,8,10,10,11,11,12,12,13,13,14,14,15,15,17,17,20,20,21,21,22,22,23,23,24,24,27,27],"right_children":[2,4,6,8,10,12,14,16,18,-1,20,22,24,26,28,30,-1,32,-1,-1,34,36,38,40,42,-1,-1,44,-1,-1,-1,-1,-1,-1,-1,-1,-1,-1,-1,-1,-1,-1,-1,-1,-1],"split_conditions":[1E0,1.4747763E-3,5.377078E-4,4E1,9.6E1,4.041268E-4,4.637222E-7,-2.5881904E-1,7.591175E1,-5.606618E-2,8.660254E-1,1E0,-6.5310374E-3,1.681194E4,6.8E1,6.4843018E-3,-5.840196E-2,7.334782E-4,-4.7270894E-2,-5.175052E-2,1.675782E4,2.48277E-5,1.17620984E-4,5.983406E-4,-5E-1,1.1383006E-2,5.732028E-2,1.9392115E1,3.8933538E-2,8.751005E-3,-4.485031E-2,-2.0349152E-2,7.026804E-2,-3.260068E-2,2.4638116E-2,-2.0699266E-2,-5.270892E-2,4.5843896E-2,-4.006361E-2,-5.9095826E-2,2.0405238E-2,-1.2348044E-2,2.3578046E-2,2.6809497E-2,-2.3281002E-2],"split_indices":[46,27,33,38,40,32,32,1,43,0,1,45,7,22,40,42,0,33,0,0,24,31,31,9,1,0,0,10,0,0,0,0,0,0,0,0,0,0,0,0,0,0,0,0,0],"split_type":[0,0,0,0,0,0,0,0,0,0,0,0,0,0,0,0,0,0,0,0,0,0,0,0,0,0,0,0,0,0,0,0,0,0,0,0,0,0,0,0,0,0,0,0,0],"sum_hessian":[7.6570294E2,1.3251227E2,6.331907E2,3.0982645E1,1.01529625E2,6.07608E2,2.5582718E1,2.4096575E1,6.8860717E0,9.287997E1,8.64966E0,5.55492E2,5.211595E1,1.4528991E1,1.1053728E1,8.553852E0,1.5542722E1,3.9291933E0,2.9568784E0,5.6084723E0,3.0411878E0,5.459719E2,9.520125E0,4.752302E0,4.7363647E1,1.0199686E0,1.3509022E1,9.096293E0,1.9574345E0,3.1868017E0,5.3670506E0,2.686489E0,1.2427042E0,1.1022098E0,1.938978E0,5.2904407E2,1.6927814E1,6.4269047E0,3.0932205E0,3.538557E0,1.2137454E0,1.597227E1,3.1391378E1,3.0971658E0,5.9991274E0],"tree_param":{"num_deleted":"0","num_feature":"52","num_nodes":"45","size_leaf_vector":"1"}},{"base_weights":[-4.3740785E-1,-1.0199571E0,-3.1699517E-1,-8.0671227E-1,-1.0768842E0,-3.6082733E-1,6.371137E-1,-9.4847804E-1,-2.4710675E-1,-5.529615E-2,-6.8538886E-1,-4.068601E-1,1.2595867E-1,1.0150678E0,6.848707E-2,-1.0163687E0,1.3696519E-2,-6.191373E-1,5.014645E-2,-9.2980826E-1,1.039566E-2,-2.1320163E-1,-4.6138197E-1,-7.474715E-1,2.2736505E-1,-1.4696414E-2,1.1385468E0,-1.7011648E-1,6.839012E-1,-1.9026969E-2,-5.3869158E-2,-4.203211E-2,1.35501595E-2,-6.48032E-3,-5.1776953E-2,2.6387883E-2,-1.6873123E-2,-3.1813484E-2,-1.8055486E-2,-5.7226986E-2,1.9810433E-2,-1.1768665E-2,2.3254184E-2,5.9247643E-2,1.3599606E-2,2.5212154E-2,-2.3045886E-2,4.3895938E-2,4.5480034E-3],"categories":[],"categories_nodes":[],"categories_segments":[],"categories_sizes":[],"default_left":[0,0,0,0,0,0,0,0,0,0,0,0,0,0,0,0,0,0,0,0,0,0,0,0,0,0,0,0,0,0,0,0,0,0,0,0,0,0,0,0,0,0,0,0,0,0,0,0,0],"id":23,"left_children":[1,3,5,7,9,11,13,15,17,-1,19,21,23,25,27,29,-1,31,-1,33,-1,35,37,39,41,-1,43,45,47,-1,-1,-1,-1,-1,-1,-1,-1,-1,-1,-1,-1,-1,-1,-1,-1,-1,-1,-1,-1],"loss_changes":[5.279091E1,7.003021E-1,2.6532612E1,2.2423992E0,3.6785126E-1,1.3539917E1,5.9451504E0,2.316431E0,4.184508E0,0E0,2.2605915E0,5.7108307E0,4.8438063E0,3.040308E0,1.9146658E0,5.0081635E-1,0E0,1.5140641E0,0E0,5.102148E-1,0E0,1.1477875E1,7.2838516E0,3.0521798E0,5.394696E0,0E0,3.010788E-1,2.1201155E0,3.3668804E-1,0E0,0E0,0E0,0E0,0E0,0E0,0E0,0E0,0E0,0E0,0E0,0E0,0E0,0E0,0E0,0E0,0E0,0E0,0E0,0E0],"parents":[2147483647,0,0,1,1,2,2,3,3,4,4,5,5,6,6,7,7,8,8,10,10,11,11,12,12,13,13,14,14,15,15,17,17,19,19,21,21,22,22,23,23,24,24,26,26,27,27,28,28],"right_children":[2,4,6,8,10,12,14,16,18,-1,20,22,24,26,28,30,-1,32,-1,34,-1,36,38,40,42,-1,44,46,48,-1,-1,-1,-1,-1,-1,-1,-1,-1,-1,-1,-1,-1,-1,-1,-1,-1,-1,-1,-1],"split_conditions":[1E0,1.4747763E-3,4.7493473E-4,8E0,9.6E1,4.041268E-4,4.637222E-7,5.938519E-3,9.717565E-4,-5.529615E-2,9.659258E-1,-3.0689684E-4,-6.5310374E-3,2.1578894E1,1.694962E4,-8.660254E-1,1.3696519E-2,4.0191994E-3,5.014645E-2,9.01191E1,1.039566E-2,3E0,-1.00773825E-4,5.983406E-4,-5E-1,-1.4696414E-2,1.0363916E-2,1.9392115E1,2.5957946E-3,-1.9026969E-2,-5.3869158E-2,-4.203211E-2,1.35501595E-2,-6.48032E-3,-5.1776953E-2,2.6387883E-2,-1.6873123E-2,-3.1813484E-2,-1.8055486E-2,-5.7226986E-2,1.9810433E-2,-1.1768665E-2,2.3254184E-2,5.9247643E-2,1.3599606E-2,2.5212154E-2,-2.3045886E-2,4.3895938E-2,4.5480034E-3],"split_indices":[46,27,33,40,40,32,32,7,33,0,1,34,7,11,22,1,0,18,0,16,0,47,31,9,1,0,7,10,9,0,0,0,0,0,0,0,0,0,0,0,0,0,0,0,0,0,0,0,0],"split_type":[0,0,0,0,0,0,0,0,0,0,0,0,0,0,0,0,0,0,0,0,0,0,0,0,0,0,0,0,0,0,0,0,0,0,0,0,0,0,0,0,0,0,0,0,0,0,0,0,0],"sum_hessian":[7.561921E2,1.28251E2,6.279411E2,3.0220022E1,9.803099E1,6.009548E2,2.6986296E1,2.3557306E1,6.6627154E0,8.9562874E1,8.468119E0,5.491854E2,5.1769382E1,1.5739475E1,1.12468195E1,2.2477491E1,1.0798141E0,5.5235295E0,1.1391861E0,6.6168056E0,1.851313E0,1.217273E2,4.274581E2,4.7225156E0,4.7046867E1,1.2377486E0,1.4501727E1,8.625992E0,2.620828E0,2.6017354E0,1.9875757E1,4.467446E0,1.0560838E0,1.0320168E0,5.584789E0,1.7015833E1,1.0471147E2,1.5382393E2,2.7363416E2,3.5049121E0,1.2176033E0,1.5969948E1,3.107692E1,1.3415847E1,1.0858802E0,2.3778493E0,6.2481422E0,1.6125612E0,1.0082666E0],"tree_param":{"num_deleted":"0","num_feature":"52","num_nodes":"49","size_leaf_vector":"1"}},{"base_weights":[-4.2098415E-1,-1.0034413E0,-3.035582E-1,-7.549713E-1,-1.0532061E0,-3.4404728E-1,6.5911317E-1,-9.570469E-1,1.0703654E-1,-1.0801316E0,-6.6923296E-1,-3.85297E-1,1.3971682E-1,1.0703381E0,1.02575555E-1,-1.0390661E0,1.1903283E-2,8.1866384E-1,-6.0165596E-1,-8.603933E-1,-5.6420058E-2,-5.0400436E-2,2.4506738E-2,1.359172E-1,-4.0461856E-1,5.820438E-2,2.3809485E-2,1.170542E-2,5.6018043E-2,-1.02858886E-1,3.833266E-2,-6.0810326E-3,-5.4257106E-2,8.724327E-3,5.3069074E-2,-3.6303587E-2,-7.962583E-3,-4.695892E-2,8.165971E-3,-3.2250647E-2,2.4597753E-2,2.73864E-2,-3.159821E-2,-2.1469662E-2,4.204696E-3,-2.3242494E-2,1.594742E-2,2.592427E-2,-2.3266328E-2],"categories":[],"categories_nodes":[],"categories_segments":[],"categories_sizes":[],"default_left":[0,0,0,0,0,0,0,0,0,0,0,0,0,0,0,0,0,0,0,0,0,0,0,0,0,0,0,0,0,0,0,0,0,0,0,0,0,0,0,0,0,0,0,0,0,0,0,0,0],"id":24,"left_children":[1,3,5,7,9,11,13,15,17,19,21,23,25,27,29,31,-1,33,35,37,-1,-1,39,41,43,-1,45,-1,-1,47,-1,-1,-1,-1,-1,-1,-1,-1,-1,-1,-1,-1,-1,-1,-1,-1,-1,-1,-1],"loss_changes":[5.0855057E1,7.5128937E-1,2.4546173E1,4.3527517E0,3.2821655E-1,1.2015053E1,5.7320967E0,2.1947842E0,3.283072E0,1.9515991E-2,2.2081985E0,5.6198196E0,5.651061E0,3.4732246E-1,1.7094698E0,6.618004E-1,0E0,3.1270623E-1,6.8691134E-2,1.8493137E0,0E0,0E0,1.576872E0,6.828865E0,6.4904404E0,0E0,6.4922743E0,0E0,0E0,2.4957476E0,0E0,0E0,0E0,0E0,0E0,0E0,0E0,0E0,0E0,0E0,0E0,0E0,0E0,0E0,0E0,0E0,0E0,0E0,0E0],"parents":[2147483647,0,0,1,1,2,2,3,3,4,4,5,5,6,6,7,7,8,8,9,9,10,10,11,11,12,12,13,13,14,14,15,15,17,17,18,18,19,19,22,22,23,23,24,24,26,26,29,29],"right_children":[2,4,6,8,10,12,14,16,18,20,22,24,26,28,30,32,-1,34,36,38,-1,-1,40,42,44,-1,46,-1,-1,48,-1,-1,-1,-1,-1,-1,-1,-1,-1,-1,-1,-1,-1,-1,-1,-1,-1,-1,-1],"split_conditions":[1E0,3.588032E-1,5.377078E-4,9.717565E-4,9.6E1,1E0,4.637222E-7,7.687014E-3,7.329991E1,-3.019051E-4,8.660254E-1,1.638817E4,1.4640527E-3,2.2386663E1,6.8E1,-2.6588958E-2,1.1903283E-2,0E0,-9.9332276E-5,1.0415535E0,-5.6420058E-2,-5.0400436E-2,1.675782E4,3.954791E1,8.593967E-1,5.820438E-2,2.4E1,1.170542E-2,5.6018043E-2,9.717565E-4,3.833266E-2,-6.0810326E-3,-5.4257106E-2,8.724327E-3,5.3069074E-2,-3.6303587E-2,-7.962583E-3,-4.695892E-2,8.165971E-3,-3.2250647E-2,2.4597753E-2,2.73864E-2,-3.159821E-2,-2.1469662E-2,4.204696E-3,-2.3242494E-2,1.594742E-2,2.592427E-2,-2.3266328E-2],"split_indices":[46,19,33,33,40,45,32,7,43,32,1,49,27,16,40,23,0,0,31,19,0,0,24,11,19,0,38,0,0,33,0,0,0,0,0,0,0,0,0,0,0,0,0,0,0,0,0,0,0],"split_type":[0,0,0,0,0,0,0,0,0,0,0,0,0,0,0,0,0,0,0,0,0,0,0,0,0,0,0,0,0,0,0,0,0,0,0,0,0,0,0,0,0,0,0,0,0,0,0,0,0],"sum_hessian":[7.4699646E2,1.2406465E2,6.229318E2,2.3400335E1,1.00664314E2,5.98406E2,2.4525793E1,1.886716E1,4.5331745E0,9.237372E1,8.290596E0,5.515775E2,4.6828503E1,1.3573295E1,1.0952499E1,1.7777672E1,1.089489E0,2.1844766E0,2.348698E0,2.002739E1,7.234633E1,5.2660193E0,3.0245762E0,1.9500544E1,5.3207697E2,3.8408058E0,4.2987698E1,1.086715E0,1.2486579E1,9.010259E0,1.942241E0,1.0241836E0,1.6753489E1,1.0682381E0,1.1162385E0,1.3327099E0,1.0159881E0,1.8672897E1,1.3544927E0,1.087338E0,1.9372382E0,1.287985E1,6.620694E0,5.065209E2,2.5556059E1,1.5970475E1,2.7017223E1,3.1610813E0,5.849177E0],"tree_param":{"num_deleted":"0","num_feature":"52","num_nodes":"49","size_leaf_vector":"1"}},{"base_weights":[-4.0505475E-1,-9.876375E-1,-2.9050693E-1,-7.679103E-1,-1.047384E0,-3.2930028E-1,6.438666E-1,-9.1800964E-1,-2.0431986E-1,-5.387189E-2,-6.5473086E-1,-3.716161E-1,1.12229005E-1,1.0555454E0,1.0046936E-1,-4.633414E-1,-5.6468464E-2,3.7959516E-1,-4.5045946E-2,-9.0228295E-1,1.0339451E-2,-1.3139868E-1,-4.14347E-1,-2.07687E-1,3.820108E-1,9.554415E-3,5.546261E-2,6.063937E-1,-1.907389E-1,1.0654881E-2,-4.2431813E-2,-1.7627766E-2,6.7733526E-2,-5.4697376E-3,-5.058036E-2,2.8983979E-3,-2.4861064E-2,-2.150288E-2,2.2315292E-2,9.635693E-3,-3.7508734E-2,3.91466E-2,-1.021963E-2,-1.8376898E-2,5.006429E-2,-4.2672236E-2,1.5148478E-2],"categories":[],"categories_nodes":[],"categories_segments":[],"categories_sizes":[],"default_left":[0,0,0,0,0,0,0,0,0,0,0,0,0,0,0,0,0,0,0,0,0,0,0,0,0,0,0,0,0,0,0,0,0,0,0,0,0,0,0,0,0,0,0,0,0,0,0],"id":25,"left_children":[1,3,5,7,9,11,13,15,17,-1,19,21,23,25,27,29,-1,31,-1,33,-1,35,37,39,41,-1,-1,43,45,-1,-1,-1,-1,-1,-1,-1,-1,-1,-1,-1,-1,-1,-1,-1,-1,-1,-1],"loss_changes":[4.903003E1,7.8435516E-1,2.2649189E1,2.3179607E0,3.8489532E-1,1.1158234E1,5.4896097E0,1.696846E0,3.398908E0,0E0,2.1311908E0,5.5211563E0,4.6367173E0,4.438877E-1,1.8669832E0,2.533578E0,0E0,3.8985667E0,0E0,5.1944923E-1,0E0,5.812962E0,6.421051E0,5.5325637E0,6.9776835E0,0E0,0E0,2.1301908E0,2.9759026E0,0E0,0E0,0E0,0E0,0E0,0E0,0E0,0E0,0E0,0E0,0E0,0E0,0E0,0E0,0E0,0E0,0E0,0E0],"parents":[2147483647,0,0,1,1,2,2,3,3,4,4,5,5,6,6,7,7,8,8,10,10,11,11,12,12,13,13,14,14,15,15,17,17,19,19,21,21,22,22,23,23,24,24,27,27,28,28],"right_children":[2,4,6,8,10,12,14,16,18,-1,20,22,24,26,28,30,-1,32,-1,34,-1,36,38,40,42,-1,-1,44,46,-1,-1,-1,-1,-1,-1,-1,-1,-1,-1,-1,-1,-1,-1,-1,-1,-1,-1],"split_conditions":[1E0,1.4747763E-3,5.377078E-4,4E1,9.6E1,4.041268E-4,-2.1347676E-5,-2.5881904E-1,7.591175E1,-5.387189E-2,9.659258E-1,1.6843396E4,6.8765384E-4,1.6821953E4,9.717565E-4,6.4843018E-3,-5.6468464E-2,7.334782E-4,-4.5045946E-2,9.01191E1,1.0339451E-2,-2.799147E-4,2.177975E-3,-1.6845329E-3,1.2277861E-2,9.554415E-3,5.546261E-2,6E1,9.400914E-1,1.0654881E-2,-4.2431813E-2,-1.7627766E-2,6.7733526E-2,-5.4697376E-3,-5.058036E-2,2.8983979E-3,-2.4861064E-2,-2.150288E-2,2.2315292E-2,9.635693E-3,-3.7508734E-2,3.91466E-2,-1.021963E-2,-1.8376898E-2,5.006429E-2,-4.2672236E-2,1.5148478E-2],"split_indices":[46,27,33,38,40,32,31,1,43,0,1,22,7,22,33,42,0,33,0,16,0,36,34,7,42,0,0,39,19,0,0,0,0,0,0,0,0,0,0,0,0,0,0,0,0,0,0],"split_type":[0,0,0,0,0,0,0,0,0,0,0,0,0,0,0,0,0,0,0,0,0,0,0,0,0,0,0,0,0,0,0,0,0,0,0,0,0,0,0,0,0,0,0,0,0,0,0],"sum_hessian":[7.380125E2,1.20012856E2,6.1799963E2,2.861808E1,9.1394775E1,5.939861E2,2.4013554E1,2.210268E1,6.515399E0,8.327676E1,8.118015E0,5.421821E2,5.180396E1,1.3126442E1,1.0887111E1,8.027163E0,1.4075519E1,3.7919338E0,2.7234652E0,6.269267E0,1.8487486E0,8.249583E1,4.596863E2,2.3805176E1,2.7998785E1,1.0344275E0,1.2092014E1,3.5818772E0,7.3052335E0,3.075179E0,4.9519835E0,2.5303864E0,1.2615472E0,1.002094E0,5.2671733E0,5.491225E1,2.758357E1,4.5193683E2,7.749477E0,1.4067185E1,9.73799E0,1.6430317E1,1.1568468E1,1.0533198E0,2.5285573E0,2.8077476E0,4.497486E0],"tree_param":{"num_deleted":"0","num_feature":"52","num_nodes":"47","size_leaf_vector":"1"}},{"base_weights":[-3.896426E-1,-9.7222716E-1,-2.7799666E-1,-8.2786846E-1,-1.0738344E0,-3.166202E-1,5.934743E-1,-9.848128E-1,-3.1845406E-1,-1.0862256E0,-1.1453049E-2,1.02278806E-1,-3.6027944E-1,9.7055197E-1,6.361255E-2,-1.0264298E0,-1.3354608E-1,5.3818207E-2,-5.2145785E-1,-5.484837E-2,-1.0270826E-2,-4.6298966E-1,2.2748882E-1,-2.932735E-1,-5.3396213E-1,-1.5411059E-2,1.1022645E0,-1.3671309E-1,3.6981042E-2,-5.2472908E-2,-4.8739435E-3,-2.9372701E-2,1.9373648E-2,3.490393E-2,-3.5468202E-2,2.102658E-3,-4.8248608E-2,3.1110415E-2,-2.4729387E-3,2.4658993E-2,-1.631884E-2,1.6352626E-2,-2.9071558E-2,5.7600558E-2,1.1597493E-2,1.6640032E-2,-3.0005852E-2],"categories":[],"categories_nodes":[],"categories_segments":[],"categories_sizes":[],"default_left":[0,0,0,0,0,0,0,0,0,0,0,0,0,0,0,0,0,0,0,0,0,0,0,0,0,0,0,0,0,0,0,0,0,0,0,0,0,0,0,0,0,0,0,0,0,0,0],"id":26,"left_children":[1,3,5,7,9,11,13,15,17,19,-1,21,23,25,27,29,31,-1,33,-1,-1,35,37,39,41,-1,43,45,-1,-1,-1,-1,-1,-1,-1,-1,-1,-1,-1,-1,-1,-1,-1,-1,-1,-1,-1],"loss_changes":[4.724562E1,8.2836914E-1,2.0869705E1,3.902298E0,4.352646E-1,1.0809341E1,5.217825E0,1.274147E0,4.4964447E0,3.815155E-1,0E0,4.0953593E0,6.0538635E0,2.9281445E0,1.7338402E0,7.0692825E-1,9.3858176E-1,0E0,3.4297013E0,0E0,0E0,2.7158291E0,5.1492186E0,1.02440605E1,6.212368E0,0E0,3.4547424E-1,2.4069042E0,0E0,0E0,0E0,0E0,0E0,0E0,0E0,0E0,0E0,0E0,0E0,0E0,0E0,0E0,0E0,0E0,0E0,0E0,0E0],"parents":[2147483647,0,0,1,1,2,2,3,3,4,4,5,5,6,6,7,7,8,8,9,9,11,11,12,12,13,13,14,14,15,15,16,16,18,18,21,21,22,22,23,23,24,24,26,26,27,27],"right_children":[2,4,6,8,10,12,14,16,18,20,-1,22,24,26,28,30,32,-1,34,-1,-1,36,38,40,42,-1,44,46,-1,-1,-1,-1,-1,-1,-1,-1,-1,-1,-1,-1,-1,-1,-1,-1,-1,-1,-1],"split_conditions":[1E0,7.918415E1,4.7493473E-4,9.717565E-4,9.294315E-4,1E0,4.637222E-7,3.062881E-3,2.3383043E1,3.1601521E-3,-1.1453049E-2,1.6500191E4,1.7002701E4,2.1578894E1,6.8E1,1.2854779E-3,-1.4619142E-3,5.3818207E-2,-1.930193E-3,-5.484837E-2,-1.0270826E-2,7.964957E1,1.6794264E4,1.645142E4,3.5330027E-4,-1.5411059E-2,1.0363916E-2,2.5863466E-3,3.6981042E-2,-5.2472908E-2,-4.8739435E-3,-2.9372701E-2,1.9373648E-2,3.490393E-2,-3.5468202E-2,2.102658E-3,-4.8248608E-2,3.1110415E-2,-2.4729387E-3,2.4658993E-2,-1.631884E-2,1.6352626E-2,-2.9071558E-2,5.7600558E-2,1.1597493E-2,1.6640032E-2,-3.0005852E-2],"split_indices":[46,43,33,33,21,47,32,6,17,36,0,4,22,11,40,35,26,0,26,0,0,43,28,50,21,0,7,27,0,0,0,0,0,0,0,0,0,0,0,0,0,0,0,0,0,0,0],"split_type":[0,0,0,0,0,0,0,0,0,0,0,0,0,0,0,0,0,0,0,0,0,0,0,0,0,0,0,0,0,0,0,0,0,0,0,0,0,0,0,0,0,0,0,0,0,0,0],"sum_hessian":[7.2952844E2,1.1608289E2,6.1344556E2,5.1732117E1,6.435078E1,5.880212E2,2.542437E1,3.883447E1,1.2897648E1,6.3138832E1,1.2119418E0,5.5374516E1,5.3264667E2,1.4367786E1,1.1056582E1,3.682823E1,2.0062375E0,1.092056E0,1.1805592E1,6.2135662E1,1.0031699E0,9.552309E0,4.5822205E1,3.8630188E2,1.4634479E2,1.2165376E0,1.3151249E1,9.144502E0,1.9120812E0,3.5810772E1,1.0174607E0,1.004027E0,1.0022106E0,1.2136706E0,1.0591922E1,5.218361E0,4.3339486E0,1.8379772E1,2.7442432E1,1.5042023E1,3.7125986E2,7.3388896E0,1.3900589E2,1.2134004E1,1.017245E0,4.682301E0,4.4622006E0],"tree_param":{"num_deleted":"0","num_feature":"52","num_nodes":"47","size_leaf_vector":"1"}},{"base_weights":[-3.747462E-1,-9.5662516E-1,-2.660708E-1,-7.291418E-1,-1.019676E0,-3.016136E-1,6.137573E-1,-8.8345605E-1,-1.6590343E-1,-5.2571513E-2,-6.170754E-1,-4.431697E-2,-3.670899E-1,1.0285728E0,9.424937E-2,-4.2079616E-1,-5.5265516E-2,4.0192488E-1,-4.3523755E-2,-4.84508E-2,5.152062E-2,-2.4939986E-1,2.5434524E-1,-3.3781695E-1,-8.3045065E-1,8.425412E-3,5.4264154E-2,5.8184415E-1,-1.8297274E-1,5.625223E-3,-4.7062542E-2,-1.5617815E-2,6.494101E-2,-3.1426918E-2,2.5708253E-2,-4.5169666E-2,-6.0608196E-3,7.2034034E-3,7.124262E-2,-1.7562587E-3,-1.955342E-2,2.3401927E-2,-4.9212504E-2,4.97742E-2,-1.6760636E-2,-4.1387364E-2,1.48287555E-2],"categories":[],"categories_nodes":[],"categories_segments":[],"categories_sizes":[],"default_left":[0,0,0,0,0,0,0,0,0,0,0,0,0,0,0,0,0,0,0,0,0,0,0,0,0,0,0,0,0,0,0,0,0,0,0,0,0,0,0,0,0,0,0,0,0,0,0],"id":27,"left_children":[1,3,5,7,9,11,13,15,17,-1,19,21,23,25,27,29,-1,31,-1,-1,33,35,37,39,41,-1,-1,43,45,-1,-1,-1,-1,-1,-1,-1,-1,-1,-1,-1,-1,-1,-1,-1,-1,-1,-1],"loss_changes":[4.5404694E1,8.8079834E-1,1.9254505E1,2.2945423E0,4.5269012E-1,9.86932E0,5.0766363E0,1.7740135E0,3.258924E0,0E0,2.1016905E0,7.4239926E0,6.062237E0,4.63274E-1,1.6960186E0,2.5164852E0,0E0,3.4233904E0,0E0,0E0,1.5679978E0,5.905593E0,6.1737185E0,7.1030235E0,5.8729076E0,0E0,0E0,2.0413308E0,2.7988086E0,0E0,0E0,0E0,0E0,0E0,0E0,0E0,0E0,0E0,0E0,0E0,0E0,0E0,0E0,0E0,0E0,0E0,0E0],"parents":[2147483647,0,0,1,1,2,2,3,3,4,4,5,5,6,6,7,7,8,8,10,10,11,11,12,12,13,13,14,14,15,15,17,17,20,20,21,21,22,22,23,23,24,24,27,27,28,28],"right_children":[2,4,6,8,10,12,14,16,18,-1,20,22,24,26,28,30,-1,32,-1,-1,34,36,38,40,42,-1,-1,44,46,-1,-1,-1,-1,-1,-1,-1,-1,-1,-1,-1,-1,-1,-1,-1,-1,-1,-1],"split_conditions":[1E0,1.4747763E-3,5.377078E-4,4E1,9.6E1,2E0,-2.1347676E-5,-2.5881904E-1,7.591175E1,-5.2571513E-2,8.660254E-1,4E0,-9.208185E-5,1.6821953E4,9.717565E-4,-2.9524966E-4,-5.5265516E-2,7.334782E-4,-4.3523755E-2,-4.84508E-2,1.675782E4,2.9174679E1,1.3173376E-3,1.6843396E4,1.6412293E4,8.425412E-3,5.4264154E-2,2.2452967E-3,9.400914E-1,5.625223E-3,-4.7062542E-2,-1.5617815E-2,6.494101E-2,-3.1426918E-2,2.5708253E-2,-4.5169666E-2,-6.0608196E-3,7.2034034E-3,7.124262E-2,-1.7562587E-3,-1.955342E-2,2.3401927E-2,-4.9212504E-2,4.97742E-2,-1.6760636E-2,-4.1387364E-2,1.48287555E-2],"split_indices":[46,27,33,38,40,47,31,1,43,0,1,46,32,22,33,34,0,33,0,0,24,11,34,22,49,0,0,7,19,0,0,0,0,0,0,0,0,0,0,0,0,0,0,0,0,0,0],"split_type":[0,0,0,0,0,0,0,0,0,0,0,0,0,0,0,0,0,0,0,0,0,0,0,0,0,0,0,0,0,0,0,0,0,0,0,0,0,0,0,0,0,0,0,0,0,0,0],"sum_hessian":[7.2104565E2,1.12246025E2,6.087996E2,2.7085938E1,8.516009E1,5.857923E2,2.3007326E1,2.0814669E1,6.271269E0,7.744052E1,7.7195616E0,1.1917139E2,4.666209E2,1.2247817E1,1.0759509E1,7.684973E0,1.3129697E1,3.7104723E0,2.5607963E0,4.7630315E0,2.9565303E0,7.0752556E1,4.841883E1,4.4052E2,2.6100927E1,1.0032932E0,1.1244524E1,3.5016901E0,7.2578187E0,4.182783E0,3.5021894E0,2.4283154E0,1.2821572E0,1.0518287E0,1.9047017E0,1.0603864E1,6.014869E1,4.527629E1,3.1425414E0,6.615298E1,3.7436703E2,2.5477493E0,2.3553179E1,2.354272E0,1.1474183E0,2.7859197E0,4.471899E0],"tree_param":{"num_deleted":"0","num_feature":"52","num_nodes":"47","size_leaf_vector":"1"}},{"base_weights":[-3.6041218E-1,-9.42068E-1,-2.5456086E-1,-7.925212E-1,-1.048878E0,-2.8854996E-1,5.9856343E-1,-9.555E-1,-2.7825058E-1,-1.0619929E0,-1.0279197E-2,-4.2003628E-2,-3.516469E-1,1.0157996E0,9.0044945E-2,-9.991149E-1,-5.2167415E-3,-4.922825E-1,4.9611844E-2,-1.0868016E0,-5.5667174E-1,-2.3858608E-1,2.4312757E-1,-3.0686462E-1,-6.3565475E-1,8.721532E-3,5.3629614E-2,-1.3074055E-1,6.433366E-1,-5.1147122E-2,-6.583242E-3,1.1927425E-2,-3.8350668E-2,-2.3059675E-2,-5.5135228E-2,1.2748632E-2,-4.373389E-2,-4.25119E-2,-5.485995E-3,2.0778522E-2,-2.2251759E-2,-2.2544539E-2,-9.817911E-3,-3.5139717E-2,3.581306E-2,-4.1980635E-2,7.164325E-3,6.0907523E-3,4.0319372E-2],"categories":[],"categories_nodes":[],"categories_segments":[],"categories_sizes":[],"default_left":[0,0,0,0,0,0,0,0,0,0,0,0,0,0,0,0,0,0,0,0,0,0,0,0,0,0,0,0,0,0,0,0,0,0,0,0,0,0,0,0,0,0,0,0,0,0,0,0,0],"id":28,"left_children":[1,3,5,7,9,11,13,15,17,19,-1,21,23,25,27,29,-1,31,-1,33,35,37,39,41,43,-1,-1,45,47,-1,-1,-1,-1,-1,-1,-1,-1,-1,-1,-1,-1,-1,-1,-1,-1,-1,-1,-1,-1],"loss_changes":[4.372091E1,9.1876984E-1,1.7728771E1,3.9030666E0,4.5433807E-1,9.053371E0,4.8993483E0,1.2826576E0,4.126978E0,1.42807E-1,0E0,6.779721E0,5.706375E0,4.2566776E-1,1.5132221E0,5.9744644E-1,0E0,2.6164112E0,0E0,4.6684265E-2,1.4726578E0,5.541359E0,6.0511312E0,6.3213654E0,6.155039E0,0E0,0E0,1.9060708E0,1.9987369E-1,0E0,0E0,0E0,0E0,0E0,0E0,0E0,0E0,0E0,0E0,0E0,0E0,0E0,0E0,0E0,0E0,0E0,0E0,0E0,0E0],"parents":[2147483647,0,0,1,1,2,2,3,3,4,4,5,5,6,6,7,7,8,8,9,9,11,11,12,12,13,13,14,14,15,15,17,17,19,19,20,20,21,21,22,22,23,23,24,24,27,27,28,28],"right_children":[2,4,6,8,10,12,14,16,18,20,-1,22,24,26,28,30,-1,32,-1,34,36,38,40,42,44,-1,-1,46,48,-1,-1,-1,-1,-1,-1,-1,-1,-1,-1,-1,-1,-1,-1,-1,-1,-1,-1,-1,-1],"split_conditions":[1E0,7.918415E1,5.377078E-4,9.717565E-4,9.294315E-4,2E0,4.637222E-7,3.062881E-3,4.1734922E-1,1.9332466E-3,-1.0279197E-2,4E0,-9.327975E-5,-3.6772056E-3,1.694962E4,1.2462968E-3,-5.2167415E-3,-5E-1,4.9611844E-2,-9.659258E-1,-3.019051E-4,7.100612E1,1.2916245E-2,-1.00773825E-4,9.1214655E-3,8.721532E-3,5.3629614E-2,1.4528603E-4,-5E-1,-5.1147122E-2,-6.583242E-3,1.1927425E-2,-3.8350668E-2,-2.3059675E-2,-5.5135228E-2,1.2748632E-2,-4.373389E-2,-4.25119E-2,-5.485995E-3,2.0778522E-2,-2.2251759E-2,-2.2544539E-2,-9.817911E-3,-3.5139717E-2,3.581306E-2,-4.1980635E-2,7.164325E-3,6.0907523E-3,4.0319372E-2],"split_indices":[46,43,33,33,21,47,32,6,13,36,0,46,31,6,22,35,0,1,0,0,32,43,42,31,18,0,0,31,0,0,0,0,0,0,0,0,0,0,0,0,0,0,0,0,0,0,0,0,0],"split_type":[0,0,0,0,0,0,0,0,0,0,0,0,0,0,0,0,0,0,0,0,0,0,0,0,0,0,0,0,0,0,0,0,0,0,0,0,0,0,0,0,0,0,0,0,0,0,0,0,0],"sum_hessian":[7.130068E2,1.0856105E2,6.044457E2,4.873962E1,5.982143E1,5.819232E2,2.2522467E1,3.635902E1,1.23806E1,5.8649963E1,1.1714659E0,1.1891969E2,4.6300354E2,1.1823661E1,1.0698806E1,3.44214E1,1.9376202E0,1.1119829E1,1.2607708E0,5.4808426E1,3.8415365E0,7.04864E1,4.84333E1,4.0173807E2,6.126548E1,1.0050762E0,1.0818585E1,8.193126E0,2.5056806E0,3.332671E1,1.0946894E0,3.074045E0,8.045784E0,2.1023989E0,5.2706028E1,1.1372238E0,2.7043126E0,1.1292015E1,5.919438E1,3.9045277E1,9.388022E0,1.7307898E2,2.2865907E2,5.8824265E1,2.4412122E0,1.7087739E0,6.4843516E0,1.012923E0,1.4927576E0],"tree_param":{"num_deleted":"0","num_feature":"52","num_nodes":"49","size_leaf_vector":"1"}},{"base_weights":[-3.4655857E-1,-9.2723495E-1,-2.4358708E-1,-6.564995E-1,-9.838132E-1,-2.7611127E-1,5.834814E-1,-8.738274E-1,1.736151E-1,-1.0140318E0,-5.822562E-1,-2.9639766E-1,4.6413982E-1,1.0029205E0,8.687806E-2,-9.696807E-1,1.6601315E-2,8.0628645E-1,-2.630851E-2,-7.620917E-1,-1.0712204E0,-4.7209244E-2,7.2003566E-2,-2.3065002E-1,-4.689573E-1,-1.3669363E-1,8.620468E-1,9.000466E-3,5.3207494E-2,-1.2814447E-1,6.299859E-1,-4.610901E-3,-5.1115997E-2,8.505249E-3,5.1804792E-2,-4.2657975E-2,1.4237463E-2,-2.3517141E-2,-5.4260146E-2,-3.025781E-2,2.571853E-2,-1.6737165E-2,-1.1436822E-3,1.1854672E-2,-2.617921E-2,-4.147997E-2,3.5060164E-2,6.696175E-2,8.290365E-3,-4.0735744E-2,6.8588867E-3,3.960917E-2,5.8928537E-3],"categories":[],"categories_nodes":[],"categories_segments":[],"categories_sizes":[],"default_left":[0,0,0,0,0,0,0,0,0,0,0,0,0,0,0,0,0,0,0,0,0,0,0,0,0,0,0,0,0,0,0,0,0,0,0,0,0,0,0,0,0,0,0,0,0,0,0,0,0,0,0,0,0],"id":29,"left_children":[1,3,5,7,9,11,13,15,17,19,21,23,25,27,29,31,-1,33,-1,35,37,-1,39,41,43,45,47,-1,-1,49,51,-1,-1,-1,-1,-1,-1,-1,-1,-1,-1,-1,-1,-1,-1,-1,-1,-1,-1,-1,-1,-1,-1],"loss_changes":[4.2004066E1,9.781494E-1,1.6334446E1,4.0002136E0,4.4937134E-1,8.835045E0,4.71831E0,2.2952213E0,2.7531905E0,3.1241608E-1,2.044198E0,6.2944527E0,3.9044337E0,4.3383884E-1,1.4421959E0,6.4797497E-1,0E0,2.8539062E-1,0E0,1.9550238E0,5.3253174E-3,0E0,1.4799985E0,8.873003E0,6.0919456E0,4.7464323E0,2.98907E0,0E0,0E0,1.784513E0,1.9533908E-1,0E0,0E0,0E0,0E0,0E0,0E0,0E0,0E0,0E0,0E0,0E0,0E0,0E0,0E0,0E0,0E0,0E0,0E0,0E0,0E0,0E0,0E0],"parents":[2147483647,0,0,1,1,2,2,3,3,4,4,5,5,6,6,7,7,8,8,9,9,10,10,11,11,12,12,13,13,14,14,15,15,17,17,19,19,20,20,22,22,23,23,24,24,25,25,26,26,29,29,30,30],"right_children":[2,4,6,8,10,12,14,16,18,20,22,24,26,28,30,32,-1,34,-1,36,38,-1,40,42,44,46,48,-1,-1,50,52,-1,-1,-1,-1,-1,-1,-1,-1,-1,-1,-1,-1,-1,-1,-1,-1,-1,-1,-1,-1,-1,-1],"split_conditions":[1E0,3.588032E-1,5.377078E-4,9.717565E-4,9.6E1,9.6E1,4.637222E-7,7.687014E-3,7.329991E1,-3.019051E-4,8.660254E-1,1.7002701E4,-2.915595E-4,6.4149516E-4,1.694962E4,-2.6338238E-2,1.6601315E-2,0E0,-2.630851E-2,1.0415535E0,1.6808076E4,-4.7209244E-2,1.675782E4,-2.9281058E-4,1.4015723E1,-1.8369701E-16,6.391654E-4,9.000466E-3,5.3207494E-2,1.4528603E-4,3.5424763E-4,-4.610901E-3,-5.1115997E-2,8.505249E-3,5.1804792E-2,-4.2657975E-2,1.4237463E-2,-2.3517141E-2,-5.4260146E-2,-3.025781E-2,2.571853E-2,-1.6737165E-2,-1.1436822E-3,1.1854672E-2,-2.617921E-2,-4.147997E-2,3.5060164E-2,6.696175E-2,8.290365E-3,-4.0735744E-2,6.8588867E-3,3.960917E-2,5.8928537E-3],"split_indices":[46,19,33,33,40,38,32,7,43,32,1,22,35,33,22,23,0,0,0,19,22,0,24,33,11,1,35,0,0,31,31,0,0,0,0,0,0,0,0,0,0,0,0,0,0,0,0,0,0,0,0,0,0],"split_type":[0,0,0,0,0,0,0,0,0,0,0,0,0,0,0,0,0,0,0,0,0,0,0,0,0,0,0,0,0,0,0,0,0,0,0,0,0,0,0,0,0,0,0,0,0,0,0,0,0,0,0,0,0],"sum_hessian":[7.0526733E2,1.0502214E2,6.002452E2,2.0332327E1,8.468981E1,5.781748E2,2.207038E1,1.6071953E1,4.2603726E0,7.7344154E1,7.3456573E0,5.6333636E2,1.4838481E1,1.1412032E1,1.0658346E1,1.5069902E1,1.0020511E0,2.1575522E0,2.1028202E0,1.6958927E1,6.038523E1,4.4441E0,2.9015574E0,4.0960703E2,1.5372932E2,6.173324E0,8.665156E0,1.0631672E0,1.03488655E1,8.1827545E0,2.4755917E0,1.008625E0,1.4061277E1,1.0343529E0,1.1231995E0,1.5771898E1,1.1870286E0,2.160917E0,5.8224316E1,1.0011054E0,1.900452E0,2.7248468E2,1.3712234E2,1.0799959E1,1.4292937E2,3.384438E0,2.7888863E0,4.5934052E0,4.0717516E0,1.7036313E0,6.4791236E0,1.464821E0,1.0107707E0],"tree_param":{"num_deleted":"0","num_feature":"52","num_nodes":"53","size_leaf_vector":"1"}},{"base_weights":[-3.328973E-1,-9.130685E-1,-2.3274012E-1,-6.728761E-1,-9.81519E-1,-2.6522547E-1,5.362823E-1,-8.387015E-1,-9.0105385E-2,-1.0155183E0,-5.6978375E-1,-3.0297226E-1,1.1731473E-1,7.6404065E-1,-2.5822818E-1,-3.672575E-1,-5.3728193E-2,4.7002205E-1,-4.1352417E-2,-7.6324964E-1,-1.0694157E0,-8.335166E-1,1.2196399E-2,-1.07912146E-1,-3.583404E-1,1.9056726E-1,-5.027585E-2,-1.3617775E-1,9.371288E-1,-6.7463666E-1,2.9463647E-2,7.836561E-3,-4.5221623E-2,-1.2423874E-2,6.46785E-2,-5.149693E-2,-1.3621229E-2,-5.425004E-2,-1.8771136E-2,-5.044051E-3,-4.759134E-2,2.9305467E-2,-1.14372885E-2,-2.6627341E-2,-1.2978311E-2,-8.989967E-3,1.9213853E-2,1.8081173E-2,-2.8905997E-2,4.45485E-3,5.2684147E-2,-4.8148066E-2,-1.0521361E-3],"categories":[],"categories_nodes":[],"categories_segments":[],"categories_sizes":[],"default_left":[0,0,0,0,0,0,0,0,0,0,0,0,0,0,0,0,0,0,0,0,0,0,0,0,0,0,0,0,0,0,0,0,0,0,0,0,0,0,0,0,0,0,0,0,0,0,0,0,0,0,0,0,0],"id":30,"left_children":[1,3,5,7,9,11,13,15,17,19,21,23,25,27,29,31,-1,33,-1,35,37,39,-1,41,43,45,-1,47,49,51,-1,-1,-1,-1,-1,-1,-1,-1,-1,-1,-1,-1,-1,-1,-1,-1,-1,-1,-1,-1,-1,-1,-1],"loss_changes":[4.0404587E1,1.0258179E0,1.5067146E1,2.4298973E0,5.081787E-1,8.322208E0,4.63884E0,1.8362684E0,3.2218323E0,1.414566E-1,1.9630909E0,5.60569E0,4.4902077E0,3.1393929E0,2.5911808E0,2.4525137E0,0E0,3.006142E0,0E0,1.7997026E0,1.934166E-1,4.603958E-1,0E0,9.944063E0,6.858879E0,3.649263E0,0E0,1.0869087E0,1.5210619E0,8.5304666E-1,0E0,0E0,0E0,0E0,0E0,0E0,0E0,0E0,0E0,0E0,0E0,0E0,0E0,0E0,0E0,0E0,0E0,0E0,0E0,0E0,0E0,0E0,0E0],"parents":[2147483647,0,0,1,1,2,2,3,3,4,4,5,5,6,6,7,7,8,8,9,9,10,10,11,11,12,12,13,13,14,14,15,15,17,17,19,19,20,20,21,21,23,23,24,24,25,25,27,27,28,28,29,29],"right_children":[2,4,6,8,10,12,14,16,18,20,22,24,26,28,30,32,-1,34,-1,36,38,40,-1,42,44,46,-1,48,50,52,-1,-1,-1,-1,-1,-1,-1,-1,-1,-1,-1,-1,-1,-1,-1,-1,-1,-1,-1,-1,-1,-1,-1],"split_conditions":[1E0,1.4747763E-3,4.7493473E-4,4E1,9.6E1,4.041268E-4,2.6535694E-3,-2.5881904E-1,7.591175E1,-9.911408E-5,9.659258E-1,-3.0689684E-4,1.7086115E4,7.185546E1,1.9322652E-3,-2.9524966E-4,-5.3728193E-2,7.334782E-4,-4.1352417E-2,-2.863686E-4,1.3633276E-2,9.04882E1,1.2196399E-2,3E0,-1.00773825E-4,-5E-1,-5.027585E-2,-9.8222794E-5,1.6823484E4,-2.8198384E-4,2.9463647E-2,7.836561E-3,-4.5221623E-2,-1.2423874E-2,6.46785E-2,-5.149693E-2,-1.3621229E-2,-5.425004E-2,-1.8771136E-2,-5.044051E-3,-4.759134E-2,2.9305467E-2,-1.14372885E-2,-2.6627341E-2,-1.2978311E-2,-8.989967E-3,1.9213853E-2,1.8081173E-2,-2.8905997E-2,4.45485E-3,5.2684147E-2,-4.8148066E-2,-1.0521361E-3],"split_indices":[46,27,33,38,40,32,27,1,43,31,1,34,22,43,33,34,0,33,0,36,7,16,0,47,31,1,0,31,22,36,0,0,0,0,0,0,0,0,0,0,0,0,0,0,0,0,0,0,0,0,0,0,0],"split_type":[0,0,0,0,0,0,0,0,0,0,0,0,0,0,0,0,0,0,0,0,0,0,0,0,0,0,0,0,0,0,0,0,0,0,0,0,0,0,0,0,0,0,0,0,0,0,0,0,0,0,0,0,0],"sum_hessian":[6.979895E2,1.0156236E2,5.964271E2,2.4926298E1,7.663606E1,5.728823E2,2.3544825E1,1.9062866E1,5.863433E0,6.943592E1,7.2001476E0,5.2162E2,5.1262318E1,1.8328915E1,5.2159095E0,7.209512E0,1.18533535E1,3.537153E0,2.3262799E0,1.4892445E1,5.4543472E1,5.419341E0,1.7808063E0,1.1597903E2,4.0564096E2,4.8902256E1,2.3600593E0,2.990225E0,1.5338691E1,3.634242E0,1.5816673E0,4.0080647E0,3.2014475E0,2.2619832E0,1.27517E0,8.937751E0,5.9546933E0,5.2794445E1,1.7490293E0,1.011057E0,4.408284E0,1.662736E1,9.935166E1,1.4518648E2,2.604545E2,1.6818214E1,3.208404E1,1.4917108E0,1.4985143E0,2.066627E0,1.3272063E1,2.1933439E0,1.4408983E0],"tree_param":{"num_deleted":"0","num_feature":"52","num_nodes":"53","size_leaf_vector":"1"}},{"base_weights":[-3.2022354E-1,-8.995304E-1,-2.2274132E-1,-7.4038666E-1,-1.0153869E0,-2.5243095E-1,5.5464554E-1,-9.128099E-1,-2.2055167E-1,-1.0904633E0,-6.8595207E-1,-2.715374E-1,4.405616E-1,9.805213E-1,7.140437E-2,-9.599362E-1,-2.8802366E-3,-4.370177E-1,4.8246756E-2,-1.8800056E-2,-5.5636127E-2,3.8567938E-2,-9.6597576E-1,-2.0833912E-1,-4.3842843E-1,-1.4164534E-1,8.26584E-1,8.184079E-3,5.224815E-2,-1.17318615E-1,3.4426868E-2,-4.930074E-2,-4.04667E-3,1.3557802E-2,-3.5963576E-2,-5.1828068E-2,-8.435409E-3,-1.5446827E-2,-4.4364683E-4,1.2087644E-2,-2.459859E-2,-3.5270285E-2,4.114596E-2,6.45725E-2,7.6570534E-3,1.0413143E-2,-3.61907E-2],"categories":[],"categories_nodes":[],"categories_segments":[],"categories_sizes":[],"default_left":[0,0,0,0,0,0,0,0,0,0,0,0,0,0,0,0,0,0,0,0,0,0,0,0,0,0,0,0,0,0,0,0,0,0,0,0,0,0,0,0,0,0,0,0,0,0,0],"id":31,"left_children":[1,3,5,7,9,11,13,15,17,19,21,23,25,27,29,31,-1,33,-1,-1,-1,-1,35,37,39,41,43,-1,-1,45,-1,-1,-1,-1,-1,-1,-1,-1,-1,-1,-1,-1,-1,-1,-1,-1,-1],"loss_changes":[3.8855423E1,1.0788345E0,1.3833757E1,3.8787956E0,6.0647964E-1,7.695526E0,4.4861245E0,1.3095226E0,3.6696153E0,2.6394653E-1,5.9930215E0,5.7880707E0,3.6530654E0,4.442625E-1,1.4142535E0,6.5446854E-1,0E0,2.471864E0,0E0,0E0,0E0,0E0,4.571638E-1,8.1486225E0,5.6621037E0,4.4557133E0,2.809773E0,0E0,0E0,2.05083E0,0E0,0E0,0E0,0E0,0E0,0E0,0E0,0E0,0E0,0E0,0E0,0E0,0E0,0E0,0E0,0E0,0E0],"parents":[2147483647,0,0,1,1,2,2,3,3,4,4,5,5,6,6,7,7,8,8,9,9,10,10,11,11,12,12,13,13,14,14,15,15,17,17,22,22,23,23,24,24,25,25,26,26,29,29],"right_children":[2,4,6,8,10,12,14,16,18,20,22,24,26,28,30,32,-1,34,-1,-1,-1,-1,36,38,40,42,44,-1,-1,46,-1,-1,-1,-1,-1,-1,-1,-1,-1,-1,-1,-1,-1,-1,-1,-1,-1],"split_conditions":[1E0,7.918415E1,5.377078E-4,9.717565E-4,4.096923E-1,9.6E1,4.637222E-7,3.062881E-3,4.1734922E-1,-9.659258E-1,1.9836319E-3,1.7002701E4,-2.915595E-4,6.4149516E-4,6.8E1,1.2462968E-3,-2.8802366E-3,-5E-1,4.8246756E-2,-1.8800056E-2,-5.5636127E-2,3.8567938E-2,9.294315E-4,-2.9281058E-4,1.4015723E1,2.3582893E1,6.391654E-4,8.184079E-3,5.224815E-2,2.3943482E-3,3.4426868E-2,-4.930074E-2,-4.04667E-3,1.3557802E-2,-3.5963576E-2,-5.1828068E-2,-8.435409E-3,-1.5446827E-2,-4.4364683E-4,1.2087644E-2,-2.459859E-2,-3.5270285E-2,4.114596E-2,6.45725E-2,7.6570534E-3,1.0413143E-2,-3.61907E-2],"split_indices":[46,43,33,33,15,38,32,6,13,0,27,22,35,33,40,35,0,1,0,0,0,0,21,33,11,12,35,0,0,6,0,0,0,0,0,0,0,0,0,0,0,0,0,0,0,0,0],"split_type":[0,0,0,0,0,0,0,0,0,0,0,0,0,0,0,0,0,0,0,0,0,0,0,0,0,0,0,0,0,0,0,0,0,0,0,0,0,0,0,0,0,0,0,0,0,0,0],"sum_hessian":[6.9059424E2,9.828558E1,5.9230865E2,4.4520943E1,5.376464E1,5.711701E2,2.1138592E1,3.286428E1,1.1656659E1,4.1904694E1,1.1859947E1,5.5643677E2,1.473332E1,1.0689227E1,1.0449365E1,3.1031803E1,1.8324802E0,1.039071E1,1.2659497E0,1.8066885E0,4.0098003E1,1.6287771E0,1.023117E1,4.0523196E2,1.5120482E2,6.126408E0,8.606912E0,1.0404792E0,9.648747E0,8.622461E0,1.8269031E0,3.0019432E1,1.0123698E0,2.9723685E0,7.418341E0,9.1233015E0,1.1078684E0,2.6901163E2,1.362203E2,1.0777613E1,1.4042722E2,4.036102E0,2.0903063E0,4.5490785E0,4.057833E0,6.0378237E0,2.5846379E0],"tree_param":{"num_deleted":"0","num_feature":"52","num_nodes":"47","size_leaf_vector":"1"}},{"base_weights":[-3.0739215E-1,-8.8531375E-1,-2.1271813E-1,-6.3683623E-1,-9.5746833E-1,-2.4239185E-1,5.08425E-1,-8.088353E-1,-4.9339335E-2,-9.934044E-1,-5.3532E-1,-1.3231195E-2,-3.0113986E-1,8.921389E-1,3.665009E-2,-3.361455E-1,-5.2711792E-2,4.9718788E-1,-3.9987978E-2,-1.0795494E0,-8.009617E-1,-4.5524526E-2,9.510499E-2,-8.775988E-1,5.371236E-2,-2.7188483E-1,-7.718782E-1,-1.4580421E-1,5.4820593E-2,-1.7410454E-1,6.0418755E-1,1.6462509E-2,-3.7811335E-2,-1.0607819E-2,6.330868E-2,-5.5081487E-2,-9.103653E-3,1.3291714E-3,-4.5024514E-2,2.7347786E-2,-1.7814243E-2,1.335859E-2,-5.948635E-2,-4.662953E-3,1.61653E-2,9.809651E-4,-1.6200094E-2,2.4538819E-2,-4.639959E-2,1.3873469E-4,-1.1126516E-2,2.2901593E-2,-2.2123829E-2,6.718624E-3,3.8439177E-2],"categories":[],"categories_nodes":[],"categories_segments":[],"categories_sizes":[],"default_left":[0,0,0,0,0,0,0,0,0,0,0,0,0,0,0,0,0,0,0,0,0,0,0,0,0,0,0,0,0,0,0,0,0,0,0,0,0,0,0,0,0,0,0,0,0,0,0,0,0,0,0,0,0,0,0],"id":32,"left_children":[1,3,5,7,9,11,13,15,17,19,21,23,25,27,29,31,-1,33,-1,35,37,-1,39,41,43,45,47,49,-1,51,53,-1,-1,-1,-1,-1,-1,-1,-1,-1,-1,-1,-1,-1,-1,-1,-1,-1,-1,-1,-1,-1,-1,-1,-1],"loss_changes":[3.7280624E1,1.1128006E0,1.2742989E1,2.4466352E0,5.676117E-1,7.6307983E0,4.2450175E0,1.8460722E0,3.1198986E0,2.2311401E-1,1.9441433E0,6.8035626E0,6.00576E0,2.9137363E0,1.4976792E0,2.4714E0,0E0,2.6999354E0,0E0,6.4065933E-1,2.0142736E0,0E0,9.7717094E-1,3.3374596E0,4.3614273E0,6.485529E0,5.55379E0,3.502789E-2,0E0,1.7745547E0,1.577766E-1,0E0,0E0,0E0,0E0,0E0,0E0,0E0,0E0,0E0,0E0,0E0,0E0,0E0,0E0,0E0,0E0,0E0,0E0,0E0,0E0,0E0,0E0,0E0,0E0],"parents":[2147483647,0,0,1,1,2,2,3,3,4,4,5,5,6,6,7,7,8,8,9,9,10,10,11,11,12,12,13,13,14,14,15,15,17,17,19,19,20,20,22,22,23,23,24,24,25,25,26,26,27,27,29,29,30,30],"right_children":[2,4,6,8,10,12,14,16,18,20,22,24,26,28,30,32,-1,34,-1,36,38,-1,40,42,44,46,48,50,-1,52,54,-1,-1,-1,-1,-1,-1,-1,-1,-1,-1,-1,-1,-1,-1,-1,-1,-1,-1,-1,-1,-1,-1,-1,-1],"split_conditions":[1E0,1.4747763E-3,4.7493473E-4,4E1,9.6E1,2E0,4.637222E-7,-2.5881904E-1,7.591175E1,-2.8548416E-4,8.660254E-1,-3.1100734E-4,-9.208185E-5,2.8684738E1,1.694962E4,6.4843018E-3,-5.2711792E-2,7.334782E-4,-3.9987978E-2,1.3633276E-2,-2.8094882E-4,-4.5524526E-2,2.381419E-3,-3.1323906E-4,5E0,1.6843396E4,1.6412293E4,-1.7937508E-3,5.4820593E-2,1.9392115E1,1.8898922E1,1.6462509E-2,-3.7811335E-2,-1.0607819E-2,6.330868E-2,-5.5081487E-2,-9.103653E-3,1.3291714E-3,-4.5024514E-2,2.7347786E-2,-1.7814243E-2,1.335859E-2,-5.948635E-2,-4.662953E-3,1.61653E-2,9.809651E-4,-1.6200094E-2,2.4538819E-2,-4.639959E-2,1.3873469E-4,-1.1126516E-2,2.2901593E-2,-2.2123829E-2,6.718624E-3,3.8439177E-2],"split_indices":[46,27,33,38,40,47,32,1,43,36,1,32,32,16,22,42,0,33,0,7,36,0,27,33,46,22,49,7,0,10,12,0,0,0,0,0,0,0,0,0,0,0,0,0,0,0,0,0,0,0,0,0,0,0,0],"split_type":[0,0,0,0,0,0,0,0,0,0,0,0,0,0,0,0,0,0,0,0,0,0,0,0,0,0,0,0,0,0,0,0,0,0,0,0,0,0,0,0,0,0,0,0,0,0,0,0,0,0,0,0,0,0,0],"sum_hessian":[6.8381274E2,9.5077415E1,5.887353E2,2.3607313E1,7.147011E1,5.66105E2,2.2630314E1,1.796966E1,5.637653E0,6.4616325E1,6.8537793E0,1.1576419E2,4.503408E2,1.1988526E1,1.0641787E1,6.95081E0,1.1018849E1,3.4572265E0,