{"learner":{"attributes":{},"feature_names":["Hour_Sin","Hour_Cos","Day_Sin","Day_Cos","SMA_50","SMA_200","Dist_SMA_50","Dist_SMA_200","EMA_20","Dist_EMA_20","ADX","ADX_Pos","ADX_Neg","Efficiency_Ratio","RSI","ROC","Stoch_K","Stoch_D","BB_Width","BB_Pos","ATR","ATR_Pct","VWAP","Dist_VWAP","SuperTrend_Upper","SuperTrend_Lower","Dist_ST_Upper","Dist_ST_Lower","Pivot_Point","Pivot_R1","Pivot_S1","Dist_Pivot","Log_Return","Return_Lag_1","Return_Lag_2","Return_Lag_3","Return_Lag_5","Volume_Change","Aroon_Up","Aroon_Down","Aroon_Osc","AO","Hist_Vol","RVI","Fractal_Up","Fractal_Down","Bars_Since_Fractal_Up","Bars_Since_Fractal_Down","BB_Upper","BB_Lower","BB_Mid","BB_PctB"],"feature_types":["float","float","float","float","float","float","float","float","float","float","float","float","float","float","float","float","float","float","float","float","float","float","float","float","float","float","float","float","float","float","float","float","float","float","float","float","float","float","float","float","float","float","float","float","int","int","int","int","float","float","float","float"],"gradient_booster":{"model":{"cats":{"enc":[],"feature_segments":[],"sorted_idx":[]},"gbtree_model_param":{"num_parallel_tree":"1","num_trees":"300"},"iteration_indptr":[0,1,2,3,4,5,6,7,8,9,10,11,12,13,14,15,16,17,18,19,20,21,22,23,24,25,26,27,28,29,30,31,32,33,34,35,36,37,38,39,40,41,42,43,44,45,46,47,48,49,50,51,52,53,54,55,56,57,58,59,60,61,62,63,64,65,66,67,68,69,70,71,72,73,74,75,76,77,78,79,80,81,82,83,84,85,86,87,88,89,90,91,92,93,94,95,96,97,98,99,100,101,102,103,104,105,106,107,108,109,110,111,112,113,114,115,116,117,118,119,120,121,122,123,124,125,126,127,128,129,130,131,132,133,134,135,136,137,138,139,140,141,142,143,144,145,146,147,148,149,150,151,152,153,154,155,156,157,158,159,160,161,162,163,164,165,166,167,168,169,170,171,172,173,174,175,176,177,178,179,180,181,182,183,184,185,186,187,188,189,190,191,192,193,194,195,196,197,198,199,200,201,202,203,204,205,206,207,208,209,210,211,212,213,214,215,216,217,218,219,220,221,222,223,224,225,226,227,228,229,230,231,232,233,234,235,236,237,238,239,240,241,242,243,244,245,246,247,248,249,250,251,252,253,254,255,256,257,258,259,260,261,262,263,264,265,266,267,268,269,270,271,272,273,274,275,276,277,278,279,280,281,282,283,284,285,286,287,288,289,290,291,292,293,294,295,296,297,298,299,300],"tree_info":[0,0,0,0,0,0,0,0,0,0,0,0,0,0,0,0,0,0,0,0,0,0,0,0,0,0,0,0,0,0,0,0,0,0,0,0,0,0,0,0,0,0,0,0,0,0,0,0,0,0,0,0,0,0,0,0,0,0,0,0,0,0,0,0,0,0,0,0,0,0,0,0,0,0,0,0,0,0,0,0,0,0,0,0,0,0,0,0,0,0,0,0,0,0,0,0,0,0,0,0,0,0,0,0,0,0,0,0,0,0,0,0,0,0,0,0,0,0,0,0,0,0,0,0,0,0,0,0,0,0,0,0,0,0,0,0,0,0,0,0,0,0,0,0,0,0,0,0,0,0,0,0,0,0,0,0,0,0,0,0,0,0,0,0,0,0,0,0,0,0,0,0,0,0,0,0,0,0,0,0,0,0,0,0,0,0,0,0,0,0,0,0,0,0,0,0,0,0,0,0,0,0,0,0,0,0,0,0,0,0,0,0,0,0,0,0,0,0,0,0,0,0,0,0,0,0,0,0,0,0,0,0,0,0,0,0,0,0,0,0,0,0,0,0,0,0,0,0,0,0,0,0,0,0,0,0,0,0,0,0,0,0,0,0,0,0,0,0,0,0,0,0,0,0,0,0,0,0,0,0,0,0,0,0,0,0,0,0,0,0,0,0,0,0,0,0,0,0,0,0],"trees":[{"base_weights":[7.471384E-1,1.699115E0,4.5380434E-1,1.930131E0,1.4488889E0,-5.006418E-1,7.957584E-1,2.727273E-2,1.946785E0,1.4751132E0,-0E0,4.7741935E-1,-7.388535E-1,-1.372549E0,8.4637135E-1,9.776287E-2,2.5E-2,1.5384616E-1,1.5011548E0,-2.5E-2,2.5E-2,-4.7058824E-1,7.2E-1,-5.086207E-1,-1.3571428E0,-1.4893616E0,-0E0,-7.692308E-1,8.647619E-1,-3.3333335E-2,5E-2,8.369099E-2,6.3725494E-2,6.0000002E-2,-5E-2,4.5454547E-2,-2.6315792E-2,1.1111111E-2,-3.0864198E-2,-7.3750004E-2,3.3333335E-2,-2.0000001E-2,-8.048781E-2,5E-2,-6.363636E-2,7.809524E-2,3.9281946E-2],"categories":[],"categories_nodes":[],"categories_segments":[],"categories_sizes":[],"default_left":[0,0,0,0,0,0,0,0,0,0,0,0,0,0,0,0,0,0,0,0,0,0,0,0,0,0,0,0,0,0,0,0,0,0,0,0,0,0,0,0,0,0,0,0,0,0,0],"id":0,"left_children":[1,3,5,7,9,11,13,-1,15,17,19,21,23,25,27,-1,-1,29,31,-1,-1,33,35,37,39,41,-1,43,45,-1,-1,-1,-1,-1,-1,-1,-1,-1,-1,-1,-1,-1,-1,-1,-1,-1,-1],"loss_changes":[2.675855E2,1.0267639E1,2.406117E2,1.5785217E0,4.2745514E0,4.572669E1,6.0670593E1,0E0,4.0441895E-1,3.5711212E0,1E0,9.250095E0,2.1658752E1,2.0442219E0,1.6427338E1,0E0,0E0,2.9230769E0,2.1029205E0,0E0,0E0,8.717648E0,7.8430614E0,9.349403E0,1.1001198E1,8.971462E-1,0E0,7.0629373E0,2.7731964E1,0E0,0E0,0E0,0E0,0E0,0E0,0E0,0E0,0E0,0E0,0E0,0E0,0E0,0E0,0E0,0E0,0E0,0E0],"parents":[2147483647,0,0,1,1,2,2,3,3,4,4,5,5,6,6,8,8,9,9,10,10,11,11,12,12,13,13,14,14,17,17,18,18,21,21,22,22,23,23,24,24,25,25,27,27,28,28],"right_children":[2,4,6,8,10,12,14,-1,16,18,20,22,24,26,28,-1,-1,30,32,-1,-1,34,36,38,40,42,-1,44,46,-1,-1,-1,-1,-1,-1,-1,-1,-1,-1,-1,-1,-1,-1,-1,-1,-1,-1],"split_conditions":[1E0,2.7012045E-5,2E0,-2.7476903E-3,8.996801E1,2E0,-8.518662E-4,2.727273E-2,8.434647E-1,2.7644094E-3,0E0,4.6998975E-4,2.7037698E-3,6.205276E-4,-1.0195954E-3,9.776287E-2,2.5E-2,3.6022594E1,4.3388373E-1,-2.5E-2,2.5E-2,2.587049E1,6.2803435E-4,-4.8E1,1.6288222E-3,-3.5973007E-3,-0E0,-1.9332693E-3,-2.8949587E-5,-3.3333335E-2,5E-2,8.369099E-2,6.3725494E-2,6.0000002E-2,-5E-2,4.5454547E-2,-2.6315792E-2,1.1111111E-2,-3.0864198E-2,-7.3750004E-2,3.3333335E-2,-2.0000001E-2,-8.048781E-2,5E-2,-6.363636E-2,7.809524E-2,3.9281946E-2],"split_indices":[47,32,46,35,17,47,33,0,19,18,0,35,27,34,32,0,0,43,2,0,0,43,35,40,9,7,0,35,32,0,0,0,0,0,0,0,0,0,0,0,0,0,0,0,0,0,0],"split_type":[0,0,0,0,0,0,0,0,0,0,0,0,0,0,0,0,0,0,0,0,0,0,0,0,0,0,0,0,0,0,0,0,0,0,0,0,0,0,0,0,0,0,0,0,0,0,0],"sum_hessian":[9.6E2,2.25E2,7.35E2,1.135E2,1.115E2,1.9375E2,5.4125E2,1.75E0,1.1175E2,1.095E2,2E0,3.775E1,1.56E2,1.175E1,5.295E2,1.1075E2,1E0,2.25E0,1.0725E2,1E0,1E0,7.5E0,3.025E1,1.15E2,4.1E1,1.075E1,1E0,5.5E0,5.24E2,1.25E0,1E0,5.725E1,5E1,1.5E0,6E0,2.65E1,3.75E0,1.475E1,1.0025E2,3.9E1,2E0,1.5E0,9.25E0,1E0,4.5E0,5.15E1,4.725E2],"tree_param":{"num_deleted":"0","num_feature":"52","num_nodes":"47","size_leaf_vector":"1"}},{"base_weights":[7.106831E-1,1.6185898E0,4.3130156E-1,1.8392619E0,1.3798033E0,-4.7601393E-1,7.563757E-1,2.6408136E-2,1.8549602E0,1.4048076E0,3.974057E-9,4.545326E-1,-7.0265234E-1,-1.3133917E0,8.046598E-1,9.3567185E-2,8.089986E-1,7.566467E-3,1.4294866E0,-4.4615418E-1,6.849331E-1,-4.8346338E-1,-1.2919257E0,-1.4253136E0,-0E0,-7.334646E-1,8.2216406E-1,8.810945E-3,5.4085013E-2,6.308474E-2,8.332369E-2,5.823196E-2,-4.7883235E-2,4.3286383E-2,-2.528052E-2,1.059114E-2,-2.9343266E-2,-7.0249364E-2,3.2228287E-2,-1.8203268E-2,-7.7254206E-2,3.2588586E-2,-5.9378505E-2,7.437793E-2,3.7336618E-2],"categories":[],"categories_nodes":[],"categories_segments":[],"categories_sizes":[],"default_left":[0,0,0,0,0,0,0,0,0,0,0,0,0,0,0,0,0,0,0,0,0,0,0,0,0,0,0,0,0,0,0,0,0,0,0,0,0,0,0,0,0,0,0,0,0],"id":1,"left_children":[1,3,5,7,9,11,13,-1,15,17,-1,19,21,23,25,-1,27,-1,29,31,33,35,37,39,-1,41,43,-1,-1,-1,-1,-1,-1,-1,-1,-1,-1,-1,-1,-1,-1,-1,-1,-1,-1],"loss_changes":[2.4286017E2,9.348938E0,2.1732788E2,1.3714905E0,3.876114E0,4.1371162E1,5.5219482E1,0E0,4.1366577E-1,3.1972504E0,0E0,8.342901E0,1.9643814E1,1.8719959E0,1.4878967E1,0E0,4.1269946E-1,0E0,2.1959534E0,8.114605E0,7.161004E0,8.4622555E0,1.008947E1,9.290676E-1,0E0,4.8595495E0,2.5226807E1,0E0,0E0,0E0,0E0,0E0,0E0,0E0,0E0,0E0,0E0,0E0,0E0,0E0,0E0,0E0,0E0,0E0,0E0],"parents":[2147483647,0,0,1,1,2,2,3,3,4,4,5,5,6,6,8,8,9,9,11,11,12,12,13,13,14,14,16,16,18,18,19,19,20,20,21,21,22,22,23,23,25,25,26,26],"right_children":[2,4,6,8,10,12,14,-1,16,18,-1,20,22,24,26,-1,28,-1,30,32,34,36,38,40,-1,42,44,-1,-1,-1,-1,-1,-1,-1,-1,-1,-1,-1,-1,-1,-1,-1,-1,-1,-1],"split_conditions":[1E0,2.7012045E-5,2E0,-2.7476903E-3,8.996801E1,2E0,-8.518662E-4,2.6408136E-2,8.2690424E-1,2.7644094E-3,3.974057E-9,4.6998975E-4,2.7037698E-3,6.205276E-4,-1.0195954E-3,9.3567185E-2,3.5550818E-3,7.566467E-3,5.8717665E-4,2.587049E1,6.2803435E-4,-4.8E1,1.6288222E-3,-7.6E1,-0E0,-1.5637407E-3,-2.8949587E-5,8.810945E-3,5.4085013E-2,6.308474E-2,8.332369E-2,5.823196E-2,-4.7883235E-2,4.3286383E-2,-2.528052E-2,1.059114E-2,-2.9343266E-2,-7.0249364E-2,3.2228287E-2,-1.8203268E-2,-7.7254206E-2,3.2588586E-2,-5.9378505E-2,7.437793E-2,3.7336618E-2],"split_indices":[47,32,46,35,17,47,33,0,19,18,0,35,27,34,32,0,6,0,36,43,35,40,9,40,0,35,32,0,0,0,0,0,0,0,0,0,0,0,0,0,0,0,0,0,0],"split_type":[0,0,0,0,0,0,0,0,0,0,0,0,0,0,0,0,0,0,0,0,0,0,0,0,0,0,0,0,0,0,0,0,0,0,0,0,0,0,0,0,0,0,0,0,0],"sum_hessian":[9.5920496E2,2.2458318E2,7.3462177E2,1.1323531E2,1.1134786E2,1.9365271E2,5.4096906E2,1.7496747E0,1.11485634E2,1.09348175E2,1.9996876E0,3.7730568E1,1.5592215E2,1.1734885E1,5.292342E2,1.0898937E2,2.4962654E0,2.2490282E0,1.07099144E2,7.4949026E0,3.0235668E1,1.1497568E2,4.0946465E1,1.0734885E1,1E0,5.494822E0,5.237393E2,1.2475753E0,1.24869E0,6.640609E1,4.069305E1,1.4986508E0,5.9962516E0,2.6486317E1,3.7493508E0,1.4749544E1,1.00226135E2,3.894702E1,1.9994445E0,1.4983321E0,9.236552E0,1.2491224E0,4.2457E0,5.1421555E1,4.7231778E2],"tree_param":{"num_deleted":"0","num_feature":"52","num_nodes":"45","size_leaf_vector":"1"}},{"base_weights":[6.7707413E-1,1.5472683E0,4.1028544E-1,1.7605313E0,1.3171954E0,-4.5301983E-1,7.1960413E-1,2.5576835E-2,1.775499E0,1.3411558E0,3.974057E-9,4.3316576E-1,-6.688469E-1,-1.2593774E0,7.6568884E-1,8.954214E-2,7.872811E-1,7.3047266E-3,1.3647581E0,-4.233647E-1,6.5212667E-1,-4.5972964E-1,-1.2327572E0,-1.261156E-2,-1.4231222E0,7.822047E-1,-7.463875E-1,8.071932E-3,5.3116232E-2,7.657207E-2,5.7388313E-2,5.6575518E-2,-4.5902446E-2,4.125983E-2,-2.4292307E-2,1.0096051E-2,-2.7909476E-2,-6.812032E-2,2.2541149E-2,-7.8556016E-2,-8.292763E-3,6.5939225E-2,3.5956234E-2,-7.272377E-2,5.717207E-3],"categories":[],"categories_nodes":[],"categories_segments":[],"categories_sizes":[],"default_left":[0,0,0,0,0,0,0,0,0,0,0,0,0,0,0,0,0,0,0,0,0,0,0,0,0,0,0,0,0,0,0,0,0,0,0,0,0,0,0,0,0,0,0,0,0],"id":2,"left_children":[1,3,5,7,9,11,13,-1,15,17,-1,19,21,23,25,-1,27,-1,29,31,33,35,37,-1,39,41,43,-1,-1,-1,-1,-1,-1,-1,-1,-1,-1,-1,-1,-1,-1,-1,-1,-1,-1],"loss_changes":[2.21771E2,8.692871E0,1.9648163E2,1.2135925E0,3.5325775E0,3.7467335E1,5.032071E1,0E0,2.8451538E-1,2.9013824E0,0E0,7.5296097E0,1.7912308E1,1.7344627E0,1.3806976E1,0E0,4.2977214E-1,0E0,2.1369781E0,7.5616865E0,6.544818E0,7.663622E0,9.737301E0,0E0,1.73102E0,1.6796448E1,3.9649656E0,0E0,0E0,0E0,0E0,0E0,0E0,0E0,0E0,0E0,0E0,0E0,0E0,0E0,0E0,0E0,0E0,0E0,0E0],"parents":[2147483647,0,0,1,1,2,2,3,3,4,4,5,5,6,6,8,8,9,9,11,11,12,12,13,13,14,14,16,16,18,18,19,19,20,20,21,21,22,22,24,24,25,25,26,26],"right_children":[2,4,6,8,10,12,14,-1,16,18,-1,20,22,24,26,-1,28,-1,30,32,34,36,38,-1,40,42,44,-1,-1,-1,-1,-1,-1,-1,-1,-1,-1,-1,-1,-1,-1,-1,-1,-1,-1],"split_conditions":[1E0,2.7012045E-5,2E0,-2.7476903E-3,8.996801E1,2E0,-8.518662E-4,2.5576835E-2,8.2690424E-1,2.7644094E-3,3.974057E-9,4.6998975E-4,2.7037698E-3,1.2587698E-2,9.6E1,8.954214E-2,8.0486275E1,7.3047266E-3,4.3388373E-1,2.587049E1,6.2803435E-4,-4.8E1,6.0293794E-1,-1.261156E-2,1.95131E-2,-2.8949587E-5,-1.02504E-4,8.071932E-3,5.3116232E-2,7.657207E-2,5.7388313E-2,5.6575518E-2,-4.5902446E-2,4.125983E-2,-2.4292307E-2,1.0096051E-2,-2.7909476E-2,-6.812032E-2,2.2541149E-2,-7.8556016E-2,-8.292763E-3,6.5939225E-2,3.5956234E-2,-7.272377E-2,5.717207E-3],"split_indices":[47,32,46,35,17,47,33,0,19,18,0,35,27,42,39,0,16,0,2,43,35,40,13,0,42,32,33,0,0,0,0,0,0,0,0,0,0,0,0,0,0,0,0,0,0],"split_type":[0,0,0,0,0,0,0,0,0,0,0,0,0,0,0,0,0,0,0,0,0,0,0,0,0,0,0,0,0,0,0,0,0,0,0,0,0,0,0,0,0,0,0,0,0],"sum_hessian":[9.569935E2,2.2342865E2,7.335649E2,1.12498024E2,1.1093063E2,1.9337967E2,5.401852E2,1.7487398E0,1.1074928E2,1.0893095E2,1.9996876E0,3.7675823E1,1.5570384E2,1.1693918E1,5.284913E2,1.0825623E2,2.4930518E0,2.2489645E0,1.0668198E2,7.480421E0,3.0195402E1,1.1490747E2,4.0796375E1,1.9906164E0,9.703301E0,5.232586E2,5.232682E0,1.2456403E0,1.2474115E0,5.6909306E1,4.9772675E1,1.4947702E0,5.985651E0,2.6447897E1,3.7475052E0,1.4748263E1,1.001592E2,3.805649E1,2.7398856E0,8.458038E0,1.2452626E0,5.2949154E1,4.7030945E2,2.4924421E0,2.74024E0],"tree_param":{"num_deleted":"0","num_feature":"52","num_nodes":"45","size_leaf_vector":"1"}},{"base_weights":[6.4579445E-1,1.4834446E0,3.904855E-1,1.6929444E0,1.2613105E0,-4.315048E-1,6.850057E-1,6.80696E-1,1.7094753E0,1.078848E0,1.5166333E0,4.131559E-1,-6.3718957E-1,-1.2100768E0,7.290227E-1,4.832707E-2,4.5099338E-3,8.6231954E-2,3.4058556E-2,1.33148E0,7.4666125E-1,1.4023892E-2,7.7649355E-2,-4.3617666E-1,6.138414E-1,-4.3730685E-1,-1.1786019E0,-1.2198602E-2,-1.3676659E0,-7.257047E-1,7.4566823E-1,6.9611296E-2,2.0297563E-3,9.499357E-3,5.562246E-2,5.5020005E-2,-4.7982495E-2,3.878607E-2,-2.3348132E-2,9.624552E-3,-2.6555661E-2,-6.4323835E-2,3.192919E-2,-7.551193E-2,-8.064813E-3,3.0885005E-2,-5.817634E-2,6.8314046E-2,3.3792447E-2],"categories":[],"categories_nodes":[],"categories_segments":[],"categories_sizes":[],"default_left":[0,0,0,0,0,0,0,0,0,0,0,0,0,0,0,0,0,0,0,0,0,0,0,0,0,0,0,0,0,0,0,0,0,0,0,0,0,0,0,0,0,0,0,0,0,0,0,0,0],"id":3,"left_children":[1,3,5,7,9,11,13,15,17,19,21,23,25,27,29,-1,-1,-1,-1,31,33,-1,-1,35,37,39,41,-1,43,45,47,-1,-1,-1,-1,-1,-1,-1,-1,-1,-1,-1,-1,-1,-1,-1,-1,-1,-1],"loss_changes":[2.0357935E2,8.225708E0,1.7774902E2,7.0474243E-1,3.5807648E0,3.3962116E1,4.5929108E1,4.9612844E-1,5.279846E-1,4.777519E0,1.5511475E0,6.8454714E0,1.640762E1,1.5898952E0,1.333609E1,0E0,0E0,0E0,0E0,2.9067154E0,6.301878E0,0E0,0E0,7.458896E0,5.8962994E0,6.943701E0,8.971558E0,0E0,1.5873718E0,4.5327044E0,2.173471E1,0E0,0E0,0E0,0E0,0E0,0E0,0E0,0E0,0E0,0E0,0E0,0E0,0E0,0E0,0E0,0E0,0E0,0E0],"parents":[2147483647,0,0,1,1,2,2,3,3,4,4,5,5,6,6,7,7,8,8,9,9,10,10,11,11,12,12,13,13,14,14,19,19,20,20,23,23,24,24,25,25,26,26,28,28,29,29,30,30],"right_children":[2,4,6,8,10,12,14,16,18,20,22,24,26,28,30,-1,-1,-1,-1,32,34,-1,-1,36,38,40,42,-1,44,46,48,-1,-1,-1,-1,-1,-1,-1,-1,-1,-1,-1,-1,-1,-1,-1,-1,-1,-1],"split_conditions":[1E0,5.820296E-5,2E0,-9.6E1,5.8717665E-4,2E0,-8.518662E-4,0E0,8.2690424E-1,4.3388373E-1,-2.0988032E-3,4.3667445E-4,2.7037698E-3,1.2587698E-2,-1.0195954E-3,4.832707E-2,4.5099338E-3,8.6231954E-2,3.4058556E-2,3.2877985E-1,1.8945684E-1,1.4023892E-2,7.7649355E-2,2.587049E1,6.2803435E-4,-4.8E1,1.6288222E-3,-1.2198602E-2,1.95131E-2,-1.5637407E-3,-2.8949587E-5,6.9611296E-2,2.0297563E-3,9.499357E-3,5.562246E-2,5.5020005E-2,-4.7982495E-2,3.878607E-2,-2.3348132E-2,9.624552E-3,-2.6555661E-2,-6.4323835E-2,3.192919E-2,-7.551193E-2,-8.064813E-3,3.0885005E-2,-5.817634E-2,6.8314046E-2,3.3792447E-2],"split_indices":[47,31,46,40,36,47,33,0,19,2,35,35,27,42,32,0,0,0,0,15,13,0,0,43,35,40,9,0,42,35,32,0,0,0,0,0,0,0,0,0,0,0,0,0,0,0,0,0,0],"split_type":[0,0,0,0,0,0,0,0,0,0,0,0,0,0,0,0,0,0,0,0,0,0,0,0,0,0,0,0,0,0,0,0,0,0,0,0,0,0,0,0,0,0,0,0,0,0,0,0,0],"sum_hessian":[9.536385E2,2.216408E2,7.319977E2,1.1065669E2,1.1098411E2,1.929683E2,5.3902936E2,2.4558096E0,1.0820088E2,6.777511E1,4.3208996E1,3.7590652E1,1.5537766E2,1.1634461E1,5.273949E2,1.2256677E0,1.2301419E0,1.0596117E2,2.2397153E0,3.6788666E1,3.0986443E1,1.4834036E0,4.172559E1,6.9602695E0,3.0630383E1,1.1480192E2,4.0575733E1,1.9889987E0,9.645462E0,5.484485E0,5.2191046E2,3.506031E1,1.7283559E0,1.2889681E1,1.8096764E1,1.4885991E0,5.4716706E0,2.6885777E1,3.7446063E0,1.4746272E1,1.0005565E2,3.857767E1,1.9980602E0,8.400747E0,1.2447153E0,1.24709E0,4.2373953E0,5.0899986E1,4.7101047E2],"tree_param":{"num_deleted":"0","num_feature":"52","num_nodes":"49","size_leaf_vector":"1"}},{"base_weights":[6.168161E-1,1.42609E0,3.719849E-1,1.6308435E0,1.2075802E0,-4.1126996E-1,6.526463E-1,2.279467E-2,1.6454003E0,1.2310964E0,-2.3137403E-3,3.9422122E-1,-6.074013E-1,-1.1648389E0,6.9470805E-1,8.2975134E-2,7.4060917E-1,4.726343E-3,1.2542229E0,-4.150924E-1,5.85138E-1,-4.1609487E-1,-1.1287391E0,-1.1799661E-2,-1.3172003E0,-8.01326E-1,7.097275E-1,6.669105E-3,5.087666E-2,5.4901864E-2,7.386815E-2,5.355599E-2,-4.611421E-2,7.1229875E-2,1.773669E-2,-2.3569813E-2,2.738073E-2,-6.264668E-2,2.2837294E-2,-7.704523E-2,-2.0623358E-2,2.8498579E-2,-6.5449074E-2,6.464035E-2,3.2178063E-2],"categories":[],"categories_nodes":[],"categories_segments":[],"categories_sizes":[],"default_left":[0,0,0,0,0,0,0,0,0,0,0,0,0,0,0,0,0,0,0,0,0,0,0,0,0,0,0,0,0,0,0,0,0,0,0,0,0,0,0,0,0,0,0,0,0],"id":4,"left_children":[1,3,5,7,9,11,13,-1,15,17,-1,19,21,23,25,-1,27,-1,29,31,33,35,37,-1,39,41,43,-1,-1,-1,-1,-1,-1,-1,-1,-1,-1,-1,-1,-1,-1,-1,-1,-1,-1],"loss_changes":[1.8774936E2,7.8895874E0,1.6094165E2,1.146759E0,3.3137207E0,3.0797134E1,4.197377E1,0E0,1.6390991E-1,2.7321472E0,0E0,6.18875E0,1.5083385E1,1.4657288E0,1.2408478E1,0E0,4.496932E-1,0E0,2.079361E0,6.9655495E0,5.5971937E0,6.4224358E0,8.700348E0,0E0,1.5029602E0,4.719104E0,1.9315155E1,0E0,0E0,0E0,0E0,0E0,0E0,0E0,0E0,0E0,0E0,0E0,0E0,0E0,0E0,0E0,0E0,0E0,0E0],"parents":[2147483647,0,0,1,1,2,2,3,3,4,4,5,5,6,6,8,8,9,9,11,11,12,12,13,13,14,14,16,16,18,18,19,19,20,20,21,21,22,22,24,24,25,25,26,26],"right_children":[2,4,6,8,10,12,14,-1,16,18,-1,20,22,24,26,-1,28,-1,30,32,34,36,38,-1,40,42,44,-1,-1,-1,-1,-1,-1,-1,-1,-1,-1,-1,-1,-1,-1,-1,-1,-1,-1],"split_conditions":[1E0,2.7012045E-5,2E0,-2.7476903E-3,8.996801E1,2E0,-8.518662E-4,2.279467E-2,8.2690424E-1,2.7644094E-3,-2.3137403E-3,4.3667445E-4,2.7037698E-3,1.2587698E-2,3.7253308E0,8.2975134E-2,6.10576E-3,4.726343E-3,5.8717665E-4,2.587049E1,2.6266493E-3,3.9692423E0,6.0293794E-1,-1.1799661E-2,4.0594387E0,-1.3397513E-3,-2.8949587E-5,6.669105E-3,5.087666E-2,5.4901864E-2,7.386815E-2,5.355599E-2,-4.611421E-2,7.1229875E-2,1.773669E-2,-2.3569813E-2,2.738073E-2,-6.264668E-2,2.2837294E-2,-7.704523E-2,-2.0623358E-2,2.8498579E-2,-6.5449074E-2,6.464035E-2,3.2178063E-2],"split_indices":[47,32,46,35,17,47,33,0,19,18,0,35,27,42,16,0,18,0,36,43,27,20,13,0,20,35,32,0,0,0,0,0,0,0,0,0,0,0,0,0,0,0,0,0,0],"split_type":[0,0,0,0,0,0,0,0,0,0,0,0,0,0,0,0,0,0,0,0,0,0,0,0,0,0,0,0,0,0,0,0,0,0,0,0,0,0,0,0,0,0,0,0,0],"sum_hessian":[9.49258E2,2.1935829E2,7.298997E2,1.0990698E2,1.0945132E2,1.9242497E2,5.3747473E2,1.7404995E0,1.0816648E2,1.07454155E2,1.9971585E0,3.7481667E1,1.549433E2,1.1553537E1,5.259212E2,1.05685104E2,2.4813771E0,2.2442896E0,1.0520987E2,6.9301085E0,3.055156E1,1.1466483E2,4.0278473E1,1.9872855E0,9.566252E0,4.707161E0,5.2121405E2,1.2412572E0,1.2401198E0,6.537314E1,3.983673E1,1.4803653E0,5.4497433E0,5.463328E0,2.5088232E1,1.0892514E2,5.7396927E0,3.7547077E1,2.7313929E0,7.106049E0,2.4602022E0,1.2386153E0,3.4685457E0,5.122894E1,4.699851E2],"tree_param":{"num_deleted":"0","num_feature":"52","num_nodes":"45","size_leaf_vector":"1"}},{"base_weights":[5.896245E-1,1.3737345E0,3.5459515E-1,1.5763383E0,1.1591368E0,-6.1761576E-1,5.599884E-1,2.2096125E-2,1.5905732E0,1.3365852E0,9.340015E-1,-3.3344355E-1,-1.122493E0,-9.927952E-1,6.132159E-1,8.020929E-2,7.216092E-1,3.668256E-1,1.3719351E0,1.1760577E0,5.201916E-1,-5.8184963E-1,5.4474015E-2,1.5708255E-2,-1.1695714E0,-1.8692477E-1,-1.2057291E0,-8.201572E-1,6.439655E-1,4.990616E-2,6.162168E-3,-1.8195806E-2,4.6759304E-2,2.6784793E-2,7.116897E-2,2.8931374E-2,6.813542E-2,7.259932E-5,5.382965E-2,-4.5546755E-2,-8.708498E-3,2.652706E-2,-1.5170664E-2,-6.1176743E-2,-9.388271E-3,-4.2355787E-2,4.7155045E-2,-1.6422845E-2,-6.9004014E-2,2.8726315E-2,-5.1083952E-2,2.1780746E-2,3.7993647E-2],"categories":[],"categories_nodes":[],"categories_segments":[],"categories_sizes":[],"default_left":[0,0,0,0,0,0,0,0,0,0,0,0,0,0,0,0,0,0,0,0,0,0,0,0,0,0,0,0,0,0,0,0,0,0,0,0,0,0,0,0,0,0,0,0,0,0,0,0,0,0,0,0,0],"id":5,"left_children":[1,3,5,7,9,11,13,-1,15,17,19,21,23,25,27,-1,29,31,33,35,37,39,41,-1,43,45,47,49,51,-1,-1,-1,-1,-1,-1,-1,-1,-1,-1,-1,-1,-1,-1,-1,-1,-1,-1,-1,-1,-1,-1,-1,-1],"loss_changes":[1.736843E2,7.6340027E0,1.4581543E2,1.0597229E0,3.1243134E0,1.7923653E1,5.0361008E1,0E0,1.1300659E-1,1.5155106E0,4.553192E0,8.032315E0,3.445465E0,3.2635784E0,2.6207687E1,0E0,4.5184243E-1,1.767433E0,1.6660995E0,2.7509308E0,6.008726E0,6.6434746E0,5.8390746E0,0E0,2.1161156E0,4.852108E0,1.97855E0,4.149727E0,1.34570465E1,0E0,0E0,0E0,0E0,0E0,0E0,0E0,0E0,0E0,0E0,0E0,0E0,0E0,0E0,0E0,0E0,0E0,0E0,0E0,0E0,0E0,0E0,0E0,0E0],"parents":[2147483647,0,0,1,1,2,2,3,3,4,4,5,5,6,6,8,8,9,9,10,10,11,11,12,12,13,13,14,14,16,16,17,17,18,18,19,19,20,20,21,21,22,22,24,24,25,25,26,26,27,27,28,28],"right_children":[2,4,6,8,10,12,14,-1,16,18,20,22,24,26,28,-1,30,32,34,36,38,40,42,-1,44,46,48,50,52,-1,-1,-1,-1,-1,-1,-1,-1,-1,-1,-1,-1,-1,-1,-1,-1,-1,-1,-1,-1,-1,-1,-1,-1],"split_conditions":[1E0,2.7012045E-5,1E0,-2.7476903E-3,4.3388373E-1,-1.6004451E-4,-8.518662E-4,2.2096125E-2,8.2690424E-1,1.3229022E1,-9.916014E-4,6.5030545E-2,3.2819834E3,-3.751319E-3,-1.0195954E-3,8.020929E-2,1E0,1.383299E-1,2.7080587E-4,-2.0426465E-3,-5.279482E-4,1.2246469E-16,-3.8867717E-4,1.5708255E-2,4.9434757E1,-4.047725E-3,-4.566079E-4,-1.5637407E-3,2.9027887E-4,4.990616E-2,6.162168E-3,-1.8195806E-2,4.6759304E-2,2.6784793E-2,7.116897E-2,2.8931374E-2,6.813542E-2,7.259932E-5,5.382965E-2,-4.5546755E-2,-8.708498E-3,2.652706E-2,-1.5170664E-2,-6.1176743E-2,-9.388271E-3,-4.2355787E-2,4.7155045E-2,-1.6422845E-2,-6.9004014E-2,2.8726315E-2,-5.1083952E-2,2.1780746E-2,3.7993647E-2],"split_indices":[47,32,46,35,2,31,33,0,19,10,33,23,30,26,32,0,44,13,32,33,33,0,9,0,10,26,36,35,34,0,0,0,0,0,0,0,0,0,0,0,0,0,0,0,0,0,0,0,0,0,0,0,0],"split_type":[0,0,0,0,0,0,0,0,0,0,0,0,0,0,0,0,0,0,0,0,0,0,0,0,0,0,0,0,0,0,0,0,0,0,0,0,0,0,0,0,0,0,0,0,0,0,0,0,0,0,0,0,0],"sum_hessian":[9.4410004E2,2.1660686E2,7.274932E2,1.08152954E2,1.084539E2,1.2653656E2,6.0095667E2,1.7374381E0,1.0641552E2,5.788946E1,5.0564438E1,8.20275E1,4.450906E1,1.9332277E1,5.816243E2,1.0394116E2,2.4743538E0,2.4361153E0,5.5453346E1,3.0740747E1,1.982369E1,4.9701084E1,3.2326416E1,1.2322456E0,4.3276814E1,4.432996E0,1.4899282E1,1.167614E1,5.6994824E2,1.2353827E0,1.2389712E0,1.2231802E0,1.212935E0,3.8751318E0,5.1578217E1,8.29386E0,2.2446888E1,1.0777919E1,9.045772E0,2.6818405E1,2.2882679E1,1.3665686E1,1.866073E1,4.0788723E1,2.4880936E0,2.9562392E0,1.4767563E0,2.948313E0,1.195097E1,1.2404372E0,1.0435702E1,2.0543132E2,3.645169E2],"tree_param":{"num_deleted":"0","num_feature":"52","num_nodes":"53","size_leaf_vector":"1"}},{"base_weights":[5.6390476E-1,1.3263946E0,3.3783454E-1,1.5294558E0,1.115651E0,-3.7511042E-1,5.936018E-1,5.6945866E-1,1.5458983E0,9.415999E-1,1.3627217E0,3.6014333E-1,-5.544994E-1,-1.0870363E0,6.3216585E-1,4.412621E-2,-1.0081275E-4,7.799144E-2,3.1268053E-2,9.904062E-1,-1.7225282E-2,1.003906E-2,1.3987254E0,-3.7315488E-1,5.4745233E-1,-3.7430364E-1,-1.0520263E0,-9.3852645E-3,-1.239767E0,6.473746E-1,-7.4339527E-1,5.2562058E-2,-7.755574E-3,7.161277E-2,3.0204713E-2,5.189396E-2,-4.110645E-2,3.5381474E-2,-2.4255408E-2,-8.337779E-3,-3.168539E-2,-5.7813253E-2,3.2301772E-2,-6.8854675E-2,-6.1459783E-3,5.7046186E-2,2.9528175E-2,-7.126507E-2,4.717167E-3],"categories":[],"categories_nodes":[],"categories_segments":[],"categories_sizes":[],"default_left":[0,0,0,0,0,0,0,0,0,0,0,0,0,0,0,0,0,0,0,0,0,0,0,0,0,0,0,0,0,0,0,0,0,0,0,0,0,0,0,0,0,0,0,0,0,0,0,0,0],"id":6,"left_children":[1,3,5,7,9,11,13,15,17,19,21,23,25,27,29,-1,-1,-1,-1,31,-1,-1,33,35,37,39,41,-1,43,45,47,-1,-1,-1,-1,-1,-1,-1,-1,-1,-1,-1,-1,-1,-1,-1,-1,-1,-1],"loss_changes":[1.6150671E2,7.473755E0,1.3261165E2,8.016205E-1,3.4026337E0,2.5563843E1,3.5343613E1,6.0604525E-1,3.6045837E-1,4.5571404E0,1.5096436E0,5.468042E0,1.3500595E1,1.4653082E0,1.14301605E1,0E0,0E0,0E0,0E0,4.690464E0,0E0,0E0,2.3638916E-1,6.1696916E0,5.459009E0,6.103348E0,7.943012E0,0E0,1.4241371E0,1.3855194E1,3.6697836E0,0E0,0E0,0E0,0E0,0E0,0E0,0E0,0E0,0E0,0E0,0E0,0E0,0E0,0E0,0E0,0E0,0E0,0E0],"parents":[2147483647,0,0,1,1,2,2,3,3,4,4,5,5,6,6,7,7,8,8,9,9,10,10,11,11,12,12,13,13,14,14,19,19,22,22,23,23,24,24,25,25,26,26,28,28,29,29,30,30],"right_children":[2,4,6,8,10,12,14,16,18,20,22,24,26,28,30,-1,-1,-1,-1,32,-1,-1,34,36,38,40,42,-1,44,46,48,-1,-1,-1,-1,-1,-1,-1,-1,-1,-1,-1,-1,-1,-1,-1,-1,-1,-1],"split_conditions":[1E0,5.820296E-5,2E0,-9.6E1,5.8717665E-4,2E0,-8.518662E-4,5.761565E-4,8.2690424E-1,8.870309E1,-2.0988032E-3,4.6998975E-4,2.7037698E-3,1.2587698E-2,9.6E1,4.412621E-2,-1.0081275E-4,7.799144E-2,3.1268053E-2,5.832535E-4,-1.7225282E-2,1.003906E-2,2.1096389E-4,2.587049E1,6.2803435E-4,6.4E1,1.6288222E-3,-9.3852645E-3,1.95131E-2,-2.8949587E-5,-1.02504E-4,5.2562058E-2,-7.755574E-3,7.161277E-2,3.0204713E-2,5.189396E-2,-4.110645E-2,3.5381474E-2,-2.4255408E-2,-8.337779E-3,-3.168539E-2,-5.7813253E-2,3.2301772E-2,-6.8854675E-2,-6.1459783E-3,5.7046186E-2,2.9528175E-2,-7.126507E-2,4.717167E-3],"split_indices":[47,31,46,40,36,47,33,36,19,16,35,35,27,42,39,0,0,0,0,36,0,0,31,43,35,40,9,0,42,32,33,0,0,0,0,0,0,0,0,0,0,0,0,0,0,0,0,0,0],"split_type":[0,0,0,0,0,0,0,0,0,0,0,0,0,0,0,0,0,0,0,0,0,0,0,0,0,0,0,0,0,0,0,0,0,0,0,0,0,0,0,0,0,0,0,0,0,0,0,0,0],"sum_hessian":[9.385428E2,2.1351889E2,7.2502386E2,1.0555467E2,1.0796421E2,1.913035E2,5.337204E2,2.3775017E0,1.0317717E2,6.616485E1,4.1799366E1,3.732275E1,1.5398074E2,1.1362214E1,5.2235815E2,1.1843814E0,1.1931205E0,1.0095494E2,2.2222304E0,6.3967278E1,2.1975691E0,1.4539247E0,4.034544E1,7.391905E0,2.9930847E1,1.143261E2,3.9654636E1,1.9730737E0,9.38914E0,5.1716956E2,5.188638E0,6.0819633E1,3.1476421E0,3.794204E1,2.4034016E0,1.4676651E0,5.9242396E0,2.6183748E1,3.7470992E0,6.4423775E1,4.9902325E1,3.7661766E1,1.9928703E0,8.153567E0,1.2355727E0,5.141513E1,4.6575443E2,2.4737096E0,2.7149289E0],"tree_param":{"num_deleted":"0","num_feature":"52","num_nodes":"49","size_leaf_vector":"1"}},{"base_weights":[5.397102E-1,1.2822047E0,3.2214564E-1,1.4850446E0,1.0737007E0,-5.654996E-1,5.0971836E-1,5.5614483E-1,1.5011233E0,1.2543648E0,8.394243E-1,-2.9897285E-1,-1.0445042E0,-9.1926664E-1,5.582701E-1,-5.7384797E-4,4.3556064E-2,7.574639E-2,3.0266881E-2,1.2897862E0,2.9608995E-1,4.374641E-1,1.1203377E0,-2.1778975E-2,-6.3910127E-1,1.6113399E-2,-1.0903245E0,-1.4322183E-1,-1.1285522E0,-7.845131E-1,5.8717793E-1,1.6401231E-2,6.6333026E-2,-2.2099977E-2,4.513443E-2,-1.1640403E-2,4.433939E-2,5.9906643E-2,-1.719681E-2,1.3930055E-2,-2.7188692E-2,-3.9423656E-2,1.1607015E-2,-6.290364E-2,-3.2704677E-2,-3.958785E-2,4.7085177E-2,-1.3326836E-2,-6.523999E-2,-4.9759667E-2,2.4174698E-2,5.09134E-2,2.6625535E-2],"categories":[],"categories_nodes":[],"categories_segments":[],"categories_sizes":[],"default_left":[0,0,0,0,0,0,0,0,0,0,0,0,0,0,0,0,0,0,0,0,0,0,0,0,0,0,0,0,0,0,0,0,0,0,0,0,0,0,0,0,0,0,0,0,0,0,0,0,0,0,0,0,0],"id":7,"left_children":[1,3,5,7,9,11,13,15,17,19,21,23,25,27,29,-1,-1,-1,-1,31,33,35,37,39,41,-1,43,45,47,49,51,-1,-1,-1,-1,-1,-1,-1,-1,-1,-1,-1,-1,-1,-1,-1,-1,-1,-1,-1,-1,-1,-1],"loss_changes":[1.5033331E2,7.335144E0,1.2067334E2,7.2462463E-1,3.5065765E0,1.5851627E1,4.1962936E1,6.1163354E-1,3.4481812E-1,1.6139374E0,5.1473846E0,7.787658E0,3.1608849E0,3.0881977E0,2.2913254E1,0E0,0E0,0E0,0E0,1.5651932E0,1.9185274E0,6.8860292E0,3.686821E0,7.4624767E0,5.0138702E0,0E0,2.3701591E0,4.5418625E0,2.024435E0,3.8520174E0,1.2815369E1,0E0,0E0,0E0,0E0,0E0,0E0,0E0,0E0,0E0,0E0,0E0,0E0,0E0,0E0,0E0,0E0,0E0,0E0,0E0,0E0,0E0,0E0],"parents":[2147483647,0,0,1,1,2,2,3,3,4,4,5,5,6,6,7,7,8,8,9,9,10,10,11,11,12,12,13,13,14,14,19,19,20,20,21,21,22,22,23,23,24,24,26,26,27,27,28,28,29,29,30,30],"right_children":[2,4,6,8,10,12,14,16,18,20,22,24,26,28,30,-1,-1,-1,-1,32,34,36,38,40,42,-1,44,46,48,50,52,-1,-1,-1,-1,-1,-1,-1,-1,-1,-1,-1,-1,-1,-1,-1,-1,-1,-1,-1,-1,-1,-1],"split_conditions":[1E0,5.820296E-5,1E0,-9.6E1,4.3388373E-1,-1.6004451E-4,-8.518662E-4,3.413113E3,8.2690424E-1,6.489292E-1,1.8945684E-1,2.5881904E-1,3.2819834E3,-3.751319E-3,-1.0195954E-3,-5.7384797E-4,4.3556064E-2,7.574639E-2,3.0266881E-2,1.3229022E1,5.821547E-4,2.8692127E1,8.7682575E-1,5.8717665E-4,3.952301E1,1.6113399E-2,5.6E1,-4.047725E-3,-7.818315E-1,5.398314E-1,-2.8949587E-5,1.6401231E-2,6.6333026E-2,-2.2099977E-2,4.513443E-2,-1.1640403E-2,4.433939E-2,5.9906643E-2,-1.719681E-2,1.3930055E-2,-2.7188692E-2,-3.9423656E-2,1.1607015E-2,-6.290364E-2,-3.2704677E-2,-3.958785E-2,4.7085177E-2,-1.3326836E-2,-6.523999E-2,-4.9759667E-2,2.4174698E-2,5.09134E-2,2.6625535E-2],"split_indices":[47,31,46,40,2,31,33,4,19,13,13,1,30,26,32,0,0,0,0,10,32,43,19,35,43,0,39,26,2,13,32,0,0,0,0,0,0,0,0,0,0,0,0,0,0,0,0,0,0,0,0,0,0],"split_type":[0,0,0,0,0,0,0,0,0,0,0,0,0,0,0,0,0,0,0,0,0,0,0,0,0,0,0,0,0,0,0,0,0,0,0,0,0,0,0,0,0,0,0,0,0,0,0,0,0,0,0,0,0],"sum_hessian":[9.321799E2,2.1013776E2,7.220421E2,1.0341236E2,1.067254E2,1.2560939E2,5.9643274E2,2.3650875E0,1.0104727E2,5.7798985E1,4.8926414E1,8.174767E1,4.386172E1,1.900944E1,5.774233E2,1.1879091E0,1.1771784E0,9.8833046E1,2.2142308E0,5.5405067E1,2.3939188E0,2.1178825E1,2.774759E1,4.5627083E1,3.612059E1,1.2270427E0,4.2634678E1,4.3953886E0,1.4614052E1,1.1618087E1,5.658052E2,2.4112127E0,5.2993855E1,1.202321E0,1.1915977E0,8.693015E0,1.248581E1,2.652035E1,1.2272406E0,2.925733E1,1.6369751E1,3.091526E1,5.2053294E0,2.9432674E1,1.3202003E1,2.9200761E0,1.4753125E0,2.9072337E0,1.1706818E1,1.0147264E1,1.4708233E0,6.1692116E1,5.041131E2],"tree_param":{"num_deleted":"0","num_feature":"52","num_nodes":"53","size_leaf_vector":"1"}},{"base_weights":[5.1669735E-1,1.2416543E0,3.0709445E-1,1.4441783E0,1.033268E0,-3.4680986E-1,5.4195577E-1,1.8169004E-2,1.458849E0,8.682253E-1,1.2758584E0,3.179963E-1,-5.090645E-1,-9.87477E-1,5.7808876E-1,7.359933E-2,6.5918976E-1,9.158371E-1,-1.7901724E-2,2.1427903E-2,1.3106654E0,-3.974326E-1,4.8784843E-1,-3.3786893E-1,-9.888056E-1,8.041425E-3,-1.1507894E0,5.92692E-1,-7.305162E-1,4.7641665E-2,3.471562E-3,4.8662484E-2,-4.6172077E-3,2.016491E-2,6.755481E-2,5.02911E-2,-4.3630086E-2,6.5451406E-2,1.3347912E-2,1.1617481E-2,-2.1204222E-2,-5.536598E-2,2.3560481E-2,-2.321318E-2,-7.080636E-2,5.3220432E-2,2.695801E-2,1.0394454E-2,-6.515697E-2],"categories":[],"categories_nodes":[],"categories_segments":[],"categories_sizes":[],"default_left":[0,0,0,0,0,0,0,0,0,0,0,0,0,0,0,0,0,0,0,0,0,0,0,0,0,0,0,0,0,0,0,0,0,0,0,0,0,0,0,0,0,0,0,0,0,0,0,0,0],"id":8,"left_children":[1,3,5,7,9,11,13,-1,15,17,19,21,23,25,27,-1,29,31,-1,-1,33,35,37,39,41,-1,43,45,47,-1,-1,-1,-1,-1,-1,-1,-1,-1,-1,-1,-1,-1,-1,-1,-1,-1,-1,-1,-1],"loss_changes":[1.4042583E2,7.2649536E0,1.1078612E2,1.0985413E0,3.1276474E0,2.0755276E1,2.987326E1,0E0,9.083557E-2,4.186203E0,6.386337E-1,4.819957E0,1.2301041E1,2.549302E0,1.0343857E1,0E0,5.302148E-1,3.7882843E0,0E0,0E0,8.714752E-1,6.1153517E0,5.3124948E0,5.74732E0,7.432987E0,0E0,1.3754454E0,1.2391861E1,3.5872414E0,0E0,0E0,0E0,0E0,0E0,0E0,0E0,0E0,0E0,0E0,0E0,0E0,0E0,0E0,0E0,0E0,0E0,0E0,0E0,0E0],"parents":[2147483647,0,0,1,1,2,2,3,3,4,4,5,5,6,6,8,8,9,9,10,10,11,11,12,12,13,13,14,14,16,16,17,17,20,20,21,21,22,22,23,23,24,24,26,26,27,27,28,28],"right_children":[2,4,6,8,10,12,14,-1,16,18,20,22,24,26,28,-1,30,32,-1,-1,34,36,38,40,42,-1,44,46,48,-1,-1,-1,-1,-1,-1,-1,-1,-1,-1,-1,-1,-1,-1,-1,-1,-1,-1,-1,-1],"split_conditions":[1E0,2.7012045E-5,2E0,-2.7476903E-3,5.8717665E-4,2E0,-8.354352E-4,1.8169004E-2,8.2690424E-1,8.789389E1,2.4789787E-4,4.3667445E-4,2.7037698E-3,2.0358406E-1,9.6E1,7.359933E-2,2.1597887E-3,5.832535E-4,-1.7901724E-2,2.1427903E-2,4E0,2.587049E1,2.6266493E-3,-4.8E1,8.3315674E1,8.041425E-3,3.723249E1,-2.8949587E-5,2.729009E-3,4.7641665E-2,3.471562E-3,4.8662484E-2,-4.6172077E-3,2.016491E-2,6.755481E-2,5.02911E-2,-4.3630086E-2,6.5451406E-2,1.3347912E-2,1.1617481E-2,-2.1204222E-2,-5.536598E-2,2.3560481E-2,-2.321318E-2,-7.080636E-2,5.3220432E-2,2.695801E-2,1.0394454E-2,-6.515697E-2],"split_indices":[47,32,46,35,36,47,33,0,19,17,32,35,27,13,39,0,27,36,0,0,38,43,27,40,17,0,14,32,27,0,0,0,0,0,0,0,0,0,0,0,0,0,0,0,0,0,0,0,0],"split_type":[0,0,0,0,0,0,0,0,0,0,0,0,0,0,0,0,0,0,0,0,0,0,0,0,0,0,0,0,0,0,0,0,0,0,0,0,0,0,0,0,0,0,0,0,0,0,0,0,0],"sum_hessian":[9.2564874E2,2.0650003E2,7.191487E2,1.01715546E2,1.0478448E2,1.8991315E2,5.2923553E2,1.7072836E0,1.0000826E2,6.508433E1,3.9700146E1,3.706928E1,1.5284387E2,1.1607007E1,5.1762854E2,9.756459E1,2.4436743E0,6.289544E1,2.1888897E0,2.0918138E0,3.7608334E1,6.85513E0,3.021415E1,1.1390216E2,3.8941704E1,1.4471071E0,1.01599E1,5.12457E2,5.1716146E0,1.2203989E0,1.2232753E0,5.9539513E1,3.3559263E0,2.0724494E0,3.553588E1,1.4515859E0,5.4035444E0,5.3603616E0,2.4853786E1,1.47372E1,9.916496E1,3.624144E1,2.7002618E0,3.598633E0,6.561267E0,5.0303555E1,4.6215338E2,2.201229E0,2.9703853E0],"tree_param":{"num_deleted":"0","num_feature":"52","num_nodes":"49","size_leaf_vector":"1"}},{"base_weights":[4.9512407E-1,1.2036831E0,2.9310077E-1,1.408914E0,9.972132E-1,-3.3075535E-1,5.1724046E-1,5.0245404E-1,1.4252551E0,1.1784834E0,7.652004E-1,3.0553183E-1,-4.8616657E-1,-9.550211E-1,5.518229E-1,-2.4833023E-3,4.1307576E-2,7.1951546E-2,2.8437722E-2,1.2784476E0,7.276111E-1,1.0321596E0,3.4265167E-1,-3.7255403E-1,4.7978017E-1,-3.216948E-1,-9.517357E-1,7.798827E-3,-1.1150784E0,-7.853725E-1,5.6551594E-1,6.754075E-2,1.537723E-2,-1.8382467E-2,4.749253E-2,2.025645E-2,6.1898887E-2,4.4693943E-2,-9.465734E-3,-5.087641E-2,5.7402175E-2,3.24151E-2,-3.2131102E-2,-1.8655986E-2,2.7962783E-2,-5.34898E-2,2.3819895E-2,-2.2382008E-2,-6.880682E-2,2.6446918E-2,-6.338755E-2,5.5395376E-2,2.530304E-2],"categories":[],"categories_nodes":[],"categories_segments":[],"categories_sizes":[],"default_left":[0,0,0,0,0,0,0,0,0,0,0,0,0,0,0,0,0,0,0,0,0,0,0,0,0,0,0,0,0,0,0,0,0,0,0,0,0,0,0,0,0,0,0,0,0,0,0,0,0,0,0,0,0],"id":9,"left_children":[1,3,5,7,9,11,13,15,17,19,21,23,25,27,29,-1,-1,-1,-1,31,33,35,37,39,41,43,45,-1,47,49,51,-1,-1,-1,-1,-1,-1,-1,-1,-1,-1,-1,-1,-1,-1,-1,-1,-1,-1,-1,-1,-1,-1],"loss_changes":[1.3126996E2,7.2257996E0,1.00405106E2,7.6104736E-1,3.5123596E0,1.8944666E1,2.7396805E1,6.3267004E-1,3.3093262E-1,1.641983E0,5.160862E0,4.6599836E0,1.142112E1,2.3928194E0,9.897125E0,0E0,0E0,0E0,0E0,2.77388E0,3.4351087E0,3.3006344E0,6.158368E0,9.324545E0,6.206502E0,5.404093E0,7.1644516E0,0E0,1.3057661E0,4.2536907E0,1.5937881E1,0E0,0E0,0E0,0E0,0E0,0E0,0E0,0E0,0E0,0E0,0E0,0E0,0E0,0E0,0E0,0E0,0E0,0E0,0E0,0E0,0E0,0E0],"parents":[2147483647,0,0,1,1,2,2,3,3,4,4,5,5,6,6,7,7,8,8,9,9,10,10,11,11,12,12,13,13,14,14,19,19,20,20,21,21,22,22,23,23,24,24,25,25,26,26,28,28,29,29,30,30],"right_children":[2,4,6,8,10,12,14,16,18,20,22,24,26,28,30,-1,-1,-1,-1,32,34,36,38,40,42,44,46,-1,48,50,52,-1,-1,-1,-1,-1,-1,-1,-1,-1,-1,-1,-1,-1,-1,-1,-1,-1,-1,-1,-1,-1,-1],"split_conditions":[1E0,5.820296E-5,2E0,-9.6E1,4.3388373E-1,2E0,-8.354352E-4,-4.2424482E-1,8.2690424E-1,5.9583265E-4,-9.916014E-4,4E0,2.7037698E-3,2.0358406E-1,3.7253308E0,-2.4833023E-3,4.1307576E-2,7.1951546E-2,2.8437722E-2,3.8225923E3,-6.267621E-4,-2.0426465E-3,6.123234E-17,4.512719E-3,6.2803435E-4,3.9692423E0,6.0293794E-1,7.798827E-3,3.723249E1,-1.3397513E-3,-2.8949587E-5,6.754075E-2,1.537723E-2,-1.8382467E-2,4.749253E-2,2.025645E-2,6.1898887E-2,4.4693943E-2,-9.465734E-3,-5.087641E-2,5.7402175E-2,3.24151E-2,-3.2131102E-2,-1.8655986E-2,2.7962783E-2,-5.34898E-2,2.3819895E-2,-2.2382008E-2,-6.880682E-2,2.6446918E-2,-6.338755E-2,5.5395376E-2,2.530304E-2],"split_indices":[47,31,46,40,2,47,33,15,19,34,33,39,27,13,16,0,0,0,0,49,36,33,1,6,35,20,13,0,14,35,32,0,0,0,0,0,0,0,0,0,0,0,0,0,0,0,0,0,0,0,0,0,0],"split_type":[0,0,0,0,0,0,0,0,0,0,0,0,0,0,0,0,0,0,0,0,0,0,0,0,0,0,0,0,0,0,0,0,0,0,0,0,0,0,0,0,0,0,0,0,0,0,0,0,0,0,0,0,0],"sum_hessian":[9.185037E2,2.026807E2,7.15823E2,9.8724686E1,1.0395601E2,1.8907845E2,5.2674457E2,2.310424E0,9.641426E1,5.6069706E1,4.7886303E1,3.6926678E1,1.5215178E2,1.1478078E1,5.152665E2,1.1668068E0,1.1436173E0,9.421874E1,2.1955245E0,4.439194E1,1.1677767E1,2.846187E1,1.9424433E1,7.316503E0,2.9610172E1,1.136822E2,3.8469578E1,1.4485848E0,1.0029493E1,4.6516643E0,5.106148E2,4.09485E1,3.4434392E0,1.8594694E0,9.818297E0,7.7672153E0,2.0694656E1,9.205401E0,1.0219031E1,5.3697257E0,1.9467775E0,2.6112013E1,3.4981606E0,1.0795675E2,5.725446E0,3.5763973E1,2.7056057E0,3.5831895E0,6.446304E0,1.2229731E0,3.428691E0,4.870051E1,4.619143E2],"tree_param":{"num_deleted":"0","num_feature":"52","num_nodes":"53","size_leaf_vector":"1"}},{"base_weights":[4.7470284E-1,1.1685991E0,2.797536E-1,1.374863E0,9.614214E-1,-4.973435E-1,4.440557E-1,1.6194267E-2,1.3899246E0,7.984094E-1,1.2043341E0,-2.4980634E-1,-9.511406E-1,-8.237304E-1,4.864347E-1,7.015306E-2,6.240429E-1,1.0379186E0,5.038312E-1,1.8762074E-2,1.2395773E0,1.3384394E-2,-5.750891E-1,-6.8006516E-1,-1.2849681E0,-4.1434777E-1,-1.2732126E0,-7.518109E-1,5.132971E-1,2.279182E-3,4.6093136E-2,5.4998696E-2,-6.4309984E-3,8.043689E-4,4.2524017E-2,1.7659506E-2,6.401416E-2,9.707764E-3,-3.9941665E-2,-3.519354E-2,1.988186E-2,-4.929648E-2,-1.9472933E-3,-7.0198074E-2,-2.6144162E-2,-4.861198E-2,1.6000915E-2,-6.760929E-2,-2.024391E-2,-4.780979E-2,2.3533424E-2,4.603098E-2,2.3139842E-2],"categories":[],"categories_nodes":[],"categories_segments":[],"categories_sizes":[],"default_left":[0,0,0,0,0,0,0,0,0,0,0,0,0,0,0,0,0,0,0,0,0,0,0,0,0,0,0,0,0,0,0,0,0,0,0,0,0,0,0,0,0,0,0,0,0,0,0,0,0,0,0,0,0],"id":10,"left_children":[1,3,5,7,9,11,13,-1,15,17,19,21,23,25,27,-1,29,31,33,-1,35,37,39,41,43,45,47,49,51,-1,-1,-1,-1,-1,-1,-1,-1,-1,-1,-1,-1,-1,-1,-1,-1,-1,-1,-1,-1,-1,-1,-1,-1],"loss_changes":[1.2305734E2,7.2135315E0,9.130263E1,1.0973358E0,3.1159134E0,1.3801096E1,3.2067238E1,0E0,9.107971E-2,4.0339813E0,6.856804E-1,7.0467815E0,3.0855598E0,3.0488539E0,1.9377182E1,0E0,5.473747E-1,2.651966E0,5.212E0,0E0,8.952637E-1,6.971559E0,4.8892527E0,5.1131935E0,9.42009E-1,5.085788E0,5.4742813E-2,3.5805035E0,1.1081299E1,0E0,0E0,0E0,0E0,0E0,0E0,0E0,0E0,0E0,0E0,0E0,0E0,0E0,0E0,0E0,0E0,0E0,0E0,0E0,0E0,0E0,0E0,0E0,0E0],"parents":[2147483647,0,0,1,1,2,2,3,3,4,4,5,5,6,6,8,8,9,9,10,10,11,11,12,12,13,13,14,14,16,16,17,17,18,18,20,20,21,21,22,22,23,23,24,24,25,25,26,26,27,27,28,28],"right_children":[2,4,6,8,10,12,14,-1,16,18,20,22,24,26,28,-1,30,32,34,-1,36,38,40,42,44,46,48,50,52,-1,-1,-1,-1,-1,-1,-1,-1,-1,-1,-1,-1,-1,-1,-1,-1,-1,-1,-1,-1,-1,-1,-1,-1],"split_conditions":[1E0,2.7012045E-5,1E0,-2.7476903E-3,5.8717665E-4,-1.6004451E-4,-8.518662E-4,1.6194267E-2,8.2690424E-1,4.3388373E-1,2.4789787E-4,2.5881904E-1,3.683991E3,2.2132572E-4,-1.0195954E-3,7.015306E-2,2.6266481E1,3.2877985E-1,1.8945684E-1,1.8762074E-2,4E0,6.096342E-4,3.5518155E-1,5E-1,9.659258E-1,4.454023E0,7.917154E1,5.398314E-1,-2.8949587E-5,2.279182E-3,4.6093136E-2,5.4998696E-2,-6.4309984E-3,8.043689E-4,4.2524017E-2,1.7659506E-2,6.401416E-2,9.707764E-3,-3.9941665E-2,-3.519354E-2,1.988186E-2,-4.929648E-2,-1.9472933E-3,-7.0198074E-2,-2.6144162E-2,-4.861198E-2,1.6000915E-2,-6.760929E-2,-2.024391E-2,-4.780979E-2,2.3533424E-2,4.603098E-2,2.3139842E-2],"split_indices":[47,32,46,35,36,31,33,0,19,2,32,1,8,32,32,0,10,15,13,0,38,35,15,1,0,16,16,13,32,0,0,0,0,0,0,0,0,0,0,0,0,0,0,0,0,0,0,0,0,0,0,0,0],"split_type":[0,0,0,0,0,0,0,0,0,0,0,0,0,0,0,0,0,0,0,0,0,0,0,0,0,0,0,0,0,0,0,0,0,0,0,0,0,0,0,0,0,0,0,0,0,0,0,0,0,0,0,0,0],"sum_hessian":[9.1110266E2,1.9873543E2,7.1236725E2,9.6763054E1,1.01972374E2,1.2397545E2,5.883918E2,1.6850752E0,9.507798E1,6.3587425E1,3.8384945E1,8.122133E1,4.275412E1,1.8435913E1,5.699559E2,9.265675E1,2.4212224E0,3.3680122E1,2.99073E1,2.0400531E0,3.634489E1,4.542566E1,3.579567E1,2.527082E1,1.7483297E1,1.0654114E1,7.7817993E0,1.1529012E1,5.584269E2,1.2147857E0,1.2064366E0,3.2033146E1,1.6469785E0,1.2859739E1,1.7047562E1,2.020671E0,3.4324223E1,3.7778465E1,7.647192E0,3.1854734E1,3.9409337E0,1.6744534E1,8.526287E0,1.4393593E1,3.0897055E0,5.870458E0,4.7836556E0,6.6222973E0,1.1595019E0,1.0064211E1,1.4648008E0,5.9696865E1,4.9872998E2],"tree_param":{"num_deleted":"0","num_feature":"52","num_nodes":"53","size_leaf_vector":"1"}},{"base_weights":[4.5485526E-1,1.135658E0,2.666286E-1,1.3442494E0,9.28911E-1,-3.0667108E-1,4.7293353E-1,1.571597E-2,1.3593981E0,7.68913E-1,1.169258E0,2.6886567E-1,-4.4754136E-1,-8.986561E-1,5.0474465E-1,6.862826E-2,6.090764E-1,8.1654906E-1,-2.0134015E-2,1.8217968E-2,1.2040037E0,-3.7367147E-1,4.3509907E-1,-3.317903E-1,-1.0630767E0,8.486253E-3,-1.0570936E0,-4.199473E-1,5.246932E-1,1.7195294E-3,4.5493253E-2,4.3692745E-2,-7.621934E-3,1.211401E-2,6.2308457E-2,-4.9615193E-2,5.5197667E-2,2.9926522E-2,-3.1977296E-2,5.0515145E-2,-1.8293418E-2,-6.023212E-2,2.6114507E-2,-2.0230394E-2,-6.598802E-2,-4.143217E-2,4.4712037E-2,4.8600208E-2,2.3719342E-2],"categories":[],"categories_nodes":[],"categories_segments":[],"categories_sizes":[],"default_left":[0,0,0,0,0,0,0,0,0,0,0,0,0,0,0,0,0,0,0,0,0,0,0,0,0,0,0,0,0,0,0,0,0,0,0,0,0,0,0,0,0,0,0,0,0,0,0,0,0],"id":11,"left_children":[1,3,5,7,9,11,13,-1,15,17,19,21,23,25,27,-1,29,31,-1,-1,33,35,37,39,41,-1,43,45,47,-1,-1,-1,-1,-1,-1,-1,-1,-1,-1,-1,-1,-1,-1,-1,-1,-1,-1,-1,-1],"loss_changes":[1.1563669E2,7.189148E0,8.413106E1,1.057373E0,3.0041046E0,1.5404541E1,2.3254532E1,0E0,8.7509155E-2,3.8926048E0,6.420555E-1,4.1886845E0,1.0464527E1,2.2453747E0,9.653244E0,0E0,5.5813277E-1,3.5588303E0,0E0,0E0,1.1826859E0,8.669254E0,5.7233963E0,6.280818E0,5.920763E0,0E0,1.3113518E0,6.839485E0,1.0813095E1,0E0,0E0,0E0,0E0,0E0,0E0,0E0,0E0,0E0,0E0,0E0,0E0,0E0,0E0,0E0,0E0,0E0,0E0,0E0,0E0],"parents":[2147483647,0,0,1,1,2,2,3,3,4,4,5,5,6,6,8,8,9,9,10,10,11,11,12,12,13,13,14,14,16,16,17,17,20,20,21,21,22,22,23,23,24,24,26,26,27,27,28,28],"right_children":[2,4,6,8,10,12,14,-1,16,18,20,22,24,26,28,-1,30,32,-1,-1,34,36,38,40,42,-1,44,46,48,-1,-1,-1,-1,-1,-1,-1,-1,-1,-1,-1,-1,-1,-1,-1,-1,-1,-1,-1,-1],"split_conditions":[1E0,2.7012045E-5,2E0,-2.7476903E-3,5.8717665E-4,2E0,-8.354352E-4,1.571597E-2,8.2690424E-1,8.870309E1,1.3795291E1,4E0,2.8913273E-3,2.0358406E-1,1.7417456E1,6.862826E-2,9.301926E1,5.832535E-4,-2.0134015E-2,1.8217968E-2,4E0,4.512719E-3,6.2803435E-4,7.2058323E-3,6.291973E-4,8.486253E-3,3.723249E1,4E1,-2.8949587E-5,1.7195294E-3,4.5493253E-2,4.3692745E-2,-7.621934E-3,1.211401E-2,6.2308457E-2,-4.9615193E-2,5.5197667E-2,2.9926522E-2,-3.1977296E-2,5.0515145E-2,-1.8293418E-2,-6.023212E-2,2.6114507E-2,-2.0230394E-2,-6.598802E-2,-4.143217E-2,4.4712037E-2,4.8600208E-2,2.3719342E-2],"split_indices":[47,32,46,35,36,47,33,0,19,16,10,39,27,13,11,0,17,36,0,0,38,6,35,13,35,0,14,38,32,0,0,0,0,0,0,0,0,0,0,0,0,0,0,0,0,0,0,0,0],"split_type":[0,0,0,0,0,0,0,0,0,0,0,0,0,0,0,0,0,0,0,0,0,0,0,0,0,0,0,0,0,0,0,0,0,0,0,0,0,0,0,0,0,0,0,0,0,0,0,0,0],"sum_hessian":[9.037507E2,1.9465689E2,7.0909375E2,9.415749E1,1.004994E2,1.8751709E2,5.2157666E2,1.6801016E0,9.2477394E1,6.285575E1,3.7643646E1,3.669364E1,1.5082344E2,1.1204991E1,5.103717E2,9.006754E1,2.4098525E0,6.069114E1,2.1646118E0,2.0330782E0,3.5610565E1,7.2854657E0,2.9408176E1,1.2824591E2,2.2577534E1,1.4378686E0,9.767122E0,1.0354384E1,5.000173E2,1.2108127E0,1.1990398E0,5.7394985E1,3.296155E0,1.779059E0,3.383151E1,5.366949E0,1.9185164E0,2.5910732E1,3.4974449E0,2.4663696E0,1.2577954E2,2.0947197E1,1.630336E0,3.5324962E0,6.2346263E0,8.179977E0,2.174407E0,4.869675E1,4.5132056E2],"tree_param":{"num_deleted":"0","num_feature":"52","num_nodes":"49","size_leaf_vector":"1"}},{"base_weights":[4.362163E-1,1.1042086E0,2.5456846E-1,1.317319E0,8.978343E-1,-2.9262877E-1,4.5165145E-1,4.1604185E-1,1.3348005E0,1.0795164E0,6.7037123E-1,2.5647342E-1,-4.2714098E-1,-9.45036E-1,4.8053622E-1,3.8298808E-2,-6.275784E-3,6.7446075E-2,2.6092771E-2,1.1822255E0,6.2705743E-1,2.8041312E-1,9.5260835E-1,-3.8111946E-1,4.22404E-1,-2.7493644E-1,-8.700131E-1,-3.486912E-1,-6.425696E-2,2.1584271E-1,5.524702E-1,6.282333E-2,1.1316103E-2,-2.0696057E-2,4.254455E-2,-1.1243341E-2,4.4329643E-2,5.1578324E-2,-2.012757E-2,4.740507E-2,-3.9640028E-2,-4.2889826E-2,2.7033452E-2,-3.1670917E-2,-7.0111095E-3,-4.8584666E-2,3.304009E-2,-4.3141175E-2,3.0426651E-2,-7.201444E-2,1.5253852E-2,5.6295216E-2,2.4556069E-2],"categories":[],"categories_nodes":[],"categories_segments":[],"categories_sizes":[],"default_left":[0,0,0,0,0,0,0,0,0,0,0,0,0,0,0,0,0,0,0,0,0,0,0,0,0,0,0,0,0,0,0,0,0,0,0,0,0,0,0,0,0,0,0,0,0,0,0,0,0,0,0,0,0],"id":12,"left_children":[1,3,5,7,9,11,13,15,17,19,21,23,25,27,29,-1,-1,-1,-1,31,33,35,37,39,41,43,45,47,-1,49,51,-1,-1,-1,-1,-1,-1,-1,-1,-1,-1,-1,-1,-1,-1,-1,-1,-1,-1,-1,-1,-1,-1],"loss_changes":[1.0857704E2,7.2396545E0,7.633799E1,8.9533997E-1,3.4266586E0,1.3974834E1,2.1429008E1,7.034692E-1,3.27713E-1,1.7772064E0,4.931528E0,4.1349087E0,9.950029E0,1.7568302E0,9.592178E0,0E0,0E0,0E0,0E0,2.7700043E0,3.184587E0,6.7079315E0,3.3026505E0,5.2839074E0,5.0482154E0,5.4145555E0,6.588131E0,3.1435935E0,0E0,1.6789036E1,1.3533264E1,0E0,0E0,0E0,0E0,0E0,0E0,0E0,0E0,0E0,0E0,0E0,0E0,0E0,0E0,0E0,0E0,0E0,0E0,0E0,0E0,0E0,0E0],"parents":[2147483647,0,0,1,1,2,2,3,3,4,4,5,5,6,6,7,7,8,8,9,9,10,10,11,11,12,12,13,13,14,14,19,19,20,20,21,21,22,22,23,23,24,24,25,25,26,26,27,27,29,29,30,30],"right_children":[2,4,6,8,10,12,14,16,18,20,22,24,26,28,30,-1,-1,-1,-1,32,34,36,38,40,42,44,46,48,-1,50,52,-1,-1,-1,-1,-1,-1,-1,-1,-1,-1,-1,-1,-1,-1,-1,-1,-1,-1,-1,-1,-1,-1],"split_conditions":[1E0,5.820296E-5,2E0,-9.6E1,4.3388373E-1,2E0,-8.9359767E-4,5.761565E-4,8.2690424E-1,5.9583265E-4,1.8945684E-1,4.6998975E-4,2.7037698E-3,0E0,-1.02504E-4,3.8298808E-2,-6.275784E-3,6.7446075E-2,2.6092771E-2,3.8225923E3,-6.267621E-4,5.919681E-4,8.7682575E-1,2.587049E1,-6.4E1,1.0970416E-2,1.6288222E-3,1E2,-6.425696E-2,-1.02504E-4,-2.8949587E-5,6.282333E-2,1.1316103E-2,-2.0696057E-2,4.254455E-2,-1.1243341E-2,4.4329643E-2,5.1578324E-2,-2.012757E-2,4.740507E-2,-3.9640028E-2,-4.2889826E-2,2.7033452E-2,-3.1670917E-2,-7.0111095E-3,-4.8584666E-2,3.304009E-2,-4.3141175E-2,3.0426651E-2,-7.201444E-2,1.5253852E-2,5.6295216E-2,2.4556069E-2],"split_indices":[47,31,46,40,2,47,33,36,19,34,13,35,27,0,34,0,0,0,0,49,36,35,19,43,40,42,9,39,0,33,32,0,0,0,0,0,0,0,0,0,0,0,0,0,0,0,0,0,0,0,0,0,0],"split_type":[0,0,0,0,0,0,0,0,0,0,0,0,0,0,0,0,0,0,0,0,0,0,0,0,0,0,0,0,0,0,0,0,0,0,0,0,0,0,0,0,0,0,0,0,0,0,0,0,0,0,0,0,0],"sum_hessian":[8.9613794E2,1.9050294E2,7.05635E2,9.107357E1,9.9429375E1,1.8672147E2,5.189135E2,2.204732E0,8.886884E1,5.3194946E1,4.623443E1,3.656207E1,1.5015941E2,9.871513E0,5.09042E2,1.0875821E0,1.1171497E0,8.670349E1,2.1653488E0,4.20391E1,1.11558485E1,2.0249655E1,2.5984772E1,7.2823963E0,2.9279673E1,1.1295893E2,3.7200478E1,4.3207173E0,5.5507956E0,1.096321E2,3.994099E2,3.871763E1,3.321469E0,1.8239591E0,9.331889E0,1.1387047E1,8.862608E0,2.477977E1,1.2050015E0,1.4139822E0,5.868414E0,1.9472988E0,2.7332375E1,2.9843039E1,8.311589E1,3.5225937E1,1.9745408E0,2.8750994E0,1.4456179E0,4.8310175E0,1.0480108E2,3.6924076E1,3.6248584E2],"tree_param":{"num_deleted":"0","num_feature":"52","num_nodes":"53","size_leaf_vector":"1"}},{"base_weights":[4.184602E-1,1.0747631E0,2.4298605E-1,1.290226E0,8.671496E-1,-4.392223E-1,3.8737798E-1,1.396273E-2,1.3060331E0,7.0794606E-1,1.110131E0,-2.0802581E-1,-8.728808E-1,-6.906939E-1,4.2650235E-1,6.6051036E-2,6.0311383E-1,9.4597304E-1,4.2270467E-1,1.4653987E-2,1.1469704E0,-4.423E-1,1.5236694E-1,-1.185112E0,-5.8320284E-1,-8.9447016E-1,-2.9761743E-2,-5.4786456E-1,4.5882887E-1,-5.039103E-3,4.742855E-2,5.040256E-2,-7.975872E-3,2.931427E-2,-2.6058143E-2,1.5071297E-2,5.9386503E-2,-3.7836913E-2,-3.06185E-3,2.9872885E-2,-9.403496E-3,-8.4685115E-3,-6.501982E-2,-3.774195E-2,4.0428337E-2,-5.098207E-2,1.7316533E-2,2.7743885E-2,-3.7903633E-2,-4.0281232E-2,5.2977424E-2,5.5141058E-2,2.0496946E-2],"categories":[],"categories_nodes":[],"categories_segments":[],"categories_sizes":[],"default_left":[0,0,0,0,0,0,0,0,0,0,0,0,0,0,0,0,0,0,0,0,0,0,0,0,0,0,0,0,0,0,0,0,0,0,0,0,0,0,0,0,0,0,0,0,0,0,0,0,0,0,0,0,0],"id":13,"left_children":[1,3,5,7,9,11,13,-1,15,17,19,21,23,25,27,-1,29,31,33,-1,35,37,39,41,43,45,47,49,51,-1,-1,-1,-1,-1,-1,-1,-1,-1,-1,-1,-1,-1,-1,-1,-1,-1,-1,-1,-1,-1,-1,-1,-1],"loss_changes":[1.02146255E2,7.259796E0,6.9412285E1,1.0713806E0,3.0220337E0,1.21762295E1,2.4786606E1,0E0,1.3253784E-1,3.8253975E0,7.83741E-1,6.966113E0,3.1572037E0,2.7635813E0,1.7920235E1,0E0,9.908434E-1,2.4334316E0,4.9554625E0,0E0,8.571167E-1,5.9177446E0,5.1026406E0,2.064148E0,6.3530416E0,2.8071318E0,2.9398983E0,8.505755E0,1.66594E1,0E0,0E0,0E0,0E0,0E0,0E0,0E0,0E0,0E0,0E0,0E0,0E0,0E0,0E0,0E0,0E0,0E0,0E0,0E0,0E0,0E0,0E0,0E0,0E0],"parents":[2147483647,0,0,1,1,2,2,3,3,4,4,5,5,6,6,8,8,9,9,10,10,11,11,12,12,13,13,14,14,16,16,17,17,18,18,20,20,21,21,22,22,23,23,24,24,25,25,26,26,27,27,28,28],"right_children":[2,4,6,8,10,12,14,-1,16,18,20,22,24,26,28,-1,30,32,34,-1,36,38,40,42,44,46,48,50,52,-1,-1,-1,-1,-1,-1,-1,-1,-1,-1,-1,-1,-1,-1,-1,-1,-1,-1,-1,-1,-1,-1,-1,-1],"split_conditions":[1E0,2.7012045E-5,1E0,-2.7476903E-3,5.8717665E-4,-1.6004451E-4,-7.368673E-4,1.396273E-2,9.2527534E1,4.3388373E-1,2.4789787E-4,6.5030545E-2,0E0,1E2,-7.2232424E-4,6.6051036E-2,7.957701E1,3.2877985E-1,5.786477E-4,1.4653987E-2,4E0,1.2246469E-16,-3.8867717E-4,-1.357259E-4,9.046874E-3,9.2E1,1.2246469E-16,5.8572395E1,-1.8490017E-4,-5.039103E-3,4.742855E-2,5.040256E-2,-7.975872E-3,2.931427E-2,-2.6058143E-2,1.5071297E-2,5.9386503E-2,-3.7836913E-2,-3.06185E-3,2.9872885E-2,-9.403496E-3,-8.4685115E-3,-6.501982E-2,-3.774195E-2,4.0428337E-2,-5.098207E-2,1.7316533E-2,2.7743885E-2,-3.7903633E-2,-4.0281232E-2,5.2977424E-2,5.5141058E-2,2.0496946E-2],"split_indices":[47,32,46,35,36,31,33,0,17,2,32,23,2,39,32,0,16,15,36,0,38,0,9,31,18,40,0,16,32,0,0,0,0,0,0,0,0,0,0,0,0,0,0,0,0,0,0,0,0,0,0,0,0],"split_type":[0,0,0,0,0,0,0,0,0,0,0,0,0,0,0,0,0,0,0,0,0,0,0,0,0,0,0,0,0,0,0,0,0,0,0,0,0,0,0,0,0,0,0,0,0,0,0,0,0,0,0,0,0],"sum_hessian":[8.882301E2,1.8630249E2,7.019276E2,8.886408E1,9.74384E1,1.2225721E2,5.796704E2,1.6554204E0,8.720866E1,6.123215E1,3.620625E1,8.070867E1,4.1548534E1,1.9716923E1,5.599535E2,8.452704E1,2.681622E0,3.2115856E1,2.9116297E1,1.9484134E0,3.4257835E1,4.8775055E1,3.1933617E1,1.850821E1,2.3040325E1,1.4800378E1,4.916546E0,1.7468891E1,5.424846E2,1.1159834E0,1.5656387E0,3.0491755E1,1.624103E0,2.5138428E1,3.9778683E0,1.9615456E0,3.229629E1,2.6183556E1,2.2591501E1,1.3512394E1,1.8421223E1,2.1382012E0,1.6370007E1,2.0918278E1,2.1220489E0,1.3606046E1,1.1943313E0,2.8593671E0,2.057179E0,1.5484628E1,1.9842628E0,3.675679E1,5.057278E2],"tree_param":{"num_deleted":"0","num_feature":"52","num_nodes":"53","size_leaf_vector":"1"}},{"base_weights":[4.0143204E-1,1.0466675E0,2.3195417E-1,1.2669419E0,8.3933693E-1,-2.7032745E-1,4.1305074E-1,3.7187248E-1,1.2852032E0,-1.8117538E-2,8.6650825E-1,2.2586882E-1,-3.920755E-1,-8.990889E-1,4.397554E-1,-7.848595E-3,3.6540434E-2,6.50014E-2,2.427704E-2,1.0437288E0,6.507753E-1,-3.8335973E-1,3.8474002E-1,-2.852847E-1,-9.7987926E-1,-3.1935307E-1,-6.1796296E-2,2.3718812E-1,5.276833E-1,2.5107933E-2,5.7379246E-2,4.505016E-2,8.913245E-3,-4.8660986E-2,5.2530795E-2,2.7253313E-2,-3.2386508E-2,4.9667846E-2,-1.5915567E-2,-5.615249E-2,2.7227048E-2,-4.068021E-2,2.8556516E-2,2.6879737E-2,-3.7863075E-3,5.688715E-2,2.3554944E-2],"categories":[],"categories_nodes":[],"categories_segments":[],"categories_sizes":[],"default_left":[0,0,0,0,0,0,0,0,0,0,0,0,0,0,0,0,0,0,0,0,0,0,0,0,0,0,0,0,0,0,0,0,0,0,0,0,0,0,0,0,0,0,0,0,0,0,0],"id":14,"left_children":[1,3,5,7,9,11,13,15,17,-1,19,21,23,25,27,-1,-1,-1,-1,29,31,33,35,37,39,41,-1,43,45,-1,-1,-1,-1,-1,-1,-1,-1,-1,-1,-1,-1,-1,-1,-1,-1,-1,-1],"loss_changes":[9.614984E1,7.2978973E0,6.3729935E1,9.409485E-1,3.4901428E0,1.1321746E1,1.842189E1,7.1128714E-1,3.7245178E-1,0E0,2.9688644E0,3.754798E0,9.11595E0,1.6732302E0,8.867088E0,0E0,0E0,0E0,0E0,2.277008E0,5.241518E0,7.9665823E0,5.3289733E0,5.7247066E0,5.544338E0,2.7709637E0,0E0,1.4576119E1,1.1588509E1,0E0,0E0,0E0,0E0,0E0,0E0,0E0,0E0,0E0,0E0,0E0,0E0,0E0,0E0,0E0,0E0,0E0,0E0],"parents":[2147483647,0,0,1,1,2,2,3,3,4,4,5,5,6,6,7,7,8,8,10,10,11,11,12,12,13,13,14,14,19,19,20,20,21,21,22,22,23,23,24,24,25,25,27,27,28,28],"right_children":[2,4,6,8,10,12,14,16,18,-1,20,22,24,26,28,-1,-1,-1,-1,30,32,34,36,38,40,42,-1,44,46,-1,-1,-1,-1,-1,-1,-1,-1,-1,-1,-1,-1,-1,-1,-1,-1,-1,-1],"split_conditions":[1E0,5.820296E-5,2E0,-9.6E1,2.7644094E-3,2E0,-8.9359767E-4,3.413113E3,8.2690424E-1,-1.8117538E-2,4.3388373E-1,4E0,2.8913273E-3,0E0,2.9027887E-4,-7.848595E-3,3.6540434E-2,6.50014E-2,2.427704E-2,-6.267621E-4,-8.9359767E-4,4.512719E-3,6.2803435E-4,7.2058323E-3,6.291973E-4,1E2,-6.1796296E-2,3E0,-1.02504E-4,2.5107933E-2,5.7379246E-2,4.505016E-2,8.913245E-3,-4.8660986E-2,5.2530795E-2,2.7253313E-2,-3.2386508E-2,4.9667846E-2,-1.5915567E-2,-5.615249E-2,2.7227048E-2,-4.068021E-2,2.8556516E-2,2.6879737E-2,-3.7863075E-3,5.688715E-2,2.3554944E-2],"split_indices":[47,31,46,40,18,47,33,4,19,0,2,39,27,0,34,0,0,0,0,36,33,6,35,13,35,39,0,47,32,0,0,0,0,0,0,0,0,0,0,0,0,0,0,0,0,0,0],"split_type":[0,0,0,0,0,0,0,0,0,0,0,0,0,0,0,0,0,0,0,0,0,0,0,0,0,0,0,0,0,0,0,0,0,0,0,0,0,0,0,0,0,0,0,0,0,0,0],"sum_hessian":[8.8048004E2,1.8208208E2,6.9839795E2,8.580717E1,9.627492E1,1.8494627E2,5.134517E2,2.1427999E0,8.366436E1,1.8559783E0,9.4418945E1,3.6269817E1,1.4867645E2,9.589736E0,5.0386197E2,1.0938432E0,1.0489568E0,8.152723E1,2.1371372E0,4.9729233E1,4.468971E1,7.2096643E0,2.9060152E1,1.2707509E2,2.1601366E1,4.240108E0,5.349628E0,1.5362953E2,3.5023242E2,8.9409075E0,4.0788326E1,2.8624275E1,1.6065434E1,5.3360257E0,1.8736386E0,2.556274E1,3.4974117E0,2.4674923E0,1.246076E2,1.9987476E1,1.6138895E0,2.7822118E0,1.457896E0,7.801494E1,7.5614586E1,2.8105762E1,3.2212668E2],"tree_param":{"num_deleted":"0","num_feature":"52","num_nodes":"47","size_leaf_vector":"1"}},{"base_weights":[3.8524982E-1,1.0197208E0,2.2158246E-1,1.2436047E0,8.104771E-1,-2.5801954E-1,3.946507E-1,1.2246364E-2,1.2602677E0,6.5231425E-1,1.0560979E0,1.1757713E-1,-4.0709037E-1,-9.209977E-1,4.1969422E-1,6.37918E-2,5.6820107E-1,7.0314527E-1,-4.689192E-1,1.24054905E-2,1.0939682E0,-1.4708098E-2,8.4834975E-1,-2.620847E-1,-8.850261E-1,-1.2404828E0,2.093982E-2,9.3239117E-1,3.6662054E-1,-5.9478185E-3,4.5771476E-2,4.149599E-2,6.083849E-3,-5.515447E-2,1.8731898E-2,1.3014509E-2,5.6786444E-2,1.5676547E-2,-2.0635204E-2,-1.4257217E-2,6.505933E-2,-1.4926433E-2,4.8487473E-2,-5.0745662E-2,1.3867495E-2,-1.1834586E-2,-7.080592E-2,-2.5513476E-2,5.2392025E-2,1.9041866E-2,-5.5955876E-2],"categories":[],"categories_nodes":[],"categories_segments":[],"categories_sizes":[],"default_left":[0,0,0,0,0,0,0,0,0,0,0,0,0,0,0,0,0,0,0,0,0,0,0,0,0,0,0,0,0,0,0,0,0,0,0,0,0,0,0,0,0,0,0,0,0,0,0,0,0,0,0],"id":15,"left_children":[1,3,5,7,9,11,13,-1,15,17,19,21,23,25,27,-1,29,31,33,-1,35,37,39,41,43,45,-1,47,49,-1,-1,-1,-1,-1,-1,-1,-1,-1,-1,-1,-1,-1,-1,-1,-1,-1,-1,-1,-1,-1,-1],"loss_changes":[9.0497925E1,7.371887E0,5.7855263E1,1.0982361E0,3.0146217E0,1.041213E1,1.7245766E1,0E0,1.6842651E-1,3.7839031E0,8.217735E-1,5.171726E0,8.967245E0,4.744767E0,1.3340073E1,0E0,9.743327E-1,4.202402E0,2.140299E0,0E0,8.8230896E-1,6.1612325E0,4.5785737E0,4.925164E0,4.8829117E0,1.1145172E0,0E0,8.282757E0,1.00853615E1,0E0,0E0,0E0,0E0,0E0,0E0,0E0,0E0,0E0,0E0,0E0,0E0,0E0,0E0,0E0,0E0,0E0,0E0,0E0,0E0,0E0,0E0],"parents":[2147483647,0,0,1,1,2,2,3,3,4,4,5,5,6,6,8,8,9,9,10,10,11,11,12,12,13,13,14,14,16,16,17,17,18,18,20,20,21,21,22,22,23,23,24,24,25,25,27,27,28,28],"right_children":[2,4,6,8,10,12,14,-1,16,18,20,22,24,26,28,-1,30,32,34,-1,36,38,40,42,44,46,-1,48,50,-1,-1,-1,-1,-1,-1,-1,-1,-1,-1,-1,-1,-1,-1,-1,-1,-1,-1,-1,-1,-1,-1],"split_conditions":[1E0,2.7012045E-5,2E0,-2.7476903E-3,5.8717665E-4,-7.368673E-4,4.454023E0,1.2246364E-2,9.2527534E1,1.4012297E1,2.4789787E-4,3.096754E-1,2.6965477E-3,5.8789254E-4,-2.8949587E-5,6.37918E-2,7.957701E1,9.749279E-1,4.106381E1,1.24054905E-2,4E0,2.9712853E0,5.7160767E-4,6.457368E-4,5.84755E-1,-1.9332693E-3,2.093982E-2,-9.249114E-4,9.6E1,-5.9478185E-3,4.5771476E-2,4.149599E-2,6.083849E-3,-5.515447E-2,1.8731898E-2,1.3014509E-2,5.6786444E-2,1.5676547E-2,-2.0635204E-2,-1.4257217E-2,6.505933E-2,-1.4926433E-2,4.8487473E-2,-5.0745662E-2,1.3867495E-2,-1.1834586E-2,-7.080592E-2,-2.5513476E-2,5.2392025E-2,1.9041866E-2,-5.5955876E-2],"split_indices":[47,32,46,35,36,34,16,0,17,41,32,15,27,33,32,0,16,2,11,0,38,41,32,33,13,35,0,32,39,0,0,0,0,0,0,0,0,0,0,0,0,0,0,0,0,0,0,0,0,0,0],"split_type":[0,0,0,0,0,0,0,0,0,0,0,0,0,0,0,0,0,0,0,0,0,0,0,0,0,0,0,0,0,0,0,0,0,0,0,0,0,0,0,0,0,0,0,0,0,0,0,0,0,0,0],"sum_hessian":[8.7267065E2,1.7787852E2,6.947921E2,8.354488E1,9.433363E1,1.8410753E2,5.1068463E2,1.62872E0,8.191617E1,5.9606762E1,3.472687E1,5.2369465E1,1.3173805E2,8.871077E0,5.0181354E2,7.928903E1,2.6271348E0,5.7378403E1,2.228361E0,1.8928655E0,3.2834003E1,4.5172215E1,7.1972485E0,1.0226057E2,2.9477491E1,7.2228518E0,1.648225E0,4.5519814E1,4.5629373E2,1.1025751E0,1.5245597E0,4.6756943E1,1.0621459E1,1.0964253E0,1.1319356E0,1.9112949E0,3.092271E1,2.4871874E1,2.0300343E1,2.1602502E0,5.0369983E0,1.00058E2,2.2025714E0,2.6628778E1,2.8487122E0,1.4251987E0,5.797653E0,3.119429E0,4.2400383E1,4.5270554E2,3.5881948E0],"tree_param":{"num_deleted":"0","num_feature":"52","num_nodes":"51","size_leaf_vector":"1"}},{"base_weights":[3.696475E-1,9.9382013E-1,2.1158515E-1,1.2223232E0,7.837971E-1,-2.4598256E-1,3.7692454E-1,1.1889467E-2,1.2392809E0,6.2769336E-1,1.0288877E0,2.10578E-1,-3.5844237E-1,-8.608743E-1,4.017639E-1,6.270126E-2,5.2191085E-1,6.7767274E-1,-4.5480552E-1,1.2039335E-2,1.0665107E0,-4.330016E-2,2.9473773E-1,-2.57464E-1,-9.29127E-1,-3.0137724E-1,-5.965388E-2,1.5628539E-1,4.690526E-1,-1.3237676E-3,4.175348E-2,4.0086817E-2,5.8157756E-3,-5.361868E-2,1.8466044E-2,1.2630294E-2,5.5404145E-2,2.2763321E-3,4.3625906E-2,4.8209306E-2,-1.4470045E-2,-5.367387E-2,2.7535886E-2,-3.9530095E-2,2.8213903E-2,-6.878878E-2,1.1994796E-2,5.6569394E-2,2.106757E-2],"categories":[],"categories_nodes":[],"categories_segments":[],"categories_sizes":[],"default_left":[0,0,0,0,0,0,0,0,0,0,0,0,0,0,0,0,0,0,0,0,0,0,0,0,0,0,0,0,0,0,0,0,0,0,0,0,0,0,0,0,0,0,0,0,0,0,0,0,0],"id":16,"left_children":[1,3,5,7,9,11,13,-1,15,17,19,21,23,25,27,-1,29,31,33,-1,35,-1,37,39,41,43,-1,45,47,-1,-1,-1,-1,-1,-1,-1,-1,-1,-1,-1,-1,-1,-1,-1,-1,-1,-1,-1,-1],"loss_changes":[8.521739E1,7.4257812E0,5.246028E1,1.0723419E0,2.9435616E0,9.5401945E0,1.5991402E1,0E0,1.9438934E-1,3.5477333E0,7.79171E-1,3.6132178E0,8.305389E0,1.5602179E0,8.17794E0,0E0,5.9383553E-1,3.9207783E0,2.0455458E0,0E0,8.385582E-1,0E0,5.0172806E0,5.248334E0,5.271183E0,2.6423838E0,0E0,1.428861E1,1.1894432E1,0E0,0E0,0E0,0E0,0E0,0E0,0E0,0E0,0E0,0E0,0E0,0E0,0E0,0E0,0E0,0E0,0E0,0E0,0E0,0E0],"parents":[2147483647,0,0,1,1,2,2,3,3,4,4,5,5,6,6,8,8,9,9,10,10,11,11,12,12,13,13,14,14,16,16,17,17,18,18,20,20,22,22,23,23,24,24,25,25,27,27,28,28],"right_children":[2,4,6,8,10,12,14,-1,16,18,20,22,24,26,28,-1,30,32,34,-1,36,-1,38,40,42,44,-1,46,48,-1,-1,-1,-1,-1,-1,-1,-1,-1,-1,-1,-1,-1,-1,-1,-1,-1,-1,-1,-1],"split_conditions":[1E0,2.7012045E-5,2E0,-2.7476903E-3,5.8717665E-4,2E0,-8.9359767E-4,1.1889467E-2,8.2690424E-1,1.4012297E1,2.4789787E-4,-6.4E1,2.8913273E-3,0E0,-1.02504E-4,6.270126E-2,2.6266481E1,9.749279E-1,2.0276192E-4,1.2039335E-2,4E0,-4.330016E-2,1.5215818E-2,7.2058323E-3,6.291973E-4,1E2,-5.965388E-2,-1.02504E-4,-7.925905E-5,-1.3237676E-3,4.175348E-2,4.0086817E-2,5.8157756E-3,-5.361868E-2,1.8466044E-2,1.2630294E-2,5.5404145E-2,2.2763321E-3,4.3625906E-2,4.8209306E-2,-1.4470045E-2,-5.367387E-2,2.7535886E-2,-3.9530095E-2,2.8213903E-2,-6.878878E-2,1.1994796E-2,5.6569394E-2,2.106757E-2],"split_indices":[47,32,46,35,36,47,33,0,19,41,32,40,27,0,34,0,10,2,31,0,38,0,42,13,35,39,0,33,31,0,0,0,0,0,0,0,0,0,0,0,0,0,0,0,0,0,0,0,0],"split_type":[0,0,0,0,0,0,0,0,0,0,0,0,0,0,0,0,0,0,0,0,0,0,0,0,0,0,0,0,0,0,0,0,0,0,0,0,0,0,0,0,0,0,0,0,0,0,0,0,0],"sum_hessian":[8.6489526E2,1.7369666E2,6.911986E2,8.0880035E1,9.281663E1,1.8333667E2,5.078619E2,1.6238731E0,7.9256165E1,5.8877365E1,3.393926E1,3.6061783E1,1.4727489E2,9.328815E0,4.9853308E2,7.692698E1,2.3291829E0,5.6636414E1,2.2409515E0,1.8835635E0,3.2055695E1,1.9410933E0,3.412069E1,1.2636644E2,2.0908445E1,4.185984E0,5.1428313E0,1.0796923E2,3.9056387E2,1.179378E0,1.1498047E0,4.6034317E1,1.0602098E1,1.1088203E0,1.1321313E0,1.9016346E0,3.015406E1,2.459224E1,9.528449E0,2.4757013E0,1.2389074E2,1.9300402E1,1.6080436E0,2.7298896E0,1.4560946E0,4.7876062E0,1.03181625E2,2.4712378E1,3.658515E2],"tree_param":{"num_deleted":"0","num_feature":"52","num_nodes":"49","size_leaf_vector":"1"}},{"base_weights":[3.5467443E-1,9.6904546E-1,2.0201324E-1,1.2036895E0,7.583913E-1,-3.7089628E-1,3.2337338E-1,1.4875591E-2,1.2237307E0,-2.0798137E-2,7.864954E-1,-1.564738E-1,-7.8628397E-1,-6.095199E-1,3.5646933E-1,6.199087E-2,2.1942308E-2,9.675669E-1,5.71833E-1,-3.8329458E-1,1.893164E-1,-4.9155012E-1,-1.1090151E0,-8.144152E-1,3.2222196E-2,-5.2054197E-1,3.8568988E-1,2.1142812E-2,5.378151E-2,4.1247215E-2,5.314314E-3,-3.440449E-2,-9.538363E-4,3.0695781E-2,-6.9405474E-3,-5.4582756E-2,1.1464124E-2,-5.9368934E-2,1.3669468E-3,-4.6935227E-2,1.7464174E-2,2.7852116E-2,-3.3276E-2,-3.7735183E-2,4.9825203E-2,5.2299213E-2,1.7100468E-2],"categories":[],"categories_nodes":[],"categories_segments":[],"categories_sizes":[],"default_left":[0,0,0,0,0,0,0,0,0,0,0,0,0,0,0,0,0,0,0,0,0,0,0,0,0,0,0,0,0,0,0,0,0,0,0,0,0,0,0,0,0,0,0,0,0,0,0],"id":17,"left_children":[1,3,5,7,9,11,13,-1,15,-1,17,19,21,23,25,-1,-1,27,29,31,33,35,37,39,41,43,45,-1,-1,-1,-1,-1,-1,-1,-1,-1,-1,-1,-1,-1,-1,-1,-1,-1,-1,-1,-1],"loss_changes":[8.029396E1,7.516693E0,4.8000313E1,1.0701294E0,3.3822365E0,1.0640244E1,1.7779041E1,0E0,4.2742157E-1,0E0,2.9740639E0,6.4216347E0,3.3446102E0,2.6372218E0,1.4294098E1,0E0,0E0,2.3577118E0,5.0933113E0,5.4502907E0,4.6459246E0,1.0272955E1,1.6997585E0,2.5103273E0,2.482725E0,7.2024217E0,1.5008926E1,0E0,0E0,0E0,0E0,0E0,0E0,0E0,0E0,0E0,0E0,0E0,0E0,0E0,0E0,0E0,0E0,0E0,0E0,0E0,0E0],"parents":[2147483647,0,0,1,1,2,2,3,3,4,4,5,5,6,6,8,8,10,10,11,11,12,12,13,13,14,14,17,17,18,18,19,19,20,20,21,21,22,22,23,23,24,24,25,25,26,26],"right_children":[2,4,6,8,10,12,14,-1,16,-1,18,20,22,24,26,-1,-1,28,30,32,34,36,38,40,42,44,46,-1,-1,-1,-1,-1,-1,-1,-1,-1,-1,-1,-1,-1,-1,-1,-1,-1,-1,-1,-1],"split_conditions":[1E0,5.820296E-5,1E0,-9.6E1,2.7644094E-3,-1.6004451E-4,-7.368673E-4,1.4875591E-2,8.2690424E-1,-2.0798137E-2,4.3388373E-1,6.5030545E-2,-5.082027E-4,1E2,-7.2232424E-4,6.199087E-2,2.1942308E-2,-6.267621E-4,-8.9359767E-4,1.2246469E-16,-3.8867717E-4,-1.0721011E-3,6.291973E-4,9.2E1,1.2246469E-16,5.8572395E1,-8.774658E-5,2.1142812E-2,5.378151E-2,4.1247215E-2,5.314314E-3,-3.440449E-2,-9.538363E-4,3.0695781E-2,-6.9405474E-3,-5.4582756E-2,1.1464124E-2,-5.9368934E-2,1.3669468E-3,-4.6935227E-2,1.7464174E-2,2.7852116E-2,-3.3276E-2,-3.7735183E-2,4.9825203E-2,5.2299213E-2,1.7100468E-2],"split_indices":[47,31,46,40,18,31,33,0,19,0,2,23,33,39,32,0,0,36,33,0,9,33,33,40,0,16,31,0,0,0,0,0,0,0,0,0,0,0,0,0,0,0,0,0,0,0,0],"split_type":[0,0,0,0,0,0,0,0,0,0,0,0,0,0,0,0,0,0,0,0,0,0,0,0,0,0,0,0,0,0,0,0,0,0,0,0,0,0,0,0,0,0,0,0,0,0,0],"sum_hessian":[8.5718494E2,1.6953981E2,6.8764514E2,7.7972984E1,9.1566826E1,1.1984273E2,5.678024E2,2.029998E0,7.594299E1,1.8175579E0,8.974927E1,7.994958E1,3.989315E1,1.8856874E1,5.4894556E2,7.384977E1,2.093216E0,4.6781147E1,4.2968124E1,4.8214714E1,3.1734861E1,2.2169746E1,1.7723406E1,1.4089357E1,4.767518E0,1.7158054E1,5.317875E2,8.557695E0,3.8223454E1,2.7334658E1,1.5633466E1,2.5764502E1,2.2450212E1,1.3454139E1,1.8280724E1,1.1817252E1,1.0352493E1,1.653803E1,1.1853735E0,1.2904438E1,1.1849186E0,2.8360095E0,1.9315087E0,1.52991E1,1.8589547E0,3.1572788E1,5.002147E2],"tree_param":{"num_deleted":"0","num_feature":"52","num_nodes":"47","size_leaf_vector":"1"}},{"base_weights":[3.402486E-1,9.451533E-1,1.9280414E-1,1.1840285E0,7.329537E-1,-2.269308E-1,3.4468898E-1,1.0221761E-2,1.2021259E0,5.775118E-1,9.8177236E-1,1.043493E-1,-3.5941565E-1,-8.6940455E-1,3.6750782E-1,6.0939915E-2,5.2113795E-1,6.268759E-1,-2.5486244E-2,9.963739E-3,1.0207123E0,-2.0190118E-2,7.962898E-1,-2.2483103E-1,-8.189047E-1,-1.1837478E0,2.0464897E-2,8.665587E-1,3.1760776E-1,4.3877494E-2,-7.871338E-3,3.51099E-2,-7.7526146E-3,1.8289885E-2,5.4119702E-2,1.4478984E-2,-1.976215E-2,-1.5142733E-2,6.221295E-2,-1.3443257E-2,3.7064552E-2,-4.741457E-2,1.4295146E-2,-1.022044E-2,-6.8150274E-2,-2.424099E-2,4.8996583E-2,1.6536105E-2,-5.3478897E-2],"categories":[],"categories_nodes":[],"categories_segments":[],"categories_sizes":[],"default_left":[0,0,0,0,0,0,0,0,0,0,0,0,0,0,0,0,0,0,0,0,0,0,0,0,0,0,0,0,0,0,0,0,0,0,0,0,0,0,0,0,0,0,0,0,0,0,0,0,0],"id":18,"left_children":[1,3,5,7,9,11,13,-1,15,17,19,21,23,25,27,-1,29,31,-1,-1,33,35,37,39,41,43,-1,45,47,-1,-1,-1,-1,-1,-1,-1,-1,-1,-1,-1,-1,-1,-1,-1,-1,-1,-1,-1,-1],"loss_changes":[7.568202E1,7.568985E0,4.3757538E1,1.113533E0,2.943615E0,8.054121E0,1.4268494E1,0E0,2.1725464E-1,3.4482536E0,8.1651306E-1,4.57935E0,7.89839E0,4.3375096E0,1.2049385E1,0E0,9.945784E-1,3.41955E0,0E0,0E0,8.823242E-1,5.4415774E0,4.3660936E0,4.558573E0,4.4496174E0,1.1172543E0,0E0,7.2790184E0,8.567467E0,0E0,0E0,0E0,0E0,0E0,0E0,0E0,0E0,0E0,0E0,0E0,0E0,0E0,0E0,0E0,0E0,0E0,0E0,0E0,0E0],"parents":[2147483647,0,0,1,1,2,2,3,3,4,4,5,5,6,6,8,8,9,9,10,10,11,11,12,12,13,13,14,14,16,16,17,17,20,20,21,21,22,22,23,23,24,24,25,25,27,27,28,28],"right_children":[2,4,6,8,10,12,14,-1,16,18,20,22,24,26,28,-1,30,32,-1,-1,34,36,38,40,42,44,-1,46,48,-1,-1,-1,-1,-1,-1,-1,-1,-1,-1,-1,-1,-1,-1,-1,-1,-1,-1,-1,-1],"split_conditions":[1E0,2.7012045E-5,2E0,-2.7476903E-3,5.8717665E-4,-7.368673E-4,4.454023E0,1.0221761E-2,9.2527534E1,8.870309E1,2.4789787E-4,3.096754E-1,2.6965477E-3,5.8789254E-4,-2.8949587E-5,6.0939915E-2,2.1308567E1,5.807338E-4,-2.5486244E-2,9.963739E-3,3.4515562E-3,2.9712853E0,5.7160767E-4,3.9692423E0,5.84755E-1,-1.9332693E-3,2.0464897E-2,-9.249114E-4,9.6E1,4.3877494E-2,-7.871338E-3,3.51099E-2,-7.7526146E-3,1.8289885E-2,5.4119702E-2,1.4478984E-2,-1.976215E-2,-1.5142733E-2,6.221295E-2,-1.3443257E-2,3.7064552E-2,-4.741457E-2,1.4295146E-2,-1.022044E-2,-6.8150274E-2,-2.424099E-2,4.8996583E-2,1.6536105E-2,-5.3478897E-2],"split_indices":[47,32,46,35,36,34,16,0,17,16,32,15,27,33,32,0,12,36,0,0,18,41,32,20,13,35,0,32,39,0,0,0,0,0,0,0,0,0,0,0,0,0,0,0,0,0,0,0,0],"split_type":[0,0,0,0,0,0,0,0,0,0,0,0,0,0,0,0,0,0,0,0,0,0,0,0,0,0,0,0,0,0,0,0,0,0,0,0,0,0,0,0,0,0,0,0,0,0,0,0,0],"sum_hessian":[8.4959296E2,1.6544191E2,6.8415106E2,7.5674515E1,8.9767395E1,1.8165419E2,5.024969E2,1.5957273E0,7.407879E1,5.7295044E1,3.2472347E1,5.1954258E1,1.2969994E2,8.585745E0,4.9391113E2,7.153761E1,2.5411763E0,5.5211678E1,2.0833678E0,1.8293326E0,3.0643013E1,4.4852303E1,7.101954E0,1.0146893E2,2.8231003E1,6.9511933E0,1.6345518E0,4.3409225E1,4.5050192E2,1.4738181E0,1.0673583E0,5.045352E1,4.7581563E0,3.23417E0,2.7408842E1,2.4688812E1,2.0163492E1,2.1501794E0,4.9517746E0,9.773601E1,3.7329237E0,2.5398222E1,2.8327801E0,1.4066347E0,5.544559E0,3.1063187E0,4.0302906E1,4.4703726E2,3.4646633E0],"tree_param":{"num_deleted":"0","num_feature":"52","num_nodes":"49","size_leaf_vector":"1"}},{"base_weights":[3.2648572E-1,9.2205524E-1,1.8409394E-1,1.1672353E0,7.093847E-1,-3.3983156E-1,2.9494494E-1,1.2849162E-2,1.1885568E0,8.9680755E-1,4.8874912E-1,-1.3687277E-1,-7.4071294E-1,-6.24323E-1,3.2401577E-1,6.0286015E-2,2.0428687E-2,1.0141269E0,4.0664673E-1,9.326801E-2,7.8882515E-1,1.0829141E-1,-4.4621384E-1,-1.0661435E0,-4.4830874E-1,-2.2825351E-1,-1.0967838E0,-4.568501E-1,3.5031027E-1,5.4925796E-2,1.445152E-3,3.2836054E-2,-2.7975306E-2,-1.7047873E-2,4.283797E-2,4.365157E-2,-2.422768E-2,-4.52399E-2,1.2229359E-2,-3.758238E-2,-9.698051E-4,-6.2182094E-3,-5.9731036E-2,-3.0989578E-2,4.1907065E-2,-3.9242942E-2,2.1504434E-2,-5.9372354E-2,-1.2532564E-2,-3.3604186E-2,4.8432924E-2,4.612237E-2,1.5464256E-2],"categories":[],"categories_nodes":[],"categories_segments":[],"categories_sizes":[],"default_left":[0,0,0,0,0,0,0,0,0,0,0,0,0,0,0,0,0,0,0,0,0,0,0,0,0,0,0,0,0,0,0,0,0,0,0,0,0,0,0,0,0,0,0,0,0,0,0,0,0,0,0,0,0],"id":19,"left_children":[1,3,5,7,9,11,13,-1,15,17,19,21,23,25,27,-1,-1,29,31,33,35,37,39,41,43,45,47,49,51,-1,-1,-1,-1,-1,-1,-1,-1,-1,-1,-1,-1,-1,-1,-1,-1,-1,-1,-1,-1,-1,-1,-1,-1],"loss_changes":[7.131973E1,7.640396E0,3.9685143E1,1.1285934E0,3.2635193E0,9.620605E0,1.5250378E1,0E0,4.7021484E-1,2.3021584E0,5.0667496E0,6.157517E0,3.3221931E0,3.0436664E0,1.13808975E1,0E0,0E0,3.0793648E0,2.9734168E0,6.86324E0,3.0494041E0,6.5375547E0,4.6538973E0,2.0505276E0,5.5405846E0,4.309171E0,2.9801178E-1,6.246402E0,1.213739E1,0E0,0E0,0E0,0E0,0E0,0E0,0E0,0E0,0E0,0E0,0E0,0E0,0E0,0E0,0E0,0E0,0E0,0E0,0E0,0E0,0E0,0E0,0E0,0E0],"parents":[2147483647,0,0,1,1,2,2,3,3,4,4,5,5,6,6,8,8,9,9,10,10,11,11,12,12,13,13,14,14,17,17,18,18,19,19,20,20,21,21,22,22,23,23,24,24,25,25,26,26,27,27,28,28],"right_children":[2,4,6,8,10,12,14,-1,16,18,20,22,24,26,28,-1,-1,30,32,34,36,38,40,42,44,46,48,50,52,-1,-1,-1,-1,-1,-1,-1,-1,-1,-1,-1,-1,-1,-1,-1,-1,-1,-1,-1,-1,-1,-1,-1,-1],"split_conditions":[1E0,5.820296E-5,1E0,-9.6E1,4.3388373E-1,-1.6004451E-4,-8.518662E-4,1.2849162E-2,8.2690424E-1,5.9583265E-4,1.8945684E-1,2.5881904E-1,0E0,2.2132572E-4,-7.2232424E-4,6.0286015E-2,2.0428687E-2,3.8225923E3,1.067275E-2,4.5279404E-3,8.7682575E-1,3.203546E-3,-1.0965115E-3,3.9244993E-3,9.046874E-3,4.454023E0,6.1679276E-4,5.8572395E1,-1.8490017E-4,5.4925796E-2,1.445152E-3,3.2836054E-2,-2.7975306E-2,-1.7047873E-2,4.283797E-2,4.365157E-2,-2.422768E-2,-4.52399E-2,1.2229359E-2,-3.758238E-2,-9.698051E-4,-6.2182094E-3,-5.9731036E-2,-3.0989578E-2,4.1907065E-2,-3.9242942E-2,2.1504434E-2,-5.9372354E-2,-1.2532564E-2,-3.3604186E-2,4.8432924E-2,4.612237E-2,1.5464256E-2],"split_indices":[47,31,46,40,2,31,33,0,19,34,13,1,2,32,32,0,0,49,7,7,19,18,32,18,18,16,36,16,32,0,0,0,0,0,0,0,0,0,0,0,0,0,0,0,0,0,0,0,0,0,0,0,0],"split_type":[0,0,0,0,0,0,0,0,0,0,0,0,0,0,0,0,0,0,0,0,0,0,0,0,0,0,0,0,0,0,0,0,0,0,0,0,0,0,0,0,0,0,0,0,0,0,0,0,0,0,0,0,0],"sum_hessian":[8.4199445E2,1.614088E2,6.805857E2,7.288912E1,8.851968E1,1.18489944E2,5.620957E2,1.9670004E0,7.092212E1,4.620519E1,4.2314484E1,7.9554436E1,3.8935505E1,1.6603056E1,5.454927E2,6.8861E1,2.0611203E0,3.6419308E1,9.785882E0,1.882075E1,2.3493734E1,4.47435E1,3.481094E1,1.7174763E1,2.1760742E1,9.838467E0,6.764589E0,1.7236853E1,5.282558E2,3.3440025E1,2.9792826E0,8.028179E0,1.7577028E0,1.2350176E1,6.470573E0,2.2331398E1,1.1623372E0,4.637129E0,4.010637E1,1.9847137E1,1.4963801E1,2.2979598E0,1.4876803E1,1.9658495E1,2.1022468E0,5.227025E0,4.6114416E0,5.7455673E0,1.0190216E0,1.5434908E1,1.8019435E0,3.390677E1,4.9434906E2],"tree_param":{"num_deleted":"0","num_feature":"52","num_nodes":"53","size_leaf_vector":"1"}},{"base_weights":[3.1310195E-1,8.9990574E-1,1.7555903E-1,1.1496705E0,6.85842E-1,-2.1000618E-1,3.1531128E-1,8.480369E-3,1.1691502E0,5.304424E-1,9.392992E-1,-6.852243E-1,-1.3009869E-1,-8.2643694E-1,3.3651274E-1,5.9287347E-2,4.6629834E-1,7.6861966E-1,2.6422963E-1,9.154443E-3,9.82005E-1,-3.277684E-2,-1.1202732E0,-3.1811172E-1,6.864255E-2,-1.1372324E0,2.0327134E-2,8.219869E-1,2.8925425E-1,-3.4834587E-3,3.961317E-2,4.1836064E-2,-1.4459721E-2,-9.262768E-3,3.0607188E-2,8.794378E-3,5.134805E-2,-2.7814824E-2,3.1676006E-2,-6.101365E-2,-9.407434E-3,-5.9155058E-2,-9.4836345E-3,1.3577195E-2,-2.4760082E-2,-8.881827E-3,-6.5999314E-2,-2.2490148E-2,4.662023E-2,1.5081984E-2,-5.1801085E-2],"categories":[],"categories_nodes":[],"categories_segments":[],"categories_sizes":[],"default_left":[0,0,0,0,0,0,0,0,0,0,0,0,0,0,0,0,0,0,0,0,0,0,0,0,0,0,0,0,0,0,0,0,0,0,0,0,0,0,0,0,0,0,0,0,0,0,0,0,0,0,0],"id":20,"left_children":[1,3,5,7,9,11,13,-1,15,17,19,21,23,25,27,-1,29,31,33,-1,35,37,39,41,43,45,-1,47,49,-1,-1,-1,-1,-1,-1,-1,-1,-1,-1,-1,-1,-1,-1,-1,-1,-1,-1,-1,-1,-1,-1],"loss_changes":[6.728792E1,7.6823425E0,3.661085E1,1.1694336E0,2.9596977E0,6.7851257E0,1.2337566E1,0E0,2.6452637E-1,3.3934278E0,8.559456E-1,7.2932596E0,5.8585653E0,4.0536017E0,1.0999947E1,0E0,6.2555784E-1,2.3609028E0,4.5403576E0,0E0,9.1119957E-1,4.315304E0,1.2117386E0,8.713048E0,8.915983E0,1.1243391E0,0E0,6.4449253E0,7.6644974E0,0E0,0E0,0E0,0E0,0E0,0E0,0E0,0E0,0E0,0E0,0E0,0E0,0E0,0E0,0E0,0E0,0E0,0E0,0E0,0E0,0E0,0E0],"parents":[2147483647,0,0,1,1,2,2,3,3,4,4,5,5,6,6,8,8,9,9,10,10,11,11,12,12,13,13,14,14,16,16,17,17,18,18,20,20,21,21,22,22,23,23,24,24,25,25,27,27,28,28],"right_children":[2,4,6,8,10,12,14,-1,16,18,20,22,24,26,28,-1,30,32,34,-1,36,38,40,42,44,46,-1,48,50,-1,-1,-1,-1,-1,-1,-1,-1,-1,-1,-1,-1,-1,-1,-1,-1,-1,-1,-1,-1,-1,-1],"split_conditions":[1E0,2.7012045E-5,2E0,-2.7476903E-3,5.8717665E-4,-1.0721011E-3,4.454023E0,8.480369E-3,8.2690424E-1,4.3388373E-1,-3.0428262E-3,-3.436103E-4,2.4803905E-4,5.8789254E-4,-2.8949587E-5,5.9287347E-2,9.301926E1,3.2877985E-1,1.8945684E-1,9.154443E-3,1.3795291E1,1.2246469E-16,1.3025606E-2,1.2426035E-2,7.268442E-2,-1.9332693E-3,2.0327134E-2,-9.249114E-4,9.6E1,-3.4834587E-3,3.961317E-2,4.1836064E-2,-1.4459721E-2,-9.262768E-3,3.0607188E-2,8.794378E-3,5.134805E-2,-2.7814824E-2,3.1676006E-2,-6.101365E-2,-9.407434E-3,-5.9155058E-2,-9.4836345E-3,1.3577195E-2,-2.4760082E-2,-8.881827E-3,-6.5999314E-2,-2.2490148E-2,4.662023E-2,1.5081984E-2,-5.1801085E-2],"split_indices":[47,32,46,35,36,33,16,0,19,2,26,32,9,33,32,0,17,15,13,0,10,0,7,42,23,35,0,32,39,0,0,0,0,0,0,0,0,0,0,0,0,0,0,0,0,0,0,0,0,0,0],"split_type":[0,0,0,0,0,0,0,0,0,0,0,0,0,0,0,0,0,0,0,0,0,0,0,0,0,0,0,0,0,0,0,0,0,0,0,0,0,0,0,0,0,0,0,0,0,0,0,0,0,0,0],"sum_hessian":[8.3464984E2,1.574354E2,6.772144E2,7.064164E1,8.6793755E1,1.8002826E2,4.971862E2,1.5658842E0,6.907576E1,5.5722218E1,3.1071535E1,2.482373E1,1.5520453E2,8.3716755E0,4.888145E2,6.681108E1,2.2646806E0,2.8413647E1,2.7308569E1,1.9435445E0,2.912799E1,1.0360828E1,1.4462901E1,7.944623E1,7.575829E1,6.748297E0,1.6233785E0,4.190828E1,4.4690622E2,1.1538056E0,1.1108751E0,2.6891397E1,1.5222496E0,1.21190195E1,1.518955E1,1.7981057E0,2.7329885E1,5.8945127E0,4.4663157E0,1.2782451E1,1.6804512E0,9.209858E0,7.023637E1,5.609185E1,1.9666447E1,1.3950787E0,5.3532186E0,3.1023052E0,3.8805977E1,4.4353354E2,3.372675E0],"tree_param":{"num_deleted":"0","num_feature":"52","num_nodes":"51","size_leaf_vector":"1"}},{"base_weights":[3.0015358E-1,8.7863386E-1,1.6727476E-1,1.1344968E0,6.645824E-1,-3.165305E-1,2.697487E-1,1.0932081E-2,1.1572595E0,-2.3743281E-2,6.9395554E-1,-1.2442004E-1,-7.0316255E-1,-5.46646E-1,2.981046E-1,1.1767634E0,4.087234E-1,5.3653693E-1,9.459381E-1,-3.4232914E-1,2.0522074E-1,-4.0425253E-1,-1.0310485E0,-7.577579E-1,9.46055E-2,-4.5980397E-1,3.2333025E-1,2.600233E-2,5.9569072E-2,-9.274336E-3,3.88388E-2,3.95526E-2,1.2866226E-2,-6.512612E-3,4.9649645E-2,-5.4907393E-2,-9.5844045E-3,4.112465E-3,6.5531306E-2,-5.018837E-2,1.3486368E-2,4.080813E-3,-5.560729E-2,-4.406814E-2,1.719219E-2,2.8824372E-2,-2.9560208E-2,-3.3566542E-2,4.7213867E-2,4.793831E-2,1.4159535E-2],"categories":[],"categories_nodes":[],"categories_segments":[],"categories_sizes":[],"default_left":[0,0,0,0,0,0,0,0,0,0,0,0,0,0,0,0,0,0,0,0,0,0,0,0,0,0,0,0,0,0,0,0,0,0,0,0,0,0,0,0,0,0,0,0,0,0,0,0,0,0,0],"id":21,"left_children":[1,3,5,7,9,11,13,-1,15,-1,17,19,21,23,25,27,29,31,33,35,37,39,41,43,45,47,49,-1,-1,-1,-1,-1,-1,-1,-1,-1,-1,-1,-1,-1,-1,-1,-1,-1,-1,-1,-1,-1,-1,-1,-1],"loss_changes":[6.3540466E1,7.7093887E0,3.355021E1,1.1849365E0,3.226448E0,8.709881E0,1.3070259E1,0E0,4.9822998E-1,0E0,2.855648E0,5.841247E0,3.4154243E0,2.653119E0,1.0463047E1,2.8457642E-3,8.516627E-1,3.6690922E0,1.7138824E0,5.33914E0,4.3234086E0,9.200191E0,1.7151432E0,2.2715273E0,2.195436E0,5.917712E0,1.30605545E1,0E0,0E0,0E0,0E0,0E0,0E0,0E0,0E0,0E0,0E0,0E0,0E0,0E0,0E0,0E0,0E0,0E0,0E0,0E0,0E0,0E0,0E0,0E0,0E0],"parents":[2147483647,0,0,1,1,2,2,3,3,4,4,5,5,6,6,8,8,10,10,11,11,12,12,13,13,14,14,15,15,16,16,17,17,18,18,19,19,20,20,21,21,22,22,23,23,24,24,25,25,26,26],"right_children":[2,4,6,8,10,12,14,-1,16,-1,18,20,22,24,26,28,30,32,34,36,38,40,42,44,46,48,50,-1,-1,-1,-1,-1,-1,-1,-1,-1,-1,-1,-1,-1,-1,-1,-1,-1,-1,-1,-1,-1,-1,-1,-1],"split_conditions":[1E0,5.820296E-5,1E0,-9.6E1,2.7644094E-3,-1.6004451E-4,-7.368673E-4,1.0932081E-2,9.2527534E1,-2.3743281E-2,5.8717665E-4,6.5030545E-2,-5.082027E-4,1E2,-7.2232424E-4,9.153465E-3,7.957701E1,4.3388373E-1,-2.0988032E-3,-4.1478374E-3,8.158252E-1,-1.0721011E-3,1.9666215E-3,9.2E1,1.2246469E-16,5.8572395E1,-8.774658E-5,2.600233E-2,5.9569072E-2,-9.274336E-3,3.88388E-2,3.95526E-2,1.2866226E-2,-6.512612E-3,4.9649645E-2,-5.4907393E-2,-9.5844045E-3,4.112465E-3,6.5531306E-2,-5.018837E-2,1.3486368E-2,4.080813E-3,-5.560729E-2,-4.406814E-2,1.719219E-2,2.8824372E-2,-2.9560208E-2,-3.3566542E-2,4.7213867E-2,4.793831E-2,1.4159535E-2],"split_indices":[47,31,46,40,18,31,33,0,17,0,36,23,33,39,32,42,16,2,35,26,19,33,27,40,0,16,31,0,0,0,0,0,0,0,0,0,0,0,0,0,0,0,0,0,0,0,0,0,0,0,0],"split_type":[0,0,0,0,0,0,0,0,0,0,0,0,0,0,0,0,0,0,0,0,0,0,0,0,0,0,0,0,0,0,0,0,0,0,0,0,0,0,0,0,0,0,0,0,0,0,0,0,0,0,0],"sum_hessian":[8.275325E2,1.5353116E2,6.7400134E2,6.797647E1,8.555468E1,1.174415E2,5.565598E2,1.9057049E0,6.607077E1,1.7688923E0,8.378579E1,7.934046E1,3.8101032E1,1.8068624E1,5.384912E2,6.383538E1,2.2353878E0,5.349539E1,3.0290396E1,4.774207E1,3.1598394E1,2.109926E1,1.7001774E1,1.3456732E1,4.611893E0,1.6790483E1,5.2170074E2,2.1864092E0,6.164897E1,1.0447314E0,1.1906564E0,2.7026413E1,2.6468977E1,1.1948506E0,2.9095545E1,6.8887877E0,4.085328E1,2.9401962E1,2.196432E0,1.0907536E1,1.0191724E1,1.1545678E0,1.5847205E1,1.2278908E1,1.1778245E0,2.8022835E0,1.8096094E0,1.5045699E1,1.744784E0,2.9637264E1,4.9206345E2],"tree_param":{"num_deleted":"0","num_feature":"52","num_nodes":"51","size_leaf_vector":"1"}},{"base_weights":[2.8792912E-1,8.576802E-1,1.5964168E-1,1.1189196E0,6.4199245E-1,-1.943066E-1,2.8825998E-1,7.0512923E-3,1.1397828E0,1.056207E0,5.4114336E-1,9.036186E-2,-3.0931008E-1,-7.922447E-1,3.0808616E-1,1.1575269E0,4.3977228E-1,5.811519E-2,6.5572965E-3,-5.2188814E-1,6.6586083E-1,-5.388238E-1,2.0923664E-1,-1.8641852E-1,-7.48073E-1,-1.1009309E0,2.0198772E-2,7.835174E-1,2.6302347E-1,2.223268E-2,5.8472093E-2,3.826224E-2,-4.103896E-3,3.1883E-2,-5.4636415E-2,3.51971E-2,-2.1208683E-2,-6.748799E-2,8.5402215E-3,2.8411642E-2,-1.0196626E-2,-3.8176876E-2,-5.303084E-3,-4.378281E-2,1.3763884E-2,-7.996033E-3,-6.427193E-2,4.474261E-2,-2.3210345E-2,1.37402E-2,-5.041637E-2],"categories":[],"categories_nodes":[],"categories_segments":[],"categories_sizes":[],"default_left":[0,0,0,0,0,0,0,0,0,0,0,0,0,0,0,0,0,0,0,0,0,0,0,0,0,0,0,0,0,0,0,0,0,0,0,0,0,0,0,0,0,0,0,0,0,0,0,0,0,0,0],"id":22,"left_children":[1,3,5,7,9,11,13,-1,15,17,19,21,23,25,27,29,31,-1,-1,33,35,37,39,41,43,45,-1,47,49,-1,-1,-1,-1,-1,-1,-1,-1,-1,-1,-1,-1,-1,-1,-1,-1,-1,-1,-1,-1,-1,-1],"loss_changes":[5.990423E1,7.775238E0,3.063502E1,1.2026291E0,2.9755783E0,5.908572E0,1.0806995E1,0E0,3.0189514E-1,1.3762455E0,9.672922E0,4.0365095E0,6.771331E0,3.8288083E0,1.0182869E1,1.563263E-2,6.1086226E-1,0E0,0E0,5.956648E0,2.9299984E0,5.188898E0,6.7674923E0,4.6240606E0,3.859106E0,1.105834E0,0E0,6.1771984E0,6.9335384E0,0E0,0E0,0E0,0E0,0E0,0E0,0E0,0E0,0E0,0E0,0E0,0E0,0E0,0E0,0E0,0E0,0E0,0E0,0E0,0E0,0E0,0E0],"parents":[2147483647,0,0,1,1,2,2,3,3,4,4,5,5,6,6,8,8,9,9,10,10,11,11,12,12,13,13,14,14,15,15,16,16,19,19,20,20,21,21,22,22,23,23,24,24,25,25,27,27,28,28],"right_children":[2,4,6,8,10,12,14,-1,16,18,20,22,24,26,28,30,32,-1,-1,34,36,38,40,42,44,46,-1,48,50,-1,-1,-1,-1,-1,-1,-1,-1,-1,-1,-1,-1,-1,-1,-1,-1,-1,-1,-1,-1,-1,-1],"split_conditions":[1E0,2.7012045E-5,2E0,-2.7476903E-3,3.989008E1,-7.368673E-4,4.454023E0,7.0512923E-3,8.2690424E-1,1.4495157E-3,4.231712E1,4.3667445E-4,2.6965477E-3,5.8789254E-4,-2.8949587E-5,-9.6E1,2.1597887E-3,5.811519E-2,6.5572965E-3,-3.0052646E-3,8.996801E1,2.5988806E-3,2.8491085E-3,9.153465E-3,5.84755E-1,2.4E1,2.0198772E-2,-2.282485E-3,9.6E1,2.223268E-2,5.8472093E-2,3.826224E-2,-4.103896E-3,3.1883E-2,-5.4636415E-2,3.51971E-2,-2.1208683E-2,-6.748799E-2,8.5402215E-3,2.8411642E-2,-1.0196626E-2,-3.8176876E-2,-5.303084E-3,-4.378281E-2,1.3763884E-2,-7.996033E-3,-6.427193E-2,4.474261E-2,-2.3210345E-2,1.37402E-2,-5.041637E-2],"split_indices":[47,32,46,35,14,34,16,0,19,7,14,35,27,33,32,40,27,0,0,6,17,27,27,42,13,38,0,26,39,0,0,0,0,0,0,0,0,0,0,0,0,0,0,0,0,0,0,0,0,0,0],"split_type":[0,0,0,0,0,0,0,0,0,0,0,0,0,0,0,0,0,0,0,0,0,0,0,0,0,0,0,0,0,0,0,0,0,0,0,0,0,0,0,0,0,0,0,0,0,0,0,0,0,0,0],"sum_hessian":[8.2044763E2,1.4973921E2,6.7070844E2,6.582489E1,8.3914314E1,1.7862756E2,4.9208087E2,1.5371186E0,6.428777E1,1.4575536E1,6.933878E1,5.1460785E1,1.2716679E2,8.1645155E0,4.8391635E2,6.2061047E1,2.2267256E0,1.2845771E1,1.7297649E0,6.9464064E0,6.2392372E1,7.616284E0,4.38445E1,1.00455444E2,2.6711336E1,6.55313E0,1.6113855E0,4.0477165E1,4.4343918E2,1.6501623E0,6.041088E1,1.0841473E0,1.1425784E0,2.2529438E0,4.693463E0,6.0628475E1,1.763899E0,3.133441E0,4.482843E0,2.325944E1,2.0585064E1,1.1238591E1,8.921686E1,2.387866E1,2.832676E0,1.3802813E0,5.1728487E0,3.7420902E1,3.0562625E0,4.401446E2,3.2945955E0],"tree_param":{"num_deleted":"0","num_feature":"52","num_nodes":"51","size_leaf_vector":"1"}},{"base_weights":[2.759883E-1,8.3712065E-1,1.5213671E-1,1.1046482E0,6.2071633E-1,-1.8606533E-1,2.751493E-1,6.8472386E-3,1.1260518E0,1.0338238E0,5.213304E-1,-6.281628E-1,-1.1394357E-1,-4.5489886E-1,3.0353966E-1,1.1455406E0,4.4655484E-1,5.7023466E-2,6.3623055E-3,-4.941657E-1,6.434138E-1,-1.4455181E-1,-6.0147416E-2,2.8034462E-2,-3.4755927E-1,8.3292596E-2,-8.6951935E-1,8.96316E-1,2.6549727E-1,2.1699606E-2,5.7893742E-2,4.053333E-2,-9.950432E-3,3.1114811E-2,-5.145823E-2,-2.6780134E-2,3.379562E-2,-1.9612506E-2,5.4692414E-2,-3.165187E-3,5.5912245E-2,-4.492116E-3,-4.955164E-2,3.305107E-2,-4.0878087E-2,-6.304332E-2,-1.4885845E-2,-2.9173583E-2,5.2776158E-2,1.539502E-2,-3.3604943E-3],"categories":[],"categories_nodes":[],"categories_segments":[],"categories_sizes":[],"default_left":[0,0,0,0,0,0,0,0,0,0,0,0,0,0,0,0,0,0,0,0,0,0,0,0,0,0,0,0,0,0,0,0,0,0,0,0,0,0,0,0,0,0,0,0,0,0,0,0,0,0,0],"id":23,"left_children":[1,3,5,7,9,11,13,-1,15,17,19,21,23,25,27,29,31,-1,-1,33,35,37,-1,39,41,43,45,47,49,-1,-1,-1,-1,-1,-1,-1,-1,-1,-1,-1,-1,-1,-1,-1,-1,-1,-1,-1,-1,-1,-1],"loss_changes":[5.6479935E1,7.827774E0,2.7861822E1,1.1812439E0,2.8924217E0,5.6322556E0,1.0306141E1,0E0,3.219757E-1,1.3235188E0,8.920067E0,6.738841E0,5.1514945E0,4.2595606E0,1.0424469E1,2.8892517E-2,9.590649E-1,0E0,0E0,5.4260454E0,2.751955E0,4.9204607E0,0E0,9.764328E0,9.64106E0,5.2650123E0,2.0159206E0,7.2344494E0,6.308956E0,0E0,0E0,0E0,0E0,0E0,0E0,0E0,0E0,0E0,0E0,0E0,0E0,0E0,0E0,0E0,0E0,0E0,0E0,0E0,0E0,0E0,0E0],"parents":[2147483647,0,0,1,1,2,2,3,3,4,4,5,5,6,6,8,8,9,9,10,10,11,11,12,12,13,13,14,14,15,15,16,16,19,19,20,20,21,21,23,23,24,24,25,25,26,26,27,27,28,28],"right_children":[2,4,6,8,10,12,14,-1,16,18,20,22,24,26,28,30,32,-1,-1,34,36,38,-1,40,42,44,46,48,50,-1,-1,-1,-1,-1,-1,-1,-1,-1,-1,-1,-1,-1,-1,-1,-1,-1,-1,-1,-1,-1,-1],"split_conditions":[1E0,2.7012045E-5,2E0,-2.7476903E-3,3.989008E1,-1.0721011E-3,1.3294315E-1,6.8472386E-3,9.2527534E1,1.4495157E-3,4.231712E1,1.4380214E-4,6.4E1,-1.3922087E-3,-1.8490017E-4,-9.6E1,2.1308567E1,5.7023466E-2,6.3623055E-3,-3.0052646E-3,-2.9918978E-3,3.8139863E3,-6.0147416E-2,6E1,8.6351665E-4,7E0,-7.838827E-5,4.3347918E-5,4.6896282E-1,2.1699606E-2,5.7893742E-2,4.053333E-2,-9.950432E-3,3.1114811E-2,-5.145823E-2,-2.6780134E-2,3.379562E-2,-1.9612506E-2,5.4692414E-2,-3.165187E-3,5.5912245E-2,-4.492116E-3,-4.955164E-2,3.305107E-2,-4.0878087E-2,-6.304332E-2,-1.4885845E-2,-2.9173583E-2,5.2776158E-2,1.539502E-2,-3.3604943E-3],"split_indices":[47,32,46,35,14,33,19,0,17,7,14,32,40,34,32,40,12,0,0,6,34,49,0,40,21,47,34,33,15,0,0,0,0,0,0,0,0,0,0,0,0,0,0,0,0,0,0,0,0,0,0],"split_type":[0,0,0,0,0,0,0,0,0,0,0,0,0,0,0,0,0,0,0,0,0,0,0,0,0,0,0,0,0,0,0,0,0,0,0,0,0,0,0,0,0,0,0,0,0,0,0,0,0,0,0],"sum_hessian":[8.135269E2,1.4605211E2,6.674748E2,6.347601E1,8.2576096E1,1.7788843E2,4.895864E2,1.5336692E0,6.194234E1,1.41903515E1,6.838575E1,2.3868391E1,1.5402003E2,1.7764168E1,4.7182224E2,5.954855E1,2.393791E0,1.2465927E1,1.7244248E0,7.011976E0,6.137377E1,1.3641905E1,1.0226487E1,9.634634E1,5.76737E1,8.077896E0,9.686272E0,2.7093313E1,4.447289E2,1.6312171E0,5.791733E1,1.3670146E0,1.0267763E0,2.2187033E0,4.7932725E0,1.2310677E0,6.0142704E1,1.193749E1,1.7044139E0,8.976752E1,6.5788183E0,4.1994244E1,1.5679454E1,5.0838137E0,2.994083E0,5.0351167E0,4.651155E0,2.3729086E0,2.4720406E1,3.9452213E2,5.0206795E1],"tree_param":{"num_deleted":"0","num_feature":"52","num_nodes":"51","size_leaf_vector":"1"}},{"base_weights":[2.6456055E-1,8.170164E-1,1.4507748E-1,1.0917376E0,5.999716E-1,-2.81346E-1,2.353624E-1,9.436942E-3,1.1164584E0,4.3870765E-1,8.677215E-1,-1.0276736E-1,-6.512412E-1,-5.8513206E-1,2.5847027E-1,5.6834675E-2,1.7351158E-2,4.9250406E-1,-5.95776E-1,-8.353579E-3,9.151416E-1,1.2748462E-1,-3.9659503E-1,-3.4574434E-1,-9.855236E-1,-1.8166935E-1,-5.6037463E-2,8.788444E-2,3.619291E-1,2.793338E-2,-2.4351163E-2,-5.9556395E-2,1.4439017E-2,2.6108924E-2,5.2690502E-2,1.4784438E-2,-3.2513738E-2,-2.9097227E-2,1.2245883E-2,-4.710434E-2,1.4266287E-2,4.768548E-3,-5.3349108E-2,-4.126618E-2,2.6447905E-2,-5.7960924E-2,8.326939E-3,2.0948213E-2,-9.662173E-3],"categories":[],"categories_nodes":[],"categories_segments":[],"categories_sizes":[],"default_left":[0,0,0,0,0,0,0,0,0,0,0,0,0,0,0,0,0,0,0,0,0,0,0,0,0,0,0,0,0,0,0,0,0,0,0,0,0,0,0,0,0,0,0,0,0,0,0,0,0],"id":24,"left_children":[1,3,5,7,9,11,13,-1,15,17,19,21,23,25,27,-1,-1,29,31,-1,33,35,37,39,41,43,-1,45,47,-1,-1,-1,-1,-1,-1,-1,-1,-1,-1,-1,-1,-1,-1,-1,-1,-1,-1,-1,-1],"loss_changes":[5.3216167E1,7.8990173E0,2.5688873E1,1.1754608E0,3.1756077E0,7.6446543E0,1.0575117E1,0E0,5.434418E-1,3.266632E0,1.6219044E0,5.4575405E0,3.5218906E0,3.1170268E0,9.417606E0,0E0,0E0,3.5988607E0,1.9730858E0,0E0,1.017971E0,6.153146E0,4.346501E0,8.285881E0,1.6444073E0,4.9912E0,0E0,2.0149996E1,1.0624069E1,0E0,0E0,0E0,0E0,0E0,0E0,0E0,0E0,0E0,0E0,0E0,0E0,0E0,0E0,0E0,0E0,0E0,0E0,0E0,0E0],"parents":[2147483647,0,0,1,1,2,2,3,3,4,4,5,5,6,6,8,8,9,9,10,10,11,11,12,12,13,13,14,14,17,17,18,18,20,20,21,21,22,22,23,23,24,24,25,25,27,27,28,28],"right_children":[2,4,6,8,10,12,14,-1,16,18,20,22,24,26,28,-1,-1,30,32,-1,34,36,38,40,42,44,-1,46,48,-1,-1,-1,-1,-1,-1,-1,-1,-1,-1,-1,-1,-1,-1,-1,-1,-1,-1,-1,-1],"split_conditions":[1E0,5.820296E-5,1E0,-9.6E1,5.8717665E-4,-1.6004451E-4,-9.249114E-4,9.436942E-3,8.2690424E-1,1.4012297E1,-2.0988032E-3,2.5881904E-1,-5.082027E-4,2.2132572E-4,2.9027887E-4,5.6834675E-2,1.7351158E-2,5.832535E-4,4.106381E1,-8.353579E-3,4.5267204E-3,6.096342E-4,6.1119185E-4,-1.0721011E-3,1.9666215E-3,4.454023E0,-5.6037463E-2,-2.4623596E-4,5.1699394E-1,2.793338E-2,-2.4351163E-2,-5.9556395E-2,1.4439017E-2,2.6108924E-2,5.2690502E-2,1.4784438E-2,-3.2513738E-2,-2.9097227E-2,1.2245883E-2,-4.710434E-2,1.4266287E-2,4.768548E-3,-5.3349108E-2,-4.126618E-2,2.6447905E-2,-5.7960924E-2,8.326939E-3,2.0948213E-2,-9.662173E-3],"split_indices":[47,31,46,40,36,31,33,0,19,41,35,1,33,32,34,0,0,36,11,0,18,35,34,33,27,16,0,33,15,0,0,0,0,0,0,0,0,0,0,0,0,0,0,0,0,0,0,0,0],"split_type":[0,0,0,0,0,0,0,0,0,0,0,0,0,0,0,0,0,0,0,0,0,0,0,0,0,0,0,0,0,0,0,0,0,0,0,0,0,0,0,0,0,0,0,0,0,0,0,0,0],"sum_hessian":[8.069897E2,1.424595E2,6.645302E2,6.1096947E1,8.136256E1,1.15744194E2,5.48786E2,1.8581289E0,5.923882E1,5.2425518E1,2.8937037E1,7.89206E1,3.6823593E1,1.4366074E1,5.344199E2,5.725576E1,1.9830577E0,5.033201E1,2.0935104E0,1.1573935E0,2.7779644E1,4.4564598E1,3.4356003E1,2.0303106E1,1.6520487E1,8.957707E0,5.408366E0,2.0245532E2,3.3196463E2,4.7549843E1,2.7821648E0,1.0441568E0,1.0493536E0,8.488974E0,1.929067E1,3.7150066E1,7.4145346E0,2.6726799E1,7.6292024E0,1.0185383E1,1.0117723E1,1.1457987E0,1.5374688E1,4.6156545E0,4.342053E0,1.1196186E1,1.9125912E2,3.0126025E2,3.0704351E1],"tree_param":{"num_deleted":"0","num_feature":"52","num_nodes":"49","size_leaf_vector":"1"}},{"base_weights":[2.5338057E-1,7.970898E-1,1.3812782E-1,1.0776879E0,5.7922316E-1,-2.6992837E-1,2.2443308E-1,5.543661E-3,1.1006761E0,9.9853367E-1,4.8006657E-1,-9.827351E-2,-6.2980944E-1,-4.0250182E-1,2.529434E-1,1.1215912E0,4.191873E-1,5.539872E-2,5.271481E-3,-4.988061E-1,6.013611E-1,-3.057214E-1,2.1291462E-1,-3.5678545E-1,-9.949516E-1,-5.755489E-1,4.761642E-2,8.099456E-1,2.1523324E-1,2.3066549E-2,5.689929E-2,-1.0764287E-2,3.9467074E-2,2.9561058E-2,-5.006081E-2,1.7085021E-2,3.994375E-2,-4.6321206E-2,-6.5039992E-3,3.0559018E-2,-4.90039E-3,-3.4546882E-2,1.5580237E-2,-5.6785055E-2,-1.1624637E-2,-3.134244E-3,-4.5195874E-2,-6.244614E-3,4.718242E-2,-4.204342E-2,1.1649335E-2],"categories":[],"categories_nodes":[],"categories_segments":[],"categories_sizes":[],"default_left":[0,0,0,0,0,0,0,0,0,0,0,0,0,0,0,0,0,0,0,0,0,0,0,0,0,0,0,0,0,0,0,0,0,0,0,0,0,0,0,0,0,0,0,0,0,0,0,0,0,0,0],"id":25,"left_children":[1,3,5,7,9,11,13,-1,15,17,19,21,23,25,27,29,31,-1,-1,33,35,37,39,41,43,45,-1,47,49,-1,-1,-1,-1,-1,-1,-1,-1,-1,-1,-1,-1,-1,-1,-1,-1,-1,-1,-1,-1,-1,-1],"loss_changes":[5.01058E1,7.9311676E0,2.3388752E1,1.2116013E0,2.8859863E0,7.1099834E0,9.884472E0,0E0,3.6366272E-1,1.3057365E0,8.301023E0,5.2158837E0,3.3642807E0,6.2200413E0,1.0834549E1,8.293915E-2,9.5404065E-1,0E0,0E0,4.9600115E0,2.825323E0,5.143553E0,4.084861E0,5.331077E0,1.3888292E0,3.661089E0,0E0,4.226515E0,9.425217E0,0E0,0E0,0E0,0E0,0E0,0E0,0E0,0E0,0E0,0E0,0E0,0E0,0E0,0E0,0E0,0E0,0E0,0E0,0E0,0E0,0E0,0E0],"parents":[2147483647,0,0,1,1,2,2,3,3,4,4,5,5,6,6,8,8,9,9,10,10,11,11,12,12,13,13,14,14,15,15,16,16,19,19,20,20,21,21,22,22,23,23,24,24,25,25,27,27,28,28],"right_children":[2,4,6,8,10,12,14,-1,16,18,20,22,24,26,28,30,32,-1,-1,34,36,38,40,42,44,46,-1,48,50,-1,-1,-1,-1,-1,-1,-1,-1,-1,-1,-1,-1,-1,-1,-1,-1,-1,-1,-1,-1,-1,-1],"split_conditions":[1E0,2.7012045E-5,1E0,-2.7476903E-3,3.989008E1,-1.6004451E-4,-6.800085E-4,5.543661E-3,9.2527534E1,1.4495157E-3,4.231712E1,6.5030545E-2,6.972312E-2,5.8572395E1,-1.8490017E-4,9.153465E-3,7.957701E1,5.539872E-2,5.271481E-3,-3.0052646E-3,4.273707E-3,1.6666655E-1,-3.8867717E-4,5E-1,9.659258E-1,-1.3922087E-3,4.761642E-2,-2.0224522E-4,-8.9359767E-4,2.3066549E-2,5.689929E-2,-1.0764287E-2,3.9467074E-2,2.9561058E-2,-5.006081E-2,1.7085021E-2,3.994375E-2,-4.6321206E-2,-6.5039992E-3,3.0559018E-2,-4.90039E-3,-3.4546882E-2,1.5580237E-2,-5.6785055E-2,-1.1624637E-2,-3.134244E-3,-4.5195874E-2,-6.244614E-3,4.718242E-2,-4.204342E-2,1.1649335E-2],"split_indices":[47,32,46,35,14,31,32,0,17,7,14,23,23,16,32,42,16,0,0,6,7,19,9,1,0,34,0,33,33,0,0,0,0,0,0,0,0,0,0,0,0,0,0,0,0,0,0,0,0,0,0],"split_type":[0,0,0,0,0,0,0,0,0,0,0,0,0,0,0,0,0,0,0,0,0,0,0,0,0,0,0,0,0,0,0,0,0,0,0,0,0,0,0,0,0,0,0,0,0,0,0,0,0,0,0],"sum_hessian":[8.00352E2,1.389472E2,6.614048E2,5.9005455E1,7.994175E1,1.1509612E2,5.4630865E2,1.50564E0,5.7499817E1,1.3554135E1,6.638761E1,7.878879E1,3.6307335E1,2.3192549E1,5.231161E2,5.5161102E1,2.3387153E0,1.1860202E1,1.6939334E0,6.976161E0,5.9411453E1,4.72848E1,3.1503986E1,2.190537E1,1.4401965E1,2.1075808E1,2.1167417E0,3.1871817E1,4.912443E2,2.0424995E0,5.3118603E1,1.015853E0,1.3228624E0,2.1451914E0,4.83097E0,2.6847082E1,3.256437E1,9.486336E0,3.7798466E1,1.33886E1,1.8115387E1,1.4581715E1,7.323655E0,1.1744427E1,2.6575384E0,8.691634E0,1.2384172E1,3.996254E0,2.7875563E1,7.3549633E0,4.838893E2],"tree_param":{"num_deleted":"0","num_feature":"52","num_nodes":"51","size_leaf_vector":"1"}},{"base_weights":[2.4291828E-1,7.781451E-1,1.3168219E-1,1.0654683E0,5.60216E-1,-1.06336996E-1,2.6854482E-1,7.6891393E-3,1.0920365E0,4.0051213E-1,8.311303E-1,1.3734102E-1,-2.7740476E-1,-5.8513273E-2,3.2063794E-1,1.11383E0,1.6135966E-2,6.445271E-1,1.4067604E-1,-8.921798E-3,8.796329E-1,-3.620444E-1,2.3474194E-1,-4.145678E-1,1.1587924E-1,4.497825E-1,-3.23241E-1,5.8805555E-1,2.1589552E-1,5.6397434E-2,2.0777818E-2,1.1301338E-2,4.476772E-2,-1.6056253E-2,2.5355188E-2,4.6492126E-2,3.4015984E-3,1.6482051E-2,-3.242367E-2,2.244476E-3,2.6244447E-2,-1.3045728E-2,-4.4060357E-2,1.3672844E-2,-3.676133E-2,-7.417847E-2,3.2126963E-2,-2.4681477E-2,2.5632048E-2,2.138105E-2,5.240804E-2,-4.284858E-2,1.2110025E-2],"categories":[],"categories_nodes":[],"categories_segments":[],"categories_sizes":[],"default_left":[0,0,0,0,0,0,0,0,0,0,0,0,0,0,0,0,0,0,0,0,0,0,0,0,0,0,0,0,0,0,0,0,0,0,0,0,0,0,0,0,0,0,0,0,0,0,0,0,0,0,0,0,0],"id":26,"left_children":[1,3,5,7,9,11,13,-1,15,17,19,21,23,25,27,29,-1,31,33,-1,35,37,39,41,43,45,47,49,51,-1,-1,-1,-1,-1,-1,-1,-1,-1,-1,-1,-1,-1,-1,-1,-1,-1,-1,-1,-1,-1,-1,-1,-1],"loss_changes":[4.7222755E1,7.95475E0,2.150655E1,1.2320557E0,3.1186295E0,1.0101912E1,7.155733E0,0E0,5.79422E-1,3.2138271E0,1.5601311E0,4.961063E0,7.7175627E0,8.003666E0,9.998604E0,6.411743E-2,0E0,2.5896692E0,4.6504755E0,0E0,1.0578136E0,3.533156E0,4.630713E0,7.3438377E0,5.2364526E0,8.562214E0,5.805085E0,7.0192146E0,7.582942E0,0E0,0E0,0E0,0E0,0E0,0E0,0E0,0E0,0E0,0E0,0E0,0E0,0E0,0E0,0E0,0E0,0E0,0E0,0E0,0E0,0E0,0E0,0E0,0E0],"parents":[2147483647,0,0,1,1,2,2,3,3,4,4,5,5,6,6,8,8,9,9,10,10,11,11,12,12,13,13,14,14,15,15,17,17,18,18,20,20,21,21,22,22,23,23,24,24,25,25,26,26,27,27,28,28],"right_children":[2,4,6,8,10,12,14,-1,16,18,20,22,24,26,28,30,-1,32,34,-1,36,38,40,42,44,46,48,50,52,-1,-1,-1,-1,-1,-1,-1,-1,-1,-1,-1,-1,-1,-1,-1,-1,-1,-1,-1,-1,-1,-1,-1,-1],"split_conditions":[1E0,5.820296E-5,3E0,-9.6E1,5.8717665E-4,3E0,-4.8E1,7.6891393E-3,8.2690424E-1,4.3388373E-1,-2.0988032E-3,1E0,8.39373E1,4.2469883E-3,-2.4118498E-3,1.076029E-4,1.6135966E-2,3.2862117E0,1.8945684E-1,-8.921798E-3,2.1096389E-4,-5.1301206E-4,9.1533107E-4,2.2132572E-4,9.530247E1,2.8776639E0,1.9832103E-2,6.6775876E-1,-4E1,5.6397434E-2,2.0777818E-2,1.1301338E-2,4.476772E-2,-1.6056253E-2,2.5355188E-2,4.6492126E-2,3.4015984E-3,1.6482051E-2,-3.242367E-2,2.244476E-3,2.6244447E-2,-1.3045728E-2,-4.4060357E-2,1.3672844E-2,-3.676133E-2,-7.417847E-2,3.2126963E-2,-2.4681477E-2,2.5632048E-2,2.138105E-2,5.240804E-2,-4.284858E-2,1.2110025E-2],"split_indices":[47,31,46,40,36,47,40,0,19,2,35,46,17,18,26,32,0,20,13,0,31,31,21,32,17,20,42,19,40,0,0,0,0,0,0,0,0,0,0,0,0,0,0,0,0,0,0,0,0,0,0,0,0],"split_type":[0,0,0,0,0,0,0,0,0,0,0,0,0,0,0,0,0,0,0,0,0,0,0,0,0,0,0,0,0,0,0,0,0,0,0,0,0,0,0,0,0,0,0,0,0,0,0,0,0,0,0,0,0],"sum_hessian":[7.938937E2,1.3557271E2,6.58321E2,5.679875E1,7.8773964E1,2.4042262E2,4.1789835E2,1.8005668E0,5.4998184E1,5.111819E1,2.7655773E1,9.9247025E1,1.4117558E2,5.739982E1,3.6049854E2,5.304761E1,1.9505721E0,2.5598162E1,2.552003E1,1.1449564E0,2.6510817E1,1.5754563E1,8.349246E1,1.0463027E2,3.654532E1,1.941761E1,3.798221E1,1.0016168E2,2.6033685E2,5.139313E1,1.6544796E0,1.0305225E1,1.5292936E1,1.1345352E1,1.4174677E1,2.4829077E1,1.6817398E0,4.5693545E0,1.1185209E1,5.1166985E1,3.232548E1,7.988513E1,2.474514E1,3.1408846E1,5.1364737E0,1.1533104E0,1.82643E1,3.1890923E1,6.091286E0,7.569641E1,2.4465265E1,5.474565E0,2.5486227E2],"tree_param":{"num_deleted":"0","num_feature":"52","num_nodes":"53","size_leaf_vector":"1"}},{"base_weights":[2.3286708E-1,7.5986135E-1,1.2555794E-1,1.0528042E0,5.423335E-1,-1.0173014E-1,2.5631934E-1,7.460835E-3,1.0800915E0,-2.8168142E-2,5.7406783E-1,1.3107632E-1,-2.6523834E-1,3.6439115E-1,9.819836E-2,1.1026846E0,1.5660254E-2,7.6598936E-1,3.6650777E-1,-3.4694678E-1,2.2407036E-1,-3.9666978E-1,1.0938831E-1,1.0016071E0,3.1260395E-1,-5.5230844E-1,2.1021311E-1,5.5862762E-2,2.0285215E-2,8.850244E-3,4.4773724E-2,3.1950545E-2,-4.9552536E-3,2.054829E-2,-2.9732374E-2,2.1356575E-3,2.5150556E-2,-1.2434313E-2,-4.258336E-2,4.03628E-2,-4.2006164E-3,-9.558107E-3,5.6859493E-2,-3.0828693E-3,1.9030081E-2,-3.697626E-2,3.1674292E-2,3.2452628E-2,5.2577923E-3],"categories":[],"categories_nodes":[],"categories_segments":[],"categories_sizes":[],"default_left":[0,0,0,0,0,0,0,0,0,0,0,0,0,0,0,0,0,0,0,0,0,0,0,0,0,0,0,0,0,0,0,0,0,0,0,0,0,0,0,0,0,0,0,0,0,0,0,0,0],"id":27,"left_children":[1,3,5,7,9,11,13,-1,15,-1,17,19,21,23,25,27,-1,29,31,33,35,37,39,41,43,45,47,-1,-1,-1,-1,-1,-1,-1,-1,-1,-1,-1,-1,-1,-1,-1,-1,-1,-1,-1,-1,-1,-1],"loss_changes":[4.4513416E1,7.920273E0,1.9539629E1,1.2126999E0,3.0789642E0,9.189505E0,7.0912952E0,0E0,5.889816E-1,0E0,2.7800255E0,4.518265E0,7.015749E0,7.850178E0,1.2554079E1,7.46727E-2,0E0,2.8161488E0,4.990286E0,3.3721426E0,4.239607E0,6.8610935E0,5.137383E0,3.1509037E0,5.882704E0,6.096408E0,6.678721E0,0E0,0E0,0E0,0E0,0E0,0E0,0E0,0E0,0E0,0E0,0E0,0E0,0E0,0E0,0E0,0E0,0E0,0E0,0E0,0E0,0E0,0E0],"parents":[2147483647,0,0,1,1,2,2,3,3,4,4,5,5,6,6,8,8,10,10,11,11,12,12,13,13,14,14,15,15,17,17,18,18,19,19,20,20,21,21,22,22,23,23,24,24,25,25,26,26],"right_children":[2,4,6,8,10,12,14,-1,16,-1,18,20,22,24,26,28,-1,30,32,34,36,38,40,42,44,46,48,-1,-1,-1,-1,-1,-1,-1,-1,-1,-1,-1,-1,-1,-1,-1,-1,-1,-1,-1,-1,-1,-1],"split_conditions":[1E0,5.820296E-5,3E0,-9.6E1,2.7644094E-3,3E0,6E0,7.460835E-3,8.2690424E-1,-2.8168142E-2,4.3388373E-1,1E0,8.39373E1,-2.8949587E-5,-6.698E-1,1.076029E-4,1.5660254E-2,-6.267621E-4,-8.9359767E-4,1.7144794E1,9.1533107E-4,2.2132572E-4,-3.1416817E-3,-4.2908847E-1,-5.6E1,6.1926956E-4,-2.2291252E-3,5.5862762E-2,2.0285215E-2,8.850244E-3,4.4773724E-2,3.1950545E-2,-4.9552536E-3,2.054829E-2,-2.9732374E-2,2.1356575E-3,2.5150556E-2,-1.2434313E-2,-4.258336E-2,4.03628E-2,-4.2006164E-3,-9.558107E-3,5.6859493E-2,-3.0828693E-3,1.9030081E-2,-3.697626E-2,3.1674292E-2,3.2452628E-2,5.2577923E-3],"split_indices":[47,31,46,40,18,47,47,0,19,0,2,46,17,32,41,32,0,36,33,10,21,32,26,15,40,35,26,0,0,0,0,0,0,0,0,0,0,0,0,0,0,0,0,0,0,0,0,0,0],"split_type":[0,0,0,0,0,0,0,0,0,0,0,0,0,0,0,0,0,0,0,0,0,0,0,0,0,0,0,0,0,0,0,0,0,0,0,0,0,0,0,0,0,0,0,0,0,0,0,0,0],"sum_hessian":[7.878205E2,1.3225182E2,6.5556866E2,5.4720432E1,7.753139E1,2.3949792E2,4.1607077E2,1.7936608E0,5.292677E1,1.6957369E0,7.583565E1,9.889189E1,1.4060603E2,2.4637502E2,1.6969576E2,5.098679E1,1.9399819E0,3.8004314E1,3.7831333E1,1.5660481E1,8.3231415E1,1.0404482E2,3.656121E1,1.7139616E1,2.292354E2,2.4350964E1,1.4534479E2,4.9352074E1,1.6347142E0,7.275855E0,3.0728458E1,2.3629562E1,1.4201773E1,3.6951053E0,1.1965376E1,5.1137066E1,3.2094345E1,7.967716E1,2.436766E1,7.24485E0,2.9316359E1,1.7075721E0,1.5432044E1,3.525946E1,1.9397594E2,2.135562E1,2.9953425E0,2.7074131E1,1.1827066E2],"tree_param":{"num_deleted":"0","num_feature":"52","num_nodes":"49","size_leaf_vector":"1"}},{"base_weights":[2.2336775E-1,7.4146E-1,1.1997086E-1,1.0404435E0,5.23803E-1,-2.3875138E-1,1.9578354E-1,3.2278064E-3,1.0662922E0,9.5315486E-1,4.246872E-1,-8.083851E-2,-5.798517E-1,3.6361504E-2,2.966305E-1,1.0896249E0,3.8049063E-1,5.339938E-2,3.4214053E-3,-5.157381E-1,5.4591423E-1,1.3600454E-1,-3.602545E-1,-2.7132973E-1,-9.191598E-1,-7.918766E-1,1.3029E-1,3.493631E-1,-2.1544209E-1,2.0005796E-2,5.5393305E-2,3.6916535E-2,-9.92399E-3,2.7837513E-2,-4.9418908E-2,2.935998E-2,-2.6068944E-2,-4.1695148E-2,1.3210106E-2,-3.269559E-2,2.0396241E-3,-4.3690357E-2,1.6195914E-2,-5.0147094E-2,6.6254796E-3,-4.7244276E-3,-6.0413428E-2,7.817516E-3,-5.967298E-2,-8.767368E-3,1.9541984E-2,4.7058063E-3,-4.401365E-2],"categories":[],"categories_nodes":[],"categories_segments":[],"categories_sizes":[],"default_left":[0,0,0,0,0,0,0,0,0,0,0,0,0,0,0,0,0,0,0,0,0,0,0,0,0,0,0,0,0,0,0,0,0,0,0,0,0,0,0,0,0,0,0,0,0,0,0,0,0,0,0,0,0],"id":28,"left_children":[1,3,5,7,9,11,13,-1,15,17,19,21,23,25,27,29,31,-1,-1,33,35,37,39,41,43,45,47,49,51,-1,-1,-1,-1,-1,-1,-1,-1,-1,-1,-1,-1,-1,-1,-1,-1,-1,-1,-1,-1,-1,-1,-1,-1],"loss_changes":[4.184604E1,7.9177628E0,1.7826626E1,1.2876053E0,2.8835373E0,6.1213155E0,8.675125E0,0E0,4.226303E-1,1.3176508E0,7.644285E0,4.8620925E0,3.5271778E0,1.6477196E1,9.007448E0,1.8638992E-1,8.215486E-1,0E0,0E0,4.549075E0,2.8483505E0,5.8719397E0,4.146858E0,7.5681205E0,1.6098108E0,6.1522636E0,6.737517E0,6.6036644E0,6.566103E0,0E0,0E0,0E0,0E0,0E0,0E0,0E0,0E0,0E0,0E0,0E0,0E0,0E0,0E0,0E0,0E0,0E0,0E0,0E0,0E0,0E0,0E0,0E0,0E0],"parents":[2147483647,0,0,1,1,2,2,3,3,4,4,5,5,6,6,8,8,9,9,10,10,11,11,12,12,13,13,14,14,15,15,16,16,19,19,20,20,21,21,22,22,23,23,24,24,25,25,26,26,27,27,28,28],"right_children":[2,4,6,8,10,12,14,-1,16,18,20,22,24,26,28,30,32,-1,-1,34,36,38,40,42,44,46,48,50,52,-1,-1,-1,-1,-1,-1,-1,-1,-1,-1,-1,-1,-1,-1,-1,-1,-1,-1,-1,-1,-1,-1,-1,-1],"split_conditions":[1E0,2.7012045E-5,1E0,-2.7476903E-3,3.989008E1,-1.6004451E-4,2.9027887E-4,3.2278064E-3,9.2527534E1,1.4495157E-3,4.231712E1,2.5881904E-1,-5.082027E-4,-2.4623596E-4,5.1699394E-1,9.153465E-3,2.1597887E-3,5.339938E-2,3.4214053E-3,-3.0052646E-3,8.996801E1,3.203546E-3,-1.0965115E-3,-1.0721011E-3,6.291973E-4,1.0509521E1,6.485377E-4,-6.4E1,6.234898E-1,2.0005796E-2,5.5393305E-2,3.6916535E-2,-9.92399E-3,2.7837513E-2,-4.9418908E-2,2.935998E-2,-2.6068944E-2,-4.1695148E-2,1.3210106E-2,-3.269559E-2,2.0396241E-3,-4.3690357E-2,1.6195914E-2,-5.0147094E-2,6.6254796E-3,-4.7244276E-3,-6.0413428E-2,7.817516E-3,-5.967298E-2,-8.767368E-3,1.9541984E-2,4.7058063E-3,-4.401365E-2],"split_indices":[47,32,46,35,14,31,34,0,17,7,14,1,33,33,15,42,27,0,0,6,17,18,32,33,33,16,33,40,3,0,0,0,0,0,0,0,0,0,0,0,0,0,0,0,0,0,0,0,0,0,0,0,0],"split_type":[0,0,0,0,0,0,0,0,0,0,0,0,0,0,0,0,0,0,0,0,0,0,0,0,0,0,0,0,0,0,0,0,0,0,0,0,0,0,0,0,0,0,0,0,0,0,0,0,0,0,0,0,0],"sum_hessian":[7.8182007E2,1.290444E2,6.5277563E2,5.277293E1,7.627147E1,1.13513855E2,5.392618E2,1.4519928E0,5.132094E1,1.2688894E1,6.3582577E1,7.8437904E1,3.5075947E1,2.0947606E2,3.2978574E2,4.906286E1,2.2580783E0,1.1047811E1,1.6410831E0,6.8887115E0,5.6693867E1,4.445303E1,3.398488E1,1.9314005E1,1.5761943E1,2.0579605E1,1.8889645E2,2.9928363E2,3.0502104E1,1.8556237E0,4.7207233E1,1.225435E0,1.0326432E0,2.0527554E0,4.835956E0,5.5015564E1,1.6783032E0,4.5469837E0,3.9906044E1,1.9255196E1,1.4729682E1,9.366139E0,9.9478655E0,1.4641826E1,1.1201173E0,8.152473E0,1.2427132E1,1.8611436E2,2.7820964E0,2.1687857E1,2.7759576E2,2.1397463E1,9.10464E0],"tree_param":{"num_deleted":"0","num_feature":"52","num_nodes":"53","size_leaf_vector":"1"}},{"base_weights":[2.1371749E-1,7.234058E-1,1.14021525E-1,1.0291324E0,5.058318E-1,-9.40841E-2,2.3384884E-1,5.8159917E-3,1.0585119E0,3.475049E-1,7.822986E-1,1.19844764E-1,-2.4462835E-1,6.5367454E-1,1.9491717E-1,1.0828869E0,1.4542486E-2,4.0315193E-1,-6.52058E-1,-1.0231741E-2,8.329145E-1,4.9000287E-1,-9.675185E-4,-3.6991674E-1,1.0922174E-1,-4.3536332E-1,9.697969E-1,2.4311621E-1,-1.36372E-1,2.1224944E-2,5.5077832E-2,2.6722074E-2,-6.08015E-3,-6.0472663E-2,1.1758311E-2,2.112805E-2,4.9270015E-2,3.0522812E-2,-4.3746363E-2,2.2516828E-2,-6.5662353E-3,-1.1493505E-2,-4.0527686E-2,3.8563214E-2,-3.800745E-3,-3.4521185E-2,2.059659E-2,5.325392E-2,-1.9581133E-2,-5.5911955E-3,1.5323195E-2,-7.129517E-2,-7.235955E-4],"categories":[],"categories_nodes":[],