{"learner":{"attributes":{},"feature_names":["Hour_Sin","Hour_Cos","Day_Sin","Day_Cos","SMA_50","SMA_200","Dist_SMA_50","Dist_SMA_200","EMA_20","Dist_EMA_20","ADX","ADX_Pos","ADX_Neg","Efficiency_Ratio","RSI","ROC","Stoch_K","Stoch_D","BB_Width","BB_Pos","ATR","ATR_Pct","VWAP","Dist_VWAP","SuperTrend_Upper","SuperTrend_Lower","Dist_ST_Upper","Dist_ST_Lower","Pivot_Point","Pivot_R1","Pivot_S1","Dist_Pivot","Log_Return","Return_Lag_1","Return_Lag_2","Return_Lag_3","Return_Lag_5","Volume_Change"],"feature_types":["float","float","float","float","float","float","float","float","float","float","float","float","float","float","float","float","float","float","float","float","float","float","float","float","float","float","float","float","float","float","float","float","float","float","float","float","float","float"],"gradient_booster":{"model":{"cats":{"enc":[],"feature_segments":[],"sorted_idx":[]},"gbtree_model_param":{"num_parallel_tree":"1","num_trees":"300"},"iteration_indptr":[0,1,2,3,4,5,6,7,8,9,10,11,12,13,14,15,16,17,18,19,20,21,22,23,24,25,26,27,28,29,30,31,32,33,34,35,36,37,38,39,40,41,42,43,44,45,46,47,48,49,50,51,52,53,54,55,56,57,58,59,60,61,62,63,64,65,66,67,68,69,70,71,72,73,74,75,76,77,78,79,80,81,82,83,84,85,86,87,88,89,90,91,92,93,94,95,96,97,98,99,100,101,102,103,104,105,106,107,108,109,110,111,112,113,114,115,116,117,118,119,120,121,122,123,124,125,126,127,128,129,130,131,132,133,134,135,136,137,138,139,140,141,142,143,144,145,146,147,148,149,150,151,152,153,154,155,156,157,158,159,160,161,162,163,164,165,166,167,168,169,170,171,172,173,174,175,176,177,178,179,180,181,182,183,184,185,186,187,188,189,190,191,192,193,194,195,196,197,198,199,200,201,202,203,204,205,206,207,208,209,210,211,212,213,214,215,216,217,218,219,220,221,222,223,224,225,226,227,228,229,230,231,232,233,234,235,236,237,238,239,240,241,242,243,244,245,246,247,248,249,250,251,252,253,254,255,256,257,258,259,260,261,262,263,264,265,266,267,268,269,270,271,272,273,274,275,276,277,278,279,280,281,282,283,284,285,286,287,288,289,290,291,292,293,294,295,296,297,298,299,300],"tree_info":[0,0,0,0,0,0,0,0,0,0,0,0,0,0,0,0,0,0,0,0,0,0,0,0,0,0,0,0,0,0,0,0,0,0,0,0,0,0,0,0,0,0,0,0,0,0,0,0,0,0,0,0,0,0,0,0,0,0,0,0,0,0,0,0,0,0,0,0,0,0,0,0,0,0,0,0,0,0,0,0,0,0,0,0,0,0,0,0,0,0,0,0,0,0,0,0,0,0,0,0,0,0,0,0,0,0,0,0,0,0,0,0,0,0,0,0,0,0,0,0,0,0,0,0,0,0,0,0,0,0,0,0,0,0,0,0,0,0,0,0,0,0,0,0,0,0,0,0,0,0,0,0,0,0,0,0,0,0,0,0,0,0,0,0,0,0,0,0,0,0,0,0,0,0,0,0,0,0,0,0,0,0,0,0,0,0,0,0,0,0,0,0,0,0,0,0,0,0,0,0,0,0,0,0,0,0,0,0,0,0,0,0,0,0,0,0,0,0,0,0,0,0,0,0,0,0,0,0,0,0,0,0,0,0,0,0,0,0,0,0,0,0,0,0,0,0,0,0,0,0,0,0,0,0,0,0,0,0,0,0,0,0,0,0,0,0,0,0,0,0,0,0,0,0,0,0,0,0,0,0,0,0,0,0,0,0,0,0,0,0,0,0,0,0,0,0,0,0,0,0],"trees":[{"base_weights":[9.876543E-2,3.611111E-1,-1.0989011E-1,5.676856E-1,-4.1269842E-1,-4.5454547E-2,-7.5E-2,2.5185186E-1,9.7959185E-1,7.368421E-1,-8.333333E-1,2.1761657E-1,-3.5582823E-1,-5.1428574E-1,5E-1,1.1304348E0,-4.0000003E-2,6.0000002E-2,-2.5E-2,-1.0476191E0,2.0000001E-2,1.1351352E0,-0E0,-6.666667E-1,1.9354838E-1,-4.1935485E-2,5E-2,6.842106E-2,1.4606741E-2,6.666667E-2,-0E0,-1.5789473E-2,-7.037037E-2,6.969697E-2,-2.5E-2,1.3432837E-2,-6.0000002E-2,-6.4444445E-2,-9.375E-3,5E-2,-1.4285715E-2],"categories":[],"categories_nodes":[],"categories_segments":[],"categories_sizes":[],"default_left":[0,0,0,0,0,0,0,0,0,0,0,0,0,0,0,0,0,0,0,0,0,0,0,0,0,0,0,0,0,0,0,0,0,0,0,0,0,0,0,0,0],"id":0,"left_children":[1,3,5,7,9,11,-1,13,15,17,19,21,23,25,27,29,-1,-1,-1,31,-1,33,35,37,39,-1,-1,-1,-1,-1,-1,-1,-1,-1,-1,-1,-1,-1,-1,-1,-1],"loss_changes":[8.907543E0,1.1743431E1,8.082917E0,7.2011642E0,8.22974E0,7.2626653E0,0E0,6.673545E0,7.4811E0,3.3210528E0,3.590476E0,9.6339445E0,7.0878034E0,5.137327E0,4.2936134E0,5.275364E0,0E0,0E0,0E0,2.3202448E0,0E0,4.6113853E0,1.3217911E1,7.5847216E0,6.276498E0,0E0,0E0,0E0,0E0,0E0,0E0,0E0,0E0,0E0,0E0,0E0,0E0,0E0,0E0,0E0,0E0],"parents":[2147483647,0,0,1,1,2,2,3,3,4,4,5,5,7,7,8,8,9,9,10,10,11,11,12,12,13,13,14,14,15,15,19,19,21,21,22,22,23,23,24,24],"right_children":[2,4,6,8,10,12,-1,14,16,18,20,22,24,26,28,30,-1,-1,-1,32,-1,34,36,38,40,-1,-1,-1,-1,-1,-1,-1,-1,-1,-1,-1,-1,-1,-1,-1,-1],"split_conditions":[3.2455135E4,6.2598713E1,-2.2540534E-2,1.7490423E1,-1.9448699E-3,2.3171492E-2,-7.5E-2,3.8884197E1,3.5277402E4,9.2753494E1,1.4258061E-1,-5.933688E-2,8.511992E-3,3.09256E-1,1.8615938E-3,1.22842E-1,-4.0000003E-2,6.0000002E-2,-2.5E-2,3.015285E-3,2.0000001E-2,1.2480877E-1,3.0873205E1,2.6750324E1,-1.5453163E-5,-4.1935485E-2,5E-2,6.842106E-2,1.4606741E-2,6.666667E-2,-0E0,-1.5789473E-2,-7.037037E-2,6.969697E-2,-2.5E-2,1.3432837E-2,-6.0000002E-2,-6.4444445E-2,-9.375E-3,5E-2,-1.4285715E-2],"split_indices":[5,14,26,10,36,37,0,16,24,16,37,26,9,37,9,7,0,0,0,36,0,18,12,12,33,0,0,0,0,0,0,0,0,0,0,0,0,0,0,0,0],"split_type":[0,0,0,0,0,0,0,0,0,0,0,0,0,0,0,0,0,0,0,0,0,0,0,0,0,0,0,0,0,0,0,0,0,0,0,0,0,0,0,0,0],"sum_hessian":[1.61E2,7.1E1,9E1,5.625E1,1.475E1,8.7E1,3E0,3.275E1,2.35E1,3.75E0,1.1E1,4.725E1,3.975E1,7.75E0,2.5E1,2.2E1,1.5E0,2.75E0,1E0,9.5E0,1.5E0,8.25E0,3.9E1,2.525E1,1.45E1,6.75E0,1E0,3.75E0,2.125E1,1.85E1,3.5E0,3.75E0,5.75E0,7.25E0,1E0,3.25E1,6.5E0,1.025E1,1.5E1,5E0,9.5E0],"tree_param":{"num_deleted":"0","num_feature":"38","num_nodes":"41","size_leaf_vector":"1"}},{"base_weights":[9.369694E-2,3.1844205E-1,-1.3218603E-1,4.5632386E-1,-5.392635E-1,-2.059991E-2,-8.6455905E-1,5.7229924E-1,-9.539733E-1,5.8419634E-2,-9.0319496E-1,5.784399E-2,-1.1392581E0,-1.1533465E0,7.826787E-3,7.197165E-1,-8.405447E-2,1.0674762E-2,-6.628584E-2,1.747512E-2,-1.2492648E0,-9.2842466E-1,1.2985595E-1,-7.078166E-2,-1.0133709E-2,1.1589257E-2,-1.424072E0,3.9119523E-2,-5.3514965E-2,-4.5720946E-2,2.315975E-2,-7.4628465E-2,-1.628619E-2,-6.294546E-2,-1.5793802E-2,-1.56982E-3,3.3066563E-2,-1.0546199E-2,-8.208382E-2],"categories":[],"categories_nodes":[],"categories_segments":[],"categories_sizes":[],"default_left":[0,0,0,0,0,0,0,0,0,0,0,0,0,0,0,0,0,0,0,0,0,0,0,0,0,0,0,0,0,0,0,0,0,0,0,0,0,0,0],"id":1,"left_children":[1,3,5,7,9,11,13,15,17,-1,19,21,23,25,-1,27,29,-1,-1,-1,31,33,35,-1,-1,-1,37,-1,-1,-1,-1,-1,-1,-1,-1,-1,-1,-1,-1],"loss_changes":[8.26237E0,9.879708E0,6.639687E0,1.2112916E1,8.351334E0,6.3592815E0,3.3494968E0,6.4437428E0,2.777964E0,0E0,4.876545E0,4.948006E0,9.420643E-1,3.5163088E0,0E0,6.892849E0,6.328713E0,0E0,0E0,0E0,1.3661098E0,5.6347656E-1,5.524714E0,0E0,0E0,0E0,1.5670052E0,0E0,0E0,0E0,0E0,0E0,0E0,0E0,0E0,0E0,0E0,0E0,0E0],"parents":[2147483647,0,0,1,1,2,2,3,3,4,4,5,5,6,6,7,7,8,8,10,10,11,11,12,12,13,13,15,15,16,16,20,20,21,21,22,22,26,26],"right_children":[2,4,6,8,10,12,14,16,18,-1,20,22,24,26,-1,28,30,-1,-1,-1,32,34,36,-1,-1,-1,38,-1,-1,-1,-1,-1,-1,-1,-1,-1,-1,-1,-1],"split_conditions":[-8.202863E-3,3.1235725E1,3.503826E4,2.3177119E-1,-6.172324E-2,6.826602E1,1.7538518E-3,2.0447776E-2,3.280278E-2,5.8419634E-2,-2.4692133E-1,1.0501538E1,-2.9877337E-2,4.5176852E-2,7.826787E-3,-2.2540534E-2,2.508622E-2,1.0674762E-2,-6.628584E-2,1.747512E-2,1.0060516E-1,4.4002527E-4,1.8351299E-1,-7.078166E-2,-1.0133709E-2,1.1589257E-2,2.1031483E1,3.9119523E-2,-5.3514965E-2,-4.5720946E-2,2.315975E-2,-7.4628465E-2,-1.628619E-2,-6.294546E-2,-1.5793802E-2,-1.56982E-3,3.3066563E-2,-1.0546199E-2,-8.208382E-2],"split_indices":[37,12,4,23,26,14,31,9,18,0,37,10,26,37,0,26,9,0,0,0,18,34,23,0,0,0,17,0,0,0,0,0,0,0,0,0,0,0,0],"split_type":[0,0,0,0,0,0,0,0,0,0,0,0,0,0,0,0,0,0,0,0,0,0,0,0,0,0,0,0,0,0,0,0,0,0,0,0,0,0,0],"sum_hessian":[1.6092458E2,8.046005E1,8.0464516E1,6.972006E1,1.0739988E1,7.0717896E1,9.74662E0,6.497136E1,4.748702E0,1.4984442E0,9.241545E0,6.697003E1,3.7478619E0,7.496835E0,2.2497854E0,5.2976326E1,1.1995036E1,1.249696E0,3.4990058E0,1.9982815E0,7.243263E0,3.747806E0,6.322223E1,2.4989614E0,1.2489005E0,1.2492164E0,6.2476187E0,5.172808E1,1.2482439E0,4.4984355E0,7.4966E0,5.245271E0,1.9979914E0,1.7489868E0,1.9988194E0,4.922733E1,1.39949E1,1.2497187E0,4.9979E0],"tree_param":{"num_deleted":"0","num_feature":"38","num_nodes":"39","size_leaf_vector":"1"}},{"base_weights":[8.7156236E-2,3.3321124E-1,-1.0848654E-1,5.2714235E-1,-3.929326E-1,-4.8262708E-2,-7.045366E-2,2.2704901E-1,9.193092E-1,2.7385804E-1,-1.0734133E0,1.910509E-1,-3.303046E-1,-4.9790403E-1,4.623598E-1,1.0639057E0,-3.888202E-2,8.973784E-1,-5.2824613E-2,-1.347012E0,1.1178396E-2,1.0572466E0,-1.3798092E-2,-6.25804E-1,1.9127816E-1,3.4322836E-2,-3.9344314E-2,-4.1010648E-2,2.8721068E-2,6.291931E-2,-6.9651E-4,-1.1849852E-2,6.0630005E-2,-1.6968353E-2,-7.847947E-2,-2.4344716E-3,6.8455786E-2,1.1619232E-2,-5.5692285E-2,-5.5016924E-2,-2.8993639E-3,4.790778E-2,-1.325468E-2],"categories":[],"categories_nodes":[],"categories_segments":[],"categories_sizes":[],"default_left":[0,0,0,0,0,0,0,0,0,0,0,0,0,0,0,0,0,0,0,0,0,0,0,0,0,0,0,0,0,0,0,0,0,0,0,0,0,0,0,0,0,0,0],"id":2,"left_children":[1,3,5,7,9,11,-1,13,15,17,19,21,23,25,27,29,-1,31,-1,33,-1,35,37,39,41,-1,-1,-1,-1,-1,-1,-1,-1,-1,-1,-1,-1,-1,-1,-1,-1,-1,-1],"loss_changes":[7.8260994E0,1.0335347E1,7.0518723E0,6.521734E0,7.4324036E0,5.9969087E0,0E0,5.983514E0,6.8300457E0,8.200328E0,3.1362762E0,8.565823E0,6.395827E0,3.5335612E0,4.2051864E0,4.831421E0,0E0,2.6093593E0,0E0,9.7900105E-1,0E0,3.2502308E0,1.1081121E1,7.003253E0,5.6760855E0,0E0,0E0,0E0,0E0,0E0,0E0,0E0,0E0,0E0,0E0,0E0,0E0,0E0,0E0,0E0,0E0,0E0,0E0],"parents":[2147483647,0,0,1,1,2,2,3,3,4,4,5,5,7,7,8,8,9,9,10,10,11,11,12,12,13,13,14,14,15,15,17,17,19,19,21,21,22,22,23,23,24,24],"right_children":[2,4,6,8,10,12,-1,14,16,18,20,22,24,26,28,30,-1,32,-1,34,-1,36,38,40,42,-1,-1,-1,-1,-1,-1,-1,-1,-1,-1,-1,-1,-1,-1,-1,-1,-1,-1],"split_conditions":[3.2455135E4,6.2598713E1,-2.2540534E-2,1.7490423E1,3.015285E-3,2.3171492E-2,-7.045366E-2,3.8884197E1,3.5277402E4,9.5099045E1,1.4258061E-1,-5.933688E-2,8.511992E-3,-1.0386349E-2,1.5422399E1,1.22842E-1,-3.888202E-2,8.127534E-1,-5.2824613E-2,1.459705E1,1.1178396E-2,-1.8869448E-1,3.0873205E1,2.8415884E1,-1.5453163E-5,3.4322836E-2,-3.9344314E-2,-4.1010648E-2,2.8721068E-2,6.291931E-2,-6.9651E-4,-1.1849852E-2,6.0630005E-2,-1.6968353E-2,-7.847947E-2,-2.4344716E-3,6.8455786E-2,1.1619232E-2,-5.5692285E-2,-5.5016924E-2,-2.8993639E-3,4.790778E-2,-1.325468E-2],"split_indices":[5,14,26,10,36,37,0,16,24,16,37,26,9,35,12,7,0,19,0,10,0,37,12,12,33,0,0,0,0,0,0,0,0,0,0,0,0,0,0,0,0,0,0],"split_type":[0,0,0,0,0,0,0,0,0,0,0,0,0,0,0,0,0,0,0,0,0,0,0,0,0,0,0,0,0,0,0,0,0,0,0,0,0,0,0,0,0,0,0],"sum_hessian":[1.608224E2,7.092219E1,8.9900215E1,5.6189674E1,1.4732512E1,8.691281E1,2.987401E0,3.2726055E1,2.346362E1,7.7429185E0,6.989594E0,4.719245E1,3.972036E1,7.7459965E0,2.4980059E1,2.1965034E1,1.4985844E0,5.493591E0,2.2493277E0,5.7401342E0,1.2494594E0,8.230216E0,3.896224E1,2.5227858E1,1.4492501E1,1.2495265E0,6.49647E0,1.4994272E0,2.348063E1,1.846565E1,3.4993842E0,1.24857E0,4.245021E0,1.4953134E0,4.244821E0,1.9959941E0,6.234222E0,3.2481796E1,6.480441E0,1.3231892E1,1.1995966E1,4.9966793E0,9.495822E0],"tree_param":{"num_deleted":"0","num_feature":"38","num_nodes":"43","size_leaf_vector":"1"}},{"base_weights":[8.197148E-2,3.1594944E-1,-1.0399917E-1,4.2638892E-1,-8.6326635E-1,-4.5922317E-2,-6.811202E-2,5.9787947E-1,1.2987041E-2,-5.669887E-2,1.1855939E-3,1.821831E-1,-3.1471783E-1,1.0367622E0,2.7675644E-1,-7.161397E-2,2.936467E-1,1.014638E0,-1.4236424E-2,-5.9751385E-1,1.84091E-1,1.1242698E-2,6.697406E-2,-4.272345E-2,2.7698934E-2,-1.6613347E-2,3.494143E-2,-2.3532328E-3,6.576239E-2,1.1058388E-2,-5.3451836E-2,-5.8737762E-2,-7.78443E-3,2.070792E-2,-5.8894422E-2],"categories":[],"categories_nodes":[],"categories_segments":[],"categories_sizes":[],"default_left":[0,0,0,0,0,0,0,0,0,0,0,0,0,0,0,0,0,0,0,0,0,0,0,0,0,0,0,0,0,0,0,0,0,0,0],"id":3,"left_children":[1,3,5,7,9,11,-1,13,15,-1,-1,17,19,21,23,-1,25,27,29,31,33,-1,-1,-1,-1,-1,-1,-1,-1,-1,-1,-1,-1,-1,-1],"loss_changes":[7.063846E0,9.719203E0,6.571162E0,4.6942453E0,1.582715E0,5.4412694E0,0E0,6.316681E0,8.7231455E0,0E0,0E0,7.8847594E0,5.8478246E0,4.4752026E0,9.386518E0,0E0,4.789505E0,2.9990702E0,1.0151374E1,6.497737E0,5.3389783E0,0E0,0E0,0E0,0E0,0E0,0E0,0E0,0E0,0E0,0E0,0E0,0E0,0E0,0E0],"parents":[2147483647,0,0,1,1,2,2,3,3,4,4,5,5,7,7,8,8,11,11,12,12,13,13,14,14,16,16,17,17,18,18,19,19,20,20],"right_children":[2,4,6,8,10,12,-1,14,16,-1,-1,18,20,22,24,-1,26,28,30,32,34,-1,-1,-1,-1,-1,-1,-1,-1,-1,-1,-1,-1,-1,-1],"split_conditions":[3.2455135E4,1.275611E-1,-2.2540534E-2,3.396244E4,1.0566075E0,2.3171492E-2,-6.811202E-2,-7.419075E-4,3.4014406E4,-5.669887E-2,1.1855939E-3,-5.933688E-2,8.511992E-3,1.2592207E-2,2.024265E1,-7.161397E-2,4.3388373E-1,-1.8869448E-1,3.0873205E1,2.6750324E1,7.2582597E-1,1.1242698E-2,6.697406E-2,-4.272345E-2,2.7698934E-2,-1.6613347E-2,3.494143E-2,-2.3532328E-3,6.576239E-2,1.1058388E-2,-5.3451836E-2,-5.8737762E-2,-7.78443E-3,2.070792E-2,-5.8894422E-2],"split_indices":[5,7,26,28,19,37,0,36,28,0,0,26,9,21,11,0,2,37,12,12,13,0,0,0,0,0,0,0,0,0,0,0,0,0,0],"split_type":[0,0,0,0,0,0,0,0,0,0,0,0,0,0,0,0,0,0,0,0,0,0,0,0,0,0,0,0,0,0,0,0,0,0,0],"sum_hessian":[1.6058351E2,7.080353E1,8.977999E1,6.532402E1,5.4795094E0,8.68096E1,2.970388E0,4.5855602E1,1.9468414E1,3.9848402E0,1.4946693E0,4.713343E1,3.9676174E1,1.8433609E1,2.7421993E1,2.498588E0,1.6969826E1,8.202855E0,3.8930573E1,2.5194471E1,1.4481703E1,5.4796567E0,1.2953953E1,4.987576E0,2.2434418E1,6.7392225E0,1.0230604E1,1.9961681E0,6.206687E0,3.247362E1,6.456951E0,1.0204067E1,1.4990404E1,1.2984293E1,1.4974099E0],"tree_param":{"num_deleted":"0","num_feature":"38","num_nodes":"35","size_leaf_vector":"1"}},{"base_weights":[7.678111E-2,2.7653724E-1,-1.2364649E-1,3.6306867E-1,-9.2374474E-1,-2.0830283E-2,-7.9935634E-1,5.090663E-1,-4.9252006E-1,4.085889E-4,-7.1132116E-2,1.9558063E-1,-3.9770365E-1,-5.5656433E-2,-1.1906489E0,8.908561E-1,2.5867102E-1,5.3754814E-2,-8.267539E-1,-5.858351E-2,2.6767787E-1,6.601654E-1,-5.876358E-1,-3.464758E-2,3.9624687E-2,-2.0619301E-2,-7.362892E-2,-1.6830673E-2,5.4931838E-2,2.4141267E-2,-2.3269176E-2,1.817271E-2,-5.8031734E-2,2.6167655E-2,-9.043447E-3,-7.4677193E-3,6.1451662E-2,3.412948E-2,-3.70706E-2],"categories":[],"categories_nodes":[],"categories_segments":[],"categories_sizes":[],"default_left":[0,0,0,0,0,0,0,0,0,0,0,0,0,0,0,0,0,0,0,0,0,0,0,0,0,0,0,0,0,0,0,0,0,0,0,0,0,0,0],"id":4,"left_children":[1,3,5,7,9,11,13,15,17,-1,-1,19,21,23,25,27,29,-1,31,-1,33,35,37,-1,-1,-1,-1,-1,-1,-1,-1,-1,-1,-1,-1,-1,-1,-1,-1],"loss_changes":[6.4926353E0,8.7586975E0,5.6254888E0,9.789801E0,2.6783552E0,5.9104114E0,3.047062E0,6.052805E0,6.987484E0,0E0,0E0,4.8577604E0,5.6954403E0,3.1098313E0,9.2011356E-1,6.9048977E0,6.8955746E0,0E0,4.4590735E0,0E0,5.2098513E0,2.2520523E0,4.9838E0,0E0,0E0,0E0,0E0,0E0,0E0,0E0,0E0,0E0,0E0,0E0,0E0,0E0,0E0,0E0,0E0],"parents":[2147483647,0,0,1,1,2,2,3,3,4,4,5,5,6,6,7,7,8,8,11,11,12,12,13,13,14,14,15,15,16,16,18,18,20,20,21,21,22,22],"right_children":[2,4,6,8,10,12,14,16,18,-1,-1,20,22,24,26,28,30,-1,32,-1,34,36,38,-1,-1,-1,-1,-1,-1,-1,-1,-1,-1,-1,-1,-1,-1,-1,-1],"split_conditions":[-8.202863E-3,2.3177119E-1,3.503826E4,3.1235725E1,2.9285756E-1,6.234898E-1,-1.6436715E-3,-2.5538483E-3,-6.172324E-2,4.085889E-4,-7.1132116E-2,-7.1048036E-2,-6.75394E-3,1.3142142E-3,2.1421545E1,-6.228644E-2,2.0447776E-2,5.3754814E-2,-2.4692133E-1,-5.858351E-2,3.015285E-3,6.6098536E-4,-3.951556E-3,-3.464758E-2,3.9624687E-2,-2.0619301E-2,-7.362892E-2,-1.6830673E-2,5.4931838E-2,2.4141267E-2,-2.3269176E-2,1.817271E-2,-5.8031734E-2,2.6167655E-2,-9.043447E-3,-7.4677193E-3,6.1451662E-2,3.412948E-2,-3.70706E-2],"split_indices":[37,23,4,12,13,3,34,35,26,0,0,26,33,31,10,7,9,0,37,0,32,34,31,0,0,0,0,0,0,0,0,0,0,0,0,0,0,0,0],"split_type":[0,0,0,0,0,0,0,0,0,0,0,0,0,0,0,0,0,0,0,0,0,0,0,0,0,0,0,0,0,0,0,0,0,0,0,0,0,0,0],"sum_hessian":[1.6031328E2,8.0100945E1,8.021233E1,7.536519E1,4.7357564E0,7.051376E1,9.698567E0,6.472545E1,1.0639736E1,1.9942373E0,2.7415192E0,4.5098198E1,2.5415565E1,3.737405E0,5.9611626E0,2.4623304E1,4.0102146E1,1.4802941E0,9.159442E0,1.49504E0,4.360316E1,3.4917421E0,2.1923824E1,2.2384393E0,1.4989659E0,2.240105E0,3.7210574E0,3.4749436E0,2.1148361E1,3.0876501E1,9.225647E0,1.9871465E0,7.1722956E0,2.7666348E1,1.5936811E1,1.745411E0,1.7463311E0,1.996169E0,1.9927654E1],"tree_param":{"num_deleted":"0","num_feature":"38","num_nodes":"39","size_leaf_vector":"1"}},{"base_weights":[7.2441675E-2,2.9129678E-1,-1.0154967E-1,4.617429E-1,-4.3083322E-1,-4.571998E-2,-6.576716E-2,5.534723E-1,-5.2445024E-1,2.9315132E-1,-1.0345923E0,-1.2913806E-3,-6.505179E-2,2.6656792E-1,8.341643E-1,3.0768683E-2,-1.0050002E0,-4.124749E-2,7.290624E-1,-7.04028E-2,2.8754994E-3,6.6839063E-1,-1.4319344E-1,-1.8423073E-2,3.3177227E-2,5.505181E-2,6.2250798E-3,-1.0066378E-2,-6.3588075E-2,-9.9255685E-3,5.922215E-2,-3.6949106E-2,4.8492458E-2,-4.6361428E-2,-8.111153E-4],"categories":[],"categories_nodes":[],"categories_segments":[],"categories_sizes":[],"default_left":[0,0,0,0,0,0,0,0,0,0,0,0,0,0,0,0,0,0,0,0,0,0,0,0,0,0,0,0,0,0,0,0,0,0,0],"id":5,"left_children":[1,3,5,7,9,11,-1,13,15,17,19,21,-1,23,25,-1,27,-1,29,-1,-1,31,33,-1,-1,-1,-1,-1,-1,-1,-1,-1,-1,-1,-1],"loss_changes":[6.1635613E0,9.012182E0,6.0714884E0,5.5744495E0,6.5062103E0,4.880587E0,0E0,4.12059E0,3.622426E0,4.1263E0,3.3269758E0,8.225323E0,0E0,7.3380337E0,4.936592E0,0E0,6.52452E-1,0E0,2.6572807E0,0E0,0E0,7.137622E0,7.0942383E0,0E0,0E0,0E0,0E0,0E0,0E0,0E0,0E0,0E0,0E0,0E0,0E0],"parents":[2147483647,0,0,1,1,2,2,3,3,4,4,5,5,7,7,8,8,9,9,10,10,11,11,13,13,14,14,16,16,18,18,21,21,22,22],"right_children":[2,4,6,8,10,12,-1,14,16,18,20,22,-1,24,26,-1,28,-1,30,-1,-1,32,34,-1,-1,-1,-1,-1,-1,-1,-1,-1,-1,-1,-1],"split_conditions":[3.2455135E4,9.2753494E1,-2.2540534E-2,2.3177119E-1,1.1340748E-1,2.4819642E-2,-6.576716E-2,1.7490423E1,3.2716822E-2,1.02147035E-1,8.980501E-3,-5.933688E-2,-6.505179E-2,5.1840897E1,1.5857903E-3,3.0768683E-2,-2.2252093E-1,-4.124749E-2,4.3388373E-1,-7.04028E-2,2.8754994E-3,-7.1048036E-2,-5.3711955E-2,-1.8423073E-2,3.3177227E-2,5.505181E-2,6.2250798E-3,-1.0066378E-2,-6.3588075E-2,-9.9255685E-3,5.922215E-2,-3.6949106E-2,4.8492458E-2,-4.6361428E-2,-8.111153E-4],"split_indices":[5,16,26,23,7,35,0,10,18,13,32,26,0,16,31,0,3,0,2,0,0,26,26,0,0,0,0,0,0,0,0,0,0,0,0],"split_type":[0,0,0,0,0,0,0,0,0,0,0,0,0,0,0,0,0,0,0,0,0,0,0,0,0,0,0,0,0,0,0,0,0,0,0],"sum_hessian":[1.6008609E2,7.060338E1,8.9482704E1,5.74127E1,1.3190678E1,8.653988E1,2.9428244E0,5.2928417E1,4.484285E0,6.2320757E0,6.958602E0,8.454854E1,1.9913445E0,2.7138727E1,2.578969E1,1.2466873E0,3.2375977E0,1.4977951E0,4.7342806E0,4.969787E0,1.988815E0,1.4134239E1,7.04143E1,1.046695E1,1.6671776E1,1.8340986E1,7.4487042E0,1.2441254E0,1.9934722E0,1.7446482E0,2.9896324E0,2.2374144E0,1.1896825E1,8.935534E0,6.1478764E1],"tree_param":{"num_deleted":"0","num_feature":"38","num_nodes":"35","size_leaf_vector":"1"}},{"base_weights":[6.774599E-2,2.5641236E-1,-1.21110424E-1,3.3775198E-1,-8.718072E-1,-2.3654442E-2,-7.6284546E-1,4.7587082E-1,-4.7389883E-1,5.06598E-4,-6.731235E-2,1.814286E-1,-3.8064384E-1,-4.721301E-2,-1.1411142E0,5.495185E-1,-5.857693E-1,5.1145222E-2,-7.914669E-1,-5.5741794E-2,2.4977766E-1,6.3299555E-1,-5.626221E-1,-3.3221345E-2,3.8475372E-2,-9.063138E-3,-6.595349E-2,4.5861475E-2,1.5765704E-2,1.6104212E-2,-5.5134334E-2,1.6946888E-2,-5.5474825E-2,4.861888E-3,4.9778428E-2,-7.7463286E-3,5.955081E-2,3.2889746E-2,-3.5532735E-2],"categories":[],"categories_nodes":[],"categories_segments":[],"categories_sizes":[],"default_left":[0,0,0,0,0,0,0,0,0,0,0,0,0,0,0,0,0,0,0,0,0,0,0,0,0,0,0,0,0,0,0,0,0,0,0,0,0,0,0],"id":6,"left_children":[1,3,5,7,9,11,13,15,17,-1,-1,19,21,23,25,27,29,-1,31,-1,33,35,37,-1,-1,-1,-1,-1,-1,-1,-1,-1,-1,-1,-1,-1,-1,-1,-1],"loss_changes":[5.7609997E0,7.706484E0,5.050635E0,8.751906E0,2.4031482E0,5.2958894E0,2.829958E0,5.442855E0,6.305256E0,0E0,0E0,4.3558373E0,5.22068E0,2.8941262E0,9.439697E-1,5.0298023E0,2.5762167E0,0E0,4.007658E0,0E0,4.969369E0,2.1562366E0,4.6023183E0,0E0,0E0,0E0,0E0,0E0,0E0,0E0,0E0,0E0,0E0,0E0,0E0,0E0,0E0,0E0,0E0],"parents":[2147483647,0,0,1,1,2,2,3,3,4,4,5,5,6,6,7,7,8,8,11,11,12,12,13,13,14,14,15,15,16,16,18,18,20,20,21,21,22,22],"right_children":[2,4,6,8,10,12,14,16,18,-1,-1,20,22,24,26,28,30,-1,32,-1,34,36,38,-1,-1,-1,-1,-1,-1,-1,-1,-1,-1,-1,-1,-1,-1,-1,-1],"split_conditions":[-8.202863E-3,2.3177119E-1,3.503826E4,3.1235725E1,2.9285756E-1,6.234898E-1,-1.6436715E-3,1.2686889E-1,-6.172324E-2,5.06598E-4,-6.731235E-2,-7.1048036E-2,-6.75394E-3,1.3142142E-3,6.1013278E-2,-2.5538483E-3,-2.3549679E-3,5.1145222E-2,-2.4692133E-1,-5.5741794E-2,1.0883063E-2,6.6098536E-4,-3.951556E-3,-3.3221345E-2,3.8475372E-2,-9.063138E-3,-6.595349E-2,4.5861475E-2,1.5765704E-2,1.6104212E-2,-5.5134334E-2,1.6946888E-2,-5.5474825E-2,4.861888E-3,4.9778428E-2,-7.7463286E-3,5.955081E-2,3.2889746E-2,-3.5532735E-2],"split_indices":[37,23,4,12,13,3,34,18,26,0,0,26,33,31,37,35,34,0,37,0,35,34,31,0,0,0,0,0,0,0,0,0,0,0,0,0,0,0,0],"split_type":[0,0,0,0,0,0,0,0,0,0,0,0,0,0,0,0,0,0,0,0,0,0,0,0,0,0,0,0,0,0,0,0,0,0,0,0,0,0,0],"sum_hessian":[1.5981416E2,7.9768364E1,8.00458E1,7.505767E1,4.710692E0,7.039261E1,9.653192E0,6.4496056E1,1.0561612E1,1.9900393E0,2.7206526E0,4.5020844E1,2.5371763E1,3.7270117E0,5.92618E0,6.0763203E1,3.7328553E0,1.4598414E0,9.10177E0,1.4880738E0,4.3532772E1,3.484468E0,2.1887297E1,2.2289865E0,1.4980253E0,1.242579E0,4.683601E0,2.2508125E1,3.8255077E1,1.4910544E0,2.241801E0,1.9840208E0,7.1177497E0,3.7079185E1,6.453587E0,1.74413E0,1.740338E0,1.9951563E0,1.989214E1],"tree_param":{"num_deleted":"0","num_feature":"38","num_nodes":"39","size_leaf_vector":"1"}},{"base_weights":[6.4153545E-2,2.0881125E-1,-1.707742E-1,3.233838E-1,-3.6262065E-1,-1.3183669E0,-4.677618E-2,-2.908976E-1,4.8226783E-1,5.204874E-2,-6.713342E-1,-7.765835E-2,-1.1789855E-2,3.4728736E-2,-6.190266E-2,-6.9826186E-1,5.358149E-1,5.234111E-1,-3.9542865E-2,-8.31397E-1,2.931245E-2,1.4516447E-1,-9.830754E-1,2.945065E-2,-4.4592503E-2,6.4885296E-2,-1.3002569E-2,-1.36161065E-2,2.9485315E-2,1.7950002E-2,-5.3438623E-2,1.16937915E-2,-4.6783276E-2,-7.0207044E-2,1.2814674E-2],"categories":[],"categories_nodes":[],"categories_segments":[],"categories_sizes":[],"default_left":[0,0,0,0,0,0,0,0,0,0,0,0,0,0,0,0,0,0,0,0,0,0,0,0,0,0,0,0,0,0,0,0,0,0,0],"id":7,"left_children":[1,3,5,7,9,11,13,15,17,-1,19,-1,-1,21,-1,23,25,27,-1,29,-1,31,33,-1,-1,-1,-1,-1,-1,-1,-1,-1,-1,-1,-1],"loss_changes":[5.489916E0,6.6499567E0,8.720118E0,8.303959E0,8.124122E0,1.1541014E0,5.5514207E0,6.3729296E0,3.9146395E0,0E0,3.437276E0,0E0,0E0,6.220519E0,0E0,3.607153E0,4.245893E0,3.6075745E0,0E0,4.173977E0,0E0,4.979432E0,3.189067E0,0E0,0E0,0E0,0E0,0E0,0E0,0E0,0E0,0E0,0E0,0E0,0E0],"parents":[2147483647,0,0,1,1,2,2,3,3,4,4,5,5,6,6,7,7,8,8,10,10,13,13,15,15,16,16,17,17,19,19,21,21,22,22],"right_children":[2,4,6,8,10,12,14,16,18,-1,20,-1,-1,22,-1,24,26,28,-1,30,-1,32,34,-1,-1,-1,-1,-1,-1,-1,-1,-1,-1,-1,-1],"split_conditions":[3.533677E4,9.234776E1,3.5395355E4,-7.2788686E-2,6.550136E-2,2.2073759E-1,-2.2053791E-2,6.391438E-2,3.0975246E4,5.204874E-2,1.5258167E-2,-7.765835E-2,-1.1789855E-2,3.5017746E4,-6.190266E-2,2.930728E4,3.0526625E4,-1.6426578E-2,-3.9542865E-2,3.329841E-2,2.931245E-2,3.5758598E4,6.234898E-1,2.945065E-2,-4.4592503E-2,6.4885296E-2,-1.3002569E-2,-1.36161065E-2,2.9485315E-2,1.7950002E-2,-5.3438623E-2,1.16937915E-2,-4.6783276E-2,-7.0207044E-2,1.2814674E-2],"split_indices":[24,16,24,7,23,23,26,27,22,0,35,0,0,5,0,28,22,32,0,27,0,4,3,0,0,0,0,0,0,0,0,0,0,0,0],"split_type":[0,0,0,0,0,0,0,0,0,0,0,0,0,0,0,0,0,0,0,0,0,0,0,0,0,0,0,0,0,0,0,0,0,0,0],"sum_hessian":[1.5949432E2,9.878081E1,6.0713512E1,8.2644585E1,1.6136227E1,4.981152E0,5.573236E1,1.6812557E1,6.583202E1,2.4815676E0,1.3654658E1,3.7361171E0,1.245035E0,5.3072113E1,2.660246E0,1.1366879E1,5.4456778E0,6.434159E1,1.4904339E0,1.2413575E1,1.2410835E0,4.8650696E1,4.4214168E0,1.2189305E0,1.0147949E1,2.46007E0,2.9856079E0,4.709255E0,5.9632336E1,1.9786439E0,1.0434931E1,4.568465E1,2.966047E0,3.2009664E0,1.2204505E0],"tree_param":{"num_deleted":"0","num_feature":"38","num_nodes":"35","size_leaf_vector":"1"}},{"base_weights":[5.9891034E-2,1.9935852E-1,-1.6644417E-1,3.0794418E-1,-3.4266606E-1,-1.2697763E0,-4.7251176E-2,-2.7486828E-1,4.5858732E-1,5.036136E-2,-6.395558E-1,-7.4773096E-2,-1.1462266E-2,3.1287596E-2,-6.017825E-2,-6.656748E-1,5.18648E-1,4.9834767E-1,-3.8377892E-2,-2.356335E-1,-1.2285895E0,1.3724132E-1,-9.4883996E-1,2.8681451E-2,-4.2629495E-2,6.2924534E-2,-1.25152245E-2,-1.1536271E-2,2.8429916E-2,-6.0420986E-2,7.93372E-3,-9.880126E-3,-7.344329E-2,1.1123569E-2,-4.5128793E-2,-6.7934655E-2,1.24602625E-2],"categories":[],"categories_nodes":[],"categories_segments":[],"categories_sizes":[],"default_left":[0,0,0,0,0,0,0,0,0,0,0,0,0,0,0,0,0,0,0,0,0,0,0,0,0,0,0,0,0,0,0,0,0,0,0,0,0],"id":8,"left_children":[1,3,5,7,9,11,13,15,17,-1,19,-1,-1,21,-1,23,25,27,-1,29,31,33,35,-1,-1,-1,-1,-1,-1,-1,-1,-1,-1,-1,-1,-1,-1],"loss_changes":[5.0907774E0,5.966964E0,8.045122E0,7.4566164E0,7.495172E0,1.059185E0,5.183371E0,5.8571963E0,3.635274E0,0E0,3.1899824E0,0E0,0E0,5.741356E0,0E0,3.3491554E0,3.9714756E0,3.4722023E0,0E0,3.994009E0,1.1246595E0,4.5995984E0,2.9888978E0,0E0,0E0,0E0,0E0,0E0,0E0,0E0,0E0,0E0,0E0,0E0,0E0,0E0,0E0],"parents":[2147483647,0,0,1,1,2,2,3,3,4,4,5,5,6,6,7,7,8,8,10,10,13,13,15,15,16,16,17,17,19,19,20,20,21,21,22,22],"right_children":[2,4,6,8,10,12,14,16,18,-1,20,-1,-1,22,-1,24,26,28,-1,30,32,34,36,-1,-1,-1,-1,-1,-1,-1,-1,-1,-1,-1,-1,-1,-1],"split_conditions":[3.533677E4,9.234776E1,3.5395355E4,-7.2788686E-2,6.550136E-2,2.2073759E-1,-2.2053791E-2,6.391438E-2,3.0975246E4,5.036136E-2,7.472369E-2,-7.4773096E-2,-1.1462266E-2,3.5017746E4,-6.017825E-2,2.930728E4,3.0526625E4,3.1472937E2,-3.8377892E-2,3.0839605E4,8.607226E1,3.5758598E4,6.234898E-1,2.8681451E-2,-4.2629495E-2,6.2924534E-2,-1.25152245E-2,-1.1536271E-2,2.8429916E-2,-6.0420986E-2,7.93372E-3,-9.880126E-3,-7.344329E-2,1.1123569E-2,-4.5128793E-2,-6.7934655E-2,1.24602625E-2],"split_indices":[24,16,24,7,23,23,26,27,22,0,18,0,0,5,0,28,22,20,0,8,17,4,3,0,0,0,0,0,0,0,0,0,0,0,0,0,0],"split_type":[0,0,0,0,0,0,0,0,0,0,0,0,0,0,0,0,0,0,0,0,0,0,0,0,0,0,0,0,0,0,0,0,0,0,0,0,0],"sum_hessian":[1.5922083E2,9.858936E1,6.0631462E1,8.249477E1,1.6094599E1,4.9702554E0,5.5661205E1,1.6774084E1,6.572068E1,2.4702613E0,1.3624338E1,3.7250922E0,1.2451632E0,5.303212E1,2.6290884E0,1.1346866E1,5.4272194E0,6.423141E1,1.4892726E0,8.912642E0,4.711696E0,4.8634598E1,4.39752E0,1.2159332E0,1.0130932E1,2.4415085E0,2.985711E0,5.4443827E0,5.8787025E1,1.9751481E0,6.937494E0,1.2349827E0,3.4767137E0,4.5676693E1,2.957906E0,3.1766806E0,1.2208393E0],"tree_param":{"num_deleted":"0","num_feature":"38","num_nodes":"37","size_leaf_vector":"1"}},{"base_weights":[5.5086106E-2,2.2880289E-1,-1.18351944E-1,3.0744267E-1,-8.553758E-1,3.4998938E-1,-2.4063794E-1,4.3661278E-1,-4.5421717E-1,1.0547315E-2,-6.0010195E-2,6.2107754E-1,-3.023168E-1,-6.18439E-1,1.3542525E-1,7.810745E-1,2.1265133E-1,4.8755568E-2,-7.5560665E-1,-4.9202796E-2,1.2984372E0,-9.8015827E-1,3.9789535E-2,-1.2835044E0,-3.7995166E-1,7.3476416E-1,-2.0093735E-1,-1.7618306E-2,4.8821278E-2,2.0919977E-2,-2.2360394E-2,1.6567321E-2,-5.320207E-2,5.346585E-2,-2.3129117E-2,7.714688E-2,8.736008E-3,-6.250415E-2,-1.041829E-2,-7.726472E-2,-1.566868E-2,-8.156697E-3,-5.2864946E-2,-3.1636376E-2,6.748118E-2,3.1991977E-2,-2.4893798E-2],"categories":[],"categories_nodes":[],"categories_segments":[],"categories_sizes":[],"default_left":[0,0,0,0,0,0,0,0,0,0,0,0,0,0,0,0,0,0,0,0,0,0,0,0,0,0,0,0,0,0,0,0,0,0,0,0,0,0,0,0,0,0,0,0,0,0,0],"id":9,"left_children":[1,3,5,7,9,11,13,15,17,-1,-1,19,21,23,25,27,29,-1,31,33,35,37,-1,39,41,43,45,-1,-1,-1,-1,-1,-1,-1,-1,-1,-1,-1,-1,-1,-1,-1,-1,-1,-1,-1,-1],"loss_changes":[4.844508E0,7.1027727E0,4.7043033E0,7.629572E0,2.345296E0,3.2133005E0,9.256261E0,4.855419E0,5.666027E0,0E0,0E0,5.70011E0,5.0194874E0,4.6489477E0,6.8355255E0,5.939764E0,5.7288847E0,0E0,3.7095518E0,3.8251698E0,1.436861E0,5.6654E-1,0E0,1.5798616E0,3.5369136E0,1.1061697E1,5.8196764E0,0E0,0E0,0E0,0E0,0E0,0E0,0E0,0E0,0E0,0E0,0E0,0E0,0E0,0E0,0E0,0E0,0E0,0E0,0E0,0E0],"parents":[2147483647,0,0,1,1,2,2,3,3,4,4,5,5,6,6,7,7,8,8,11,11,12,12,13,13,14,14,15,15,16,16,18,18,19,19,20,20,21,21,23,23,24,24,25,25,26,26],"right_children":[2,4,6,8,10,12,14,16,18,-1,-1,20,22,24,26,28,30,-1,32,34,36,38,-1,40,42,44,46,-1,-1,-1,-1,-1,-1,-1,-1,-1,-1,-1,-1,-1,-1,-1,-1,-1,-1,-1,-1],"split_conditions":[-8.202863E-3,2.3177119E-1,-5.8598304E-3,3.1235725E1,3.280278E-2,2.8101935E-3,1.5385835E-3,-2.5538483E-3,-6.172324E-2,1.0547315E-2,-6.0010195E-2,-6.1701005E-3,-7.8121456E-3,3.51624E-2,3.2308314E-2,-6.228644E-2,2.0447776E-2,4.8755568E-2,-2.4692133E-1,-5.579912E0,3.5740612E1,2.8619977E-2,3.9789535E-2,2.5938708E-1,-6.10302E-4,-2.110646E-3,-7.1684807E-3,-1.7618306E-2,4.8821278E-2,2.0919977E-2,-2.2360394E-2,1.6567321E-2,-5.320207E-2,5.346585E-2,-2.3129117E-2,7.714688E-2,8.736008E-3,-6.250415E-2,-1.041829E-2,-7.726472E-2,-1.566868E-2,-8.156697E-3,-5.2864946E-2,-3.1636376E-2,6.748118E-2,3.1991977E-2,-2.4893798E-2],"split_indices":[37,23,33,12,18,32,35,35,26,0,0,32,33,18,27,7,9,0,37,15,16,7,0,37,35,36,36,0,0,0,0,0,0,0,0,0,0,0,0,0,0,0,0,0,0,0,0],"split_type":[0,0,0,0,0,0,0,0,0,0,0,0,0,0,0,0,0,0,0,0,0,0,0,0,0,0,0,0,0,0,0,0,0,0,0,0,0,0,0,0,0,0,0,0,0,0,0],"sum_hessian":[1.5889288E2,7.922317E1,7.9669716E1,7.4533394E1,4.6897745E0,1.6109629E1,6.3560085E1,6.409095E1,1.0442442E1,1.2408653E0,3.448909E0,1.1414018E1,4.695611E0,3.138527E1,3.2174816E1,2.4272041E1,3.9818913E1,1.4291872E0,9.013255E0,6.203105E0,5.2109127E0,2.9698122E0,1.7257988E0,7.1273904E0,2.425788E1,1.1140307E1,2.1034508E1,3.4501674E0,2.0821875E1,3.0633213E1,9.1857E0,1.9758589E0,7.0373955E0,1.2457081E0,4.957397E0,3.9733238E0,1.2375891E0,1.7411524E0,1.2286596E0,5.145897E0,1.9814935E0,1.9315775E1,4.9421043E0,3.4463394E0,7.693969E0,5.1885176E0,1.584599E1],"tree_param":{"num_deleted":"0","num_feature":"38","num_nodes":"47","size_leaf_vector":"1"}},{"base_weights":[5.226376E-2,1.8532953E-1,-1.6359855E-1,2.876659E-1,-3.254598E-1,-1.2171822E0,-4.980886E-2,-2.5870687E-1,4.2884368E-1,4.8044812E-2,-6.075235E-1,-7.1626015E-2,-1.1170547E-2,2.476871E-2,-5.7962734E-2,-6.299319E-1,4.9520963E-1,4.6701762E-1,-3.713342E-2,-2.601776E-1,-6.3993655E-2,1.2365383E-1,-8.974339E-1,2.7729565E-2,-4.0444545E-2,6.074859E-2,-1.2287907E-2,-2.398993E-2,2.5804231E-2,-3.520733E-2,4.4085797E-2,1.2080907E-2,-3.0264584E-2,-6.4650975E-2,1.2258413E-2],"categories":[],"categories_nodes":[],"categories_segments":[],"categories_sizes":[],"default_left":[0,0,0,0,0,0,0,0,0,0,0,0,0,0,0,0,0,0,0,0,0,0,0,0,0,0,0,0,0,0,0,0,0,0,0],"id":10,"left_children":[1,3,5,7,9,11,13,15,17,-1,19,-1,-1,21,-1,23,25,27,-1,29,-1,31,33,-1,-1,-1,-1,-1,-1,-1,-1,-1,-1,-1,-1],"loss_changes":[4.610455E0,5.2745466E0,7.293218E0,6.5210633E0,6.7563915E0,9.503355E-1,4.6955166E0,5.262168E0,3.3169727E0,0E0,3.068582E0,0E0,0E0,5.0198255E0,0E0,3.0542345E0,3.7094855E0,3.2642155E0,0E0,6.126021E0,0E0,4.402361E0,2.7280197E0,0E0,0E0,0E0,0E0,0E0,0E0,0E0,0E0,0E0,0E0,0E0,0E0],"parents":[2147483647,0,0,1,1,2,2,3,3,4,4,5,5,6,6,7,7,8,8,10,10,13,13,15,15,16,16,17,17,19,19,21,21,22,22],"right_children":[2,4,6,8,10,12,14,16,18,-1,20,-1,-1,22,-1,24,26,28,-1,30,-1,32,34,-1,-1,-1,-1,-1,-1,-1,-1,-1,-1,-1,-1],"split_conditions":[3.533677E4,9.234776E1,3.5395355E4,-7.2788686E-2,6.550136E-2,9.749279E-1,-2.2053791E-2,6.391438E-2,3.0975246E4,4.8044812E-2,4.8167093E2,-7.1626015E-2,-1.1170547E-2,3.5017746E4,-5.7962734E-2,2.930728E4,3.0526625E4,2.58322E4,-3.713342E-2,4.172158E2,-6.3993655E-2,3.706915E4,6.234898E-1,2.7729565E-2,-4.0444545E-2,6.074859E-2,-1.2287907E-2,-2.398993E-2,2.5804231E-2,-3.520733E-2,4.4085797E-2,1.2080907E-2,-3.0264584E-2,-6.4650975E-2,1.2258413E-2],"split_indices":[24,16,24,7,23,2,26,27,22,0,20,0,0,5,0,28,22,22,0,20,0,24,3,0,0,0,0,0,0,0,0,0,0,0,0],"split_type":[0,0,0,0,0,0,0,0,0,0,0,0,0,0,0,0,0,0,0,0,0,0,0,0,0,0,0,0,0,0,0,0,0,0,0],"sum_hessian":[1.584539E2,9.811408E1,6.033982E1,8.210184E1,1.601224E1,4.9364305E0,5.540339E1,1.6687395E1,6.5414444E1,2.4468186E0,1.356542E1,3.6944E0,1.2420306E0,5.2829815E1,2.573575E0,1.1291811E1,5.395583E0,6.393255E1,1.4818981E0,9.859053E0,3.7063673E0,4.8495678E1,4.3341365E0,1.2065709E0,1.008524E1,2.4124577E0,2.9831254E0,2.717434E0,6.1215115E1,7.3749995E0,2.4840534E0,4.231623E1,6.1794443E0,3.1217105E0,1.2124261E0],"tree_param":{"num_deleted":"0","num_feature":"38","num_nodes":"35","size_leaf_vector":"1"}},{"base_weights":[4.8388816E-2,-5.656194E-1,9.3779124E-2,2.8996373E-2,-8.767913E-1,1.2700999E-1,-9.368984E-1,-1.0801759E0,1.1769521E-2,1.6640706E-1,-7.0600104E-1,-5.9456985E-2,-4.7183963E-3,-1.324362E-3,-7.115937E-2,1.9464497E-1,-8.553603E-1,1.7388262E-2,-5.9753586E-2,1.4269972E-2,-8.354203E-3,-3.9890944E-3,-5.8552276E-2],"categories":[],"categories_nodes":[],"categories_segments":[],"categories_sizes":[],"default_left":[0,0,0,0,0,0,0,0,0,0,0,0,0,0,0,0,0,0,0,0,0,0,0],"id":11,"left_children":[1,3,5,-1,7,9,11,13,-1,15,17,-1,-1,-1,-1,19,21,-1,-1,-1,-1,-1,-1],"loss_changes":[4.4862337E0,4.4622517E0,5.2214336E0,0E0,2.317327E0,4.882763E0,9.020548E-1,2.813755E0,0E0,4.190109E0,3.8932624E0,0E0,0E0,0E0,0E0,4.529393E0,8.701923E-1,0E0,0E0,0E0,0E0,0E0,0E0],"parents":[2147483647,0,0,1,1,2,2,4,4,5,5,6,6,7,7,9,9,10,10,15,15,16,16],"right_children":[2,4,6,-1,8,10,12,14,-1,16,18,-1,-1,-1,-1,20,22,-1,-1,-1,-1,-1,-1],"split_conditions":[1.4508841E1,3.245279E-3,-2.240939E-2,2.8996373E-2,-2.5094943E-2,3.5017582E4,7.4134326E-1,9.501054E-2,1.1769521E-2,3.5758598E4,-1.689098E-2,-5.9456985E-2,-4.7183963E-3,-1.324362E-3,-7.115937E-2,5.375588E-2,-4.4085723E-3,1.7388262E-2,-5.9753586E-2,1.4269972E-2,-8.354203E-3,-3.9890944E-3,-5.8552276E-2],"split_indices":[12,7,26,0,26,5,19,23,0,4,9,0,0,0,0,27,35,0,0,0,0,0,0],"split_type":[0,0,0,0,0,0,0,0,0,0,0,0,0,0,0,0,0,0,0,0,0,0,0],"sum_hessian":[1.5806665E2,1.0091719E1,1.4797493E2,1.9712137E0,8.120505E0,1.4420236E2,3.7725694E0,6.8894157E0,1.2310892E0,1.3845442E2,5.747937E0,2.5867448E0,1.1858244E0,1.9565027E0,4.932913E0,1.3551868E2,2.9357367E0,1.9136518E0,3.8342853E0,1.0850643E2,2.7012249E1,1.2116559E0,1.7240809E0],"tree_param":{"num_deleted":"0","num_feature":"38","num_nodes":"23","size_leaf_vector":"1"}},{"base_weights":[4.477954E-2,2.0813014E-1,-1.17942885E-1,2.8428236E-1,-8.366256E-1,3.2730114E-1,-2.3411244E-1,4.0546623E-1,-4.3288028E-1,9.470548E-3,-5.8339547E-2,5.86534E-1,-2.9646066E-1,-5.8966225E-1,1.1932248E-1,4.7011355E-1,-6.3012815E-1,4.706586E-2,-7.218767E-1,-5.167975E-2,1.2335317E0,-9.3760765E-1,3.739832E-2,-9.7051007E-1,-2.0324299E-1,6.936685E-1,-2.0192017E-1,2.6161728E-2,-4.2886365E-2,-6.1488517E-2,7.473645E-3,-2.1521207E-3,-6.239254E-2,5.1304113E-2,-2.2454672E-2,7.357345E-2,7.754939E-3,-6.0005456E-2,-9.6129645E-3,-5.6186605E-2,9.190052E-3,2.2210674E-2,-2.903339E-2,-3.0611886E-2,6.420326E-2,2.9901689E-2,-2.4166305E-2],"categories":[],"categories_nodes":[],"categories_segments":[],"categories_sizes":[],"default_left":[0,0,0,0,0,0,0,0,0,0,0,0,0,0,0,0,0,0,0,0,0,0,0,0,0,0,0,0,0,0,0,0,0,0,0,0,0,0,0,0,0,0,0,0,0,0,0],"id":12,"left_children":[1,3,5,7,9,11,13,15,17,-1,-1,19,21,23,25,27,29,-1,31,33,35,37,-1,39,41,43,45,-1,-1,-1,-1,-1,-1,-1,-1,-1,-1,-1,-1,-1,-1,-1,-1,-1,-1,-1,-1],"loss_changes":[4.2477775E0,6.574828E0,4.2265654E0,6.692368E0,2.140047E0,2.9258518E0,8.139689E0,4.625269E0,5.176243E0,0E0,0E0,5.1667542E0,4.4919224E0,4.5384865E0,6.2350416E0,4.7822294E0,2.1597078E0,0E0,3.488698E0,3.5366178E0,1.3568201E0,5.4236126E-1,0E0,3.0260725E0,4.47026E0,1.0095767E1,5.232415E0,0E0,0E0,0E0,0E0,0E0,0E0,0E0,0E0,0E0,0E0,0E0,0E0,0E0,0E0,0E0,0E0,0E0,0E0,0E0,0E0],"parents":[2147483647,0,0,1,1,2,2,3,3,4,4,5,5,6,6,7,7,8,8,11,11,12,12,13,13,14,14,15,15,16,16,18,18,19,19,20,20,21,21,23,23,24,24,25,25,26,26],"right_children":[2,4,6,8,10,12,14,16,18,-1,-1,20,22,24,26,28,30,-1,32,34,36,38,-1,40,42,44,46,-1,-1,-1,-1,-1,-1,-1,-1,-1,-1,-1,-1,-1,-1,-1,-1,-1,-1,-1,-1],"split_conditions":[-8.202863E-3,2.3177119E-1,-5.8598304E-3,3.1235725E1,3.280278E-2,2.8101935E-3,1.5385835E-3,9.605293E1,-6.172324E-2,9.470548E-3,-5.8339547E-2,-6.1701005E-3,-7.8121456E-3,3.517523E-2,3.2308314E-2,2.4819642E-2,6.234898E-1,4.706586E-2,3.0095627E4,-5.579912E0,3.5740612E1,2.8619977E-2,3.739832E-2,2.8415884E1,7.818585E-2,-2.110646E-3,-7.1684807E-3,2.6161728E-2,-4.2886365E-2,-6.1488517E-2,7.473645E-3,-2.1521207E-3,-6.239254E-2,5.1304113E-2,-2.2454672E-2,7.357345E-2,7.754939E-3,-6.0005456E-2,-9.6129645E-3,-5.6186605E-2,9.190052E-3,2.2210674E-2,-2.903339E-2,-3.0611886E-2,6.420326E-2,2.9901689E-2,-2.4166305E-2],"split_indices":[37,23,33,12,18,32,35,17,26,0,0,32,33,27,27,33,3,0,22,15,16,7,0,12,37,36,36,0,0,0,0,0,0,0,0,0,0,0,0,0,0,0,0,0,0,0,0],"split_type":[0,0,0,0,0,0,0,0,0,0,0,0,0,0,0,0,0,0,0,0,0,0,0,0,0,0,0,0,0,0,0,0,0,0,0,0,0,0,0,0,0,0,0,0,0,0,0],"sum_hessian":[1.578827E2,7.865001E1,7.923269E1,7.398514E1,4.6648784E0,1.6019018E1,6.321367E1,6.3662304E1,1.032283E1,1.2394435E0,3.4254346E0,1.1358256E1,4.660763E0,3.117936E1,3.203431E1,6.0435635E1,3.2266688E0,1.4014843E0,8.921347E0,6.181149E0,5.1771073E0,2.9513068E0,1.709456E0,1.4941622E1,1.6237738E1,1.1074682E1,2.0959625E1,5.869352E1,1.7421149E0,1.4974481E0,1.7292207E0,4.3670125E0,4.5543337E0,1.2390418E0,4.942107E0,3.9427564E0,1.2343508E0,1.7313997E0,1.2199072E0,1.3214088E1,1.7275331E0,5.9145746E0,1.0323164E1,3.4364848E0,7.638198E0,5.161588E0,1.5798037E1],"tree_param":{"num_deleted":"0","num_feature":"38","num_nodes":"47","size_leaf_vector":"1"}},{"base_weights":[4.2214986E-2,7.477646E-2,-7.513526E-1,3.0654985E-1,-9.554717E-2,-9.917756E-1,1.4047481E-3,5.9542686E-1,1.1621986E-1,3.9510188E-1,-2.0272619E-1,-6.3135065E-2,-4.576204E-3,8.1816316E-2,1.0274574E0,2.4556226E-1,-1.060624E0,6.1454356E-1,-5.38863E-2,-8.678468E-1,-9.716391E-2,-1.3494578E-2,4.367135E-2,2.1455497E-2,6.5176144E-2,-2.7744401E-2,1.9966284E-2,-6.6242E-2,-1.1410186E-2,-3.0337935E-2,4.3741867E-2,-6.134053E-2,-6.7978413E-3,-2.0482322E-2,9.415966E-3],"categories":[],"categories_nodes":[],"categories_segments":[],"categories_sizes":[],"default_left":[0,0,0,0,0,0,0,0,0,0,0,0,0,0,0,0,0,0,0,0,0,0,0,0,0,0,0,0,0,0,0,0,0,0,0],"id":13,"left_children":[1,3,5,7,9,11,-1,13,15,17,19,-1,-1,21,23,25,27,29,-1,31,33,-1,-1,-1,-1,-1,-1,-1,-1,-1,-1,-1,-1,-1,-1],"loss_changes":[4.1488805E0,6.0713425E0,1.2147043E0,3.508459E0,4.759563E0,1.0717039E0,0E0,5.5968313E0,6.4203253E0,5.927994E0,5.089741E0,0E0,0E0,3.7947273E0,1.7232494E0,4.8091125E0,6.2036705E-1,5.240949E0,0E0,2.451954E0,5.851135E0,0E0,0E0,0E0,0E0,0E0,0E0,0E0,0E0,0E0,0E0,0E0,0E0,0E0,0E0],"parents":[2147483647,0,0,1,1,2,2,3,3,4,4,5,5,7,7,8,8,9,9,10,10,13,13,14,14,15,15,16,16,17,17,19,19,20,20],"right_children":[2,4,6,8,10,12,-1,14,16,18,20,-1,-1,22,24,26,28,30,-1,32,34,-1,-1,-1,-1,-1,-1,-1,-1,-1,-1,-1,-1,-1,-1],"split_conditions":[1.275611E-1,3.2455135E4,6.351459E-3,-1.1054004E-3,-5.933688E-2,5.0211245E-1,1.4047481E-3,1.2592207E-2,1.1324381E-2,2.4819642E-2,-5.3711955E-2,-6.3135065E-2,-4.576204E-3,9.749279E-1,-9.697118E-4,1.9980076E1,1.6338307E-1,-7.1048036E-2,-5.38863E-2,5.48553E-3,6.1036672E-2,-1.3494578E-2,4.367135E-2,2.1455497E-2,6.5176144E-2,-2.7744401E-2,1.9966284E-2,-6.6242E-2,-1.1410186E-2,-3.0337935E-2,4.3741867E-2,-6.134053E-2,-6.7978413E-3,-2.0482322E-2,9.415966E-3],"split_indices":[7,5,35,36,26,13,0,21,33,35,26,0,0,2,33,11,23,26,0,36,18,0,0,0,0,0,0,0,0,0,0,0,0,0,0],"split_type":[0,0,0,0,0,0,0,0,0,0,0,0,0,0,0,0,0,0,0,0,0,0,0,0,0,0,0,0,0,0,0,0,0,0,0],"sum_hessian":[1.5738774E2,1.5205446E2,5.33329E0,6.406971E1,8.798475E1,3.8678365E0,1.4654539E0,2.460167E1,3.9468044E1,1.529235E1,7.26924E1,2.6636238E0,1.2042125E0,1.1783031E1,1.2818637E1,3.6272778E1,3.1952639E0,1.38165245E1,1.4758258E0,8.967749E0,6.3724648E1,8.614653E0,3.1683788E0,4.853494E0,7.9651427E0,5.4246774E0,3.08481E1,1.9763919E0,1.2188721E0,2.193506E0,1.1623018E1,5.56306E0,3.4046884E0,3.0216036E1,3.3508614E1],"tree_param":{"num_deleted":"0","num_feature":"38","num_nodes":"35","size_leaf_vector":"1"}},{"base_weights":[3.923498E-2,-5.3974175E-1,8.207138E-2,2.7656237E-2,-8.372752E-1,1.1315395E-1,-8.912307E-1,-1.036862E0,1.21195605E-2,1.5015052E-1,-6.7526096E-1,-5.713552E-2,-3.5604637E-3,-6.1771506E-4,-6.867235E-2,1.7675613E-1,-8.126182E-1,1.6490804E-2,-5.7158954E-2,1.3133543E-2,-8.269458E-3,-2.987652E-3,-5.629025E-2],"categories":[],"categories_nodes":[],"categories_segments":[],"categories_sizes":[],"default_left":[0,0,0,0,0,0,0,0,0,0,0,0,0,0,0,0,0,0,0,0,0,0,0],"id":14,"left_children":[1,3,5,-1,7,9,11,13,-1,15,17,-1,-1,-1,-1,19,21,-1,-1,-1,-1,-1,-1],"loss_changes":[3.9635265E0,4.0458655E0,4.578462E0,0E0,2.2032685E0,4.310835E0,8.8641524E-1,2.6846323E0,0E0,3.6955116E0,3.5046563E0,0E0,0E0,0E0,0E0,4.034037E0,8.540709E-1,0E0,0E0,0E0,0E0,0E0,0E0],"parents":[2147483647,0,0,1,1,2,2,4,4,5,5,6,6,7,7,9,9,10,10,15,15,16,16],"right_children":[2,4,6,-1,8,10,12,14,-1,16,18,-1,-1,-1,-1,20,22,-1,-1,-1,-1,-1,-1],"split_conditions":[1.4508841E1,3.245279E-3,-2.240939E-2,2.7656237E-2,-2.5094943E-2,3.5017582E4,7.4134326E-1,-3.1525625E-3,1.21195605E-2,3.5758598E4,-1.689098E-2,-5.713552E-2,-3.5604637E-3,-6.1771506E-4,-6.867235E-2,5.375588E-2,-4.4085723E-3,1.6490804E-2,-5.7158954E-2,1.3133543E-2,-8.269458E-3,-2.987652E-3,-5.629025E-2],"split_indices":[12,7,26,0,26,5,19,32,0,4,9,0,0,0,0,27,35,0,0,0,0,0,0],"split_type":[0,0,0,0,0,0,0,0,0,0,0,0,0,0,0,0,0,0,0,0,0,0,0],"sum_hessian":[1.5702528E2,1.00182705E1,1.47007E2,1.9599967E0,8.058274E0,1.43314E2,3.6930144E0,6.834497E0,1.223777E0,1.3766365E2,5.650348E0,2.5251138E0,1.1679006E0,1.9464717E0,4.8880253E0,1.3475613E2,2.9075067E0,1.8886704E0,3.7616777E0,1.0789528E2,2.6860863E1,1.2040057E0,1.703501E0],"tree_param":{"num_deleted":"0","num_feature":"38","num_nodes":"23","size_leaf_vector":"1"}},{"base_weights":[3.6130287E-2,6.736462E-2,-7.265517E-1,2.832513E-1,-9.113501E-2,-5.8041055E-2,-2.2024296E-1,5.646747E-1,9.889065E-2,3.7525043E-1,-1.9269745E-1,-4.1003946E-2,3.331412E-2,6.956169E-2,9.8489434E-1,2.2372207E-1,-1.0322988E0,5.8801275E-1,-5.2459784E-2,-8.365639E-1,-9.086647E-2,-1.9257909E-2,3.320579E-2,5.7837274E-2,1.0143749E-2,-2.7028332E-2,1.8570831E-2,-6.423079E-2,-1.1457534E-2,-2.9349646E-2,4.1960698E-2,-5.5738922E-2,1.0106674E-4,-1.9406473E-2,9.0106195E-3],"categories":[],"categories_nodes":[],"categories_segments":[],"categories_sizes":[],"default_left":[0,0,0,0,0,0,0,0,0,0,0,0,0,0,0,0,0,0,0,0,0,0,0,0,0,0,0,0,0,0,0,0,0,0,0],"id":15,"left_children":[1,3,5,7,9,-1,11,13,15,17,19,-1,-1,21,23,25,27,29,-1,31,33,-1,-1,-1,-1,-1,-1,-1,-1,-1,-1,-1,-1,-1,-1],"loss_changes":[3.8082197E0,5.244548E0,1.1280811E0,3.3068113E0,4.273915E0,0E0,2.7478364E0,5.2245703E0,5.931669E0,5.5270815E0,4.7431393E0,0E0,0E0,3.7043166E0,1.6044807E0,4.3977723E0,5.548167E-1,4.8423753E0,0E0,2.3155684E0,5.274395E0,0E0,0E0,0E0,0E0,0E0,0E0,0E0,0E0,0E0,0E0,0E0,0E0,0E0,0E0],"parents":[2147483647,0,0,1,1,2,2,3,3,4,4,6,6,7,7,8,8,9,9,10,10,13,13,14,14,15,15,16,16,17,17,19,19,20,20],"right_children":[2,4,6,8,10,-1,12,14,16,18,20,-1,-1,22,24,26,28,30,-1,32,34,-1,-1,-1,-1,-1,-1,-1,-1,-1,-1,-1,-1,-1,-1],"split_conditions":[1.275611E-1,3.2455135E4,9.328318E-1,-1.1054004E-3,-5.933688E-2,-5.8041055E-2,4.3388373E-1,1.2592207E-2,1.1324381E-2,2.4819642E-2,-5.3711955E-2,-4.1003946E-2,3.331412E-2,2.5045885E1,3.2383334E4,1.9980076E1,1.6338307E-1,-7.1048036E-2,-5.2459784E-2,5.2215843E-3,6.1036672E-2,-1.9257909E-2,3.320579E-2,5.7837274E-2,1.0143749E-2,-2.7028332E-2,1.8570831E-2,-6.423079E-2,-1.1457534E-2,-2.9349646E-2,4.1960698E-2,-5.5738922E-2,1.0106674E-4,-1.9406473E-2,9.0106195E-3],"split_indices":[7,5,19,36,26,0,2,21,33,35,26,0,0,11,5,11,23,26,0,9,18,0,0,0,0,0,0,0,0,0,0,0,0,0,0],"split_type":[0,0,0,0,0,0,0,0,0,0,0,0,0,0,0,0,0,0,0,0,0,0,0,0,0,0,0,0,0,0,0,0,0,0,0],"sum_hessian":[1.5680782E2,1.5151448E2,5.29334E0,6.381173E1,8.770275E1,2.1535187E0,3.1398218E0,2.4440634E1,3.9371098E1,1.5201426E1,7.250132E1,1.9174194E0,1.2224023E0,1.1755527E1,1.2685108E1,3.6180637E1,3.1904583E0,1.3736824E1,1.4646013E0,8.915343E0,6.358598E1,6.8606415E0,4.894885E0,1.00068865E1,2.6782217E0,5.42862E0,3.0752018E1,1.9715887E0,1.2188697E0,2.184055E0,1.1552769E1,6.447066E0,2.4682772E0,3.01223E1,3.346368E1],"tree_param":{"num_deleted":"0","num_feature":"38","num_nodes":"35","size_leaf_vector":"1"}},{"base_weights":[3.3327185E-2,-5.224571E-1,7.440051E-2,2.6600752E-2,-8.09841E-1,1.0391604E-1,-8.5798144E-1,-1.0028293E0,1.15908915E-2,1.3912718E-1,-6.513679E-1,-5.5259775E-2,-3.1744258E-3,-8.4374606E-4,-6.635696E-2,2.9916233E-1,-2.0428732E-2,1.5836433E-2,-5.521049E-2,6.387042E-2,1.0269227E-2,-4.318235E-3,3.749163E-2],"categories":[],"categories_nodes":[],"categories_segments":[],"categories_sizes":[],"default_left":[0,0,0,0,0,0,0,0,0,0,0,0,0,0,0,0,0,0,0,0,0,0,0],"id":16,"left_children":[1,3,5,-1,7,9,11,13,-1,15,17,-1,-1,-1,-1,19,21,-1,-1,-1,-1,-1,-1],"loss_changes":[3.631678E0,3.7507412E0,4.146429E0,0E0,2.0428395E0,3.9148822E0,8.39587E-1,2.467101E0,0E0,3.535448E0,3.234932E0,0E0,0E0,0E0,0E0,6.0739036E0,3.6274679E0,0E0,0E0,0E0,0E0,0E0,0E0],"parents":[2147483647,0,0,1,1,2,2,4,4,5,5,6,6,7,7,9,9,10,10,15,15,16,16],"right_children":[2,4,6,-1,8,10,12,14,-1,16,18,-1,-1,-1,-1,20,22,-1,-1,-1,-1,-1,-1],"split_conditions":[1.4508841E1,3.245279E-3,-2.240939E-2,2.6600752E-2,-2.5094943E-2,3.5017582E4,7.4134326E-1,-3.1525625E-3,1.15908915E-2,-8.202863E-3,-1.689098E-2,-5.5259775E-2,-3.1744258E-3,-8.4374606E-4,-6.635696E-2,1.6426983E1,1.240837E-1,1.5836433E-2,-5.521049E-2,6.387042E-2,1.0269227E-2,-4.318235E-3,3.749163E-2],"split_indices":[12,7,26,0,26,5,19,32,0,37,9,0,0,0,0,12,18,0,0,0,0,0,0],"split_type":[0,0,0,0,0,0,0,0,0,0,0,0,0,0,0,0,0,0,0,0,0,0,0],"sum_hessian":[1.5638663E2,9.955362E0,1.4643126E2,1.9498211E0,8.005542E0,1.4279935E2,3.631916E0,6.785641E0,1.2199004E0,1.3721806E2,5.5812774E0,2.47174E0,1.1601759E0,1.939941E0,4.8457E0,6.806933E1,6.9148735E1,1.8745002E0,3.706777E0,4.850415E0,6.3218914E1,6.451408E1,4.6346617E0],"tree_param":{"num_deleted":"0","num_feature":"38","num_nodes":"23","size_leaf_vector":"1"}},{"base_weights":[3.1577505E-2,6.1614677E-2,-7.051726E-1,2.6581186E-1,-8.8227175E-2,-5.648418E-2,-2.1062028E-1,5.3711855E-1,8.908803E-2,-1.758035E-1,3.9655375E-1,-3.9547216E-2,3.2028716E-2,5.9066422E-2,9.4660294E-1,2.1043205E-1,-1.007647E0,-4.6428114E-1,2.0831335E-2,9.370294E-1,-1.8599328E-1,-1.3593434E-2,4.074421E-2,1.8296707E-2,6.1071735E-2,-2.596498E-2,1.760309E-2,-6.253798E-2,-1.1424881E-2,-3.814914E-2,1.5024635E-3,5.019052E-2,-4.1350704E-3,6.066903E-2,-4.9688634E-3,2.063684E-2,-3.2425504E-2],"categories":[],"categories_nodes":[],"categories_segments":[],"categories_sizes":[],"default_left":[0,0,0,0,0,0,0,0,0,0,0,0,0,0,0,0,0,0,0,0,0,0,0,0,0,0,0,0,0,0,0,0,0,0,0,0,0],"id":17,"left_children":[1,3,5,7,9,-1,11,13,15,17,19,-1,-1,21,23,25,27,29,31,33,35,-1,-1,-1,-1,-1,-1,-1,-1,-1,-1,-1,-1,-1,-1,-1,-1],"loss_changes":[3.520732E0,4.671027E0,1.0711849E0,3.0464425E0,3.8210042E0,0E0,2.5365539E0,4.888335E0,5.57249E0,4.2941833E0,4.5277085E0,0E0,0E0,3.4030464E0,1.7134762E0,4.016541E0,5.069952E-1,4.549925E0,4.751514E0,2.2222896E0,2.3414898E0,0E0,0E0,0E0,0E0,0E0,0E0,0E0,0E0,0E0,0E0,0E0,0E0,0E0,0E0,0E0,0E0],"parents":[2147483647,0,0,1,1,2,2,3,3,4,4,6,6,7,7,8,8,9,9,10,10,13,13,14,14,15,15,16,16,17,17,18,18,19,19,20,20],"right_children":[2,4,6,8,10,-1,12,14,16,18,20,-1,-1,22,24,26,28,30,32,34,36,-1,-1,-1,-1,-1,-1,-1,-1,-1,-1,-1,-1,-1,-1,-1,-1],"split_conditions":[1.275611E-1,3.2455135E4,9.328318E-1,-1.1054004E-3,1.0883063E-2,-5.648418E-2,4.3388373E-1,1.2592207E-2,1.1324381E-2,6.0601175E-2,8.141215E-2,-3.9547216E-2,3.2028716E-2,9.749279E-1,-9.697118E-4,1.9980076E1,1.6338307E-1,6.3148845E-4,2.9562541E4,7.539476E-3,3.4129965E4,-1.3593434E-2,4.074421E-2,1.8296707E-2,6.1071735E-2,-2.596498E-2,1.760309E-2,-6.253798E-2,-1.1424881E-2,-3.814914E-2,1.5024635E-3,5.019052E-2,-4.1350704E-3,6.066903E-2,-4.9688634E-3,2.063684E-2,-3.2425504E-2],"split_indices":[7,5,19,36,36,0,2,21,33,18,18,0,0,2,33,11,23,31,22,34,24,0,0,0,0,0,0,0,0,0,0,0,0,0,0,0,0],"split_type":[0,0,0,0,0,0,0,0,0,0,0,0,0,0,0,0,0,0,0,0,0,0,0,0,0,0,0,0,0,0,0,0,0,0,0,0,0],"sum_hessian":[1.5613063E2,1.5089503E2,5.2355943E0,6.3536556E1,8.735848E1,2.126234E0,3.1093602E0,2.4257341E1,3.9279217E1,7.45316E1,1.28268795E1,1.8909435E0,1.2184166E0,1.1719578E1,1.2537764E1,3.6093876E1,3.185339E0,2.9658817E1,4.4872784E1,6.3380537E0,6.4888253E0,8.59608E0,3.1234982E0,4.776785E0,7.760979E0,5.433219E0,3.0660658E1,1.9664675E0,1.2188715E0,1.814883E1,1.1509988E1,3.4472928E0,4.142549E1,4.869007E0,1.4690464E0,2.8748922E0,3.613933E0],"tree_param":{"num_deleted":"0","num_feature":"38","num_nodes":"37","size_leaf_vector":"1"}},{"base_weights":[3.0176735E-2,5.9199583E-2,-6.8495834E-1,2.5380316E-1,-8.3315425E-2,-5.504721E-2,-2.0273185E-1,3.6990473E-1,-1.3596168E-1,-4.0381115E-2,-5.3919703E-2,-3.844115E-2,3.117123E-2,4.8842663E-1,-1.505039E-1,-5.9138924E-2,2.0703842E-1,1.13895014E-1,-3.6082464E-1,9.773652E-3,5.075552E-2,-4.9910594E-2,1.9581197E-2,4.2531636E-2,-1.7659342E-2,1.8066166E-2,-9.813767E-3,-4.5341138E-2,-4.49065E-3],"categories":[],"categories_nodes":[],"categories_segments":[],"categories_sizes":[],"default_left":[0,0,0,0,0,0,0,0,0,0,0,0,0,0,0,0,0,0,0,0,0,0,0,0,0,0,0,0,0],"id":18,"left_children":[1,3,5,7,9,-1,11,13,15,17,-1,-1,-1,19,21,-1,23,25,27,-1,-1,-1,-1,-1,-1,-1,-1,-1,-1],"loss_changes":[3.29424E0,4.224809E0,1.0192196E0,2.9610567E0,3.7266796E0,0E0,2.3940258E0,3.1469522E0,5.8081365E0,4.2747107E0,0E0,0E0,0E0,6.1000395E0,4.9901414E0,0E0,4.815049E0,4.5655923E0,4.072202E0,0E0,0E0,0E0,0E0,0E0,0E0,0E0,0E0,0E0,0E0],"parents":[2147483647,0,0,1,1,2,2,3,3,4,4,6,6,7,7,8,8,9,9,13,13,14,14,16,16,17,17,18,18],"right_children":[2,4,6,8,10,-1,12,14,16,18,-1,-1,-1,20,22,-1,24,26,28,-1,-1,-1,-1,-1,-1,-1,-1,-1,-1],"split_conditions":[1.275611E-1,3.2455135E4,9.328318E-1,3.534935E4,-2.2540534E-2,-5.504721E-2,4.3388373E-1,6.2598713E1,3.5411305E4,4.4027893E-3,-5.3919703E-2,-3.844115E-2,3.117123E-2,2.4962938E1,3.0566633E4,-5.9138924E-2,7.392285E-1,9.6783787E-4,-9.810395E-1,9.773652E-3,5.075552E-2,-4.9910594E-2,1.9581197E-2,4.2531636E-2,-1.7659342E-2,1.8066166E-2,-9.813767E-3,-4.5341138E-2,-4.49065E-3],"split_indices":[7,5,19,24,26,0,2,14,24,35,0,0,0,11,4,0,19,33,15,0,0,0,0,0,0,0,0,0,0],"split_type":[0,0,0,0,0,0,0,0,0,0,0,0,0,0,0,0,0,0,0,0,0,0,0,0,0,0,0,0,0],"sum_hessian":[1.5576465E2,1.5057114E2,5.193519E0,6.332299E1,8.724814E1,2.0994313E0,3.094088E0,4.882897E1,1.449402E1,8.4636925E1,2.6112187E0,1.877205E0,1.216883E0,3.982123E1,9.00774E0,2.9728174E0,1.1521203E1,5.7566402E1,2.707052E1,2.6469454E1,1.3351777E1,3.1854577E0,5.822283E0,5.1204195E0,6.4007835E0,3.1930204E1,2.5636198E1,8.20139E0,1.8869131E1],"tree_param":{"num_deleted":"0","num_feature":"38","num_nodes":"29","size_leaf_vector":"1"}},{"base_weights":[2.770772E-2,1.7023766E-1,-1.1366511E-1,2.422882E-1,-8.114087E-1,3.0798674E-1,-2.241899E-1,3.5428473E-1,-4.229593E-1,-1.2469545E-3,-6.1621048E-2,5.539563E-1,-2.8416258E-1,-5.482893E-1,1.074162E-1,2.7695295E-1,6.4794846E-2,4.3591283E-2,-6.905093E-1,-5.320299E-2,1.1723726E0,-9.060799E-1,3.6472406E-2,-8.8682115E-1,-1.9499557E-1,6.272615E-1,-2.0928529E-1,1.77072E-2,-4.9382053E-2,1.5897254E-2,-4.9156938E-2,2.8541083E-2,-3.5533037E-2,7.029315E-2,6.55139E-3,-5.854973E-2,-8.798335E-3,-5.134199E-2,9.398512E-3,2.1103324E-2,-2.7779726E-2,-5.2348252E-2,4.7378458E-2,1.2979122E-2,-3.3317324E-2],"categories":[],"categories_nodes":[],"categories_segments":[],"categories_sizes":[],"default_left":[0,0,0,0,0,0,0,0,0,0,0,0,0,0,0,0,0,0,0,0,0,0,0,0,0,0,0,0,0,0,0,0,0,0,0,0,0,0,0,0,0,0,0,0,0],"id":19,"left_children":[1,3,5,7,9,11,13,15,17,-1,-1,19,21,23,25,27,-1,-1,29,31,33,35,-1,37,39,41,43,-1,-1,-1,-1,-1,-1,-1,-1,-1,-1,-1,-1,-1,-1,-1,-1,-1,-1],"loss_changes":[3.1704018E0,5.7326355E0,3.7557502E0,5.640151E0,1.8175709E0,2.6117618E0,6.857423E0,4.273385E0,4.4383044E0,0E0,0E0,4.6599383E0,4.195067E0,3.6728277E0,5.416578E0,6.212508E0,0E0,0E0,3.1856275E0,3.3329844E0,1.3012753E0,5.5223703E-1,0E0,2.621727E0,4.0208087E0,7.643821E0,4.6088367E0,0E0,0E0,0E0,0E0,0E0,0E0,0E0,0E0,0E0,0E0,0E0,0E0,0E0,0E0,0E0,0E0,0E0,0E0],"parents":[2147483647,0,0,1,1,2,2,3,3,4,4,5,5,6,6,7,7,8,8,11,11,12,12,13,13,14,14,15,15,18,18,19,19,20,20,21,21,23,23,24,24,25,25,26,26],"right_children":[2,4,6,8,10,12,14,16,18,-1,-1,20,22,24,26,28,-1,-1,30,32,34,36,-1,38,40,42,44,-1,-1,-1,-1,-1,-1,-1,-1,-1,-1,-1,-1,-1,-1,-1,-1,-1,-1],"split_conditions":[-8.202863E-3,2.3177119E-1,-5.8598304E-3,3.1235725E1,2.9285756E-1,2.8101935E-3,1.9330719E-3,2.9570412E1,-6.172324E-2,-1.2469545E-3,-6.1621048E-2,-6.1701005E-3,-7.8121456E-3,3.517523E-2,3.301039E-2,4.8404867E-3,6.4794846E-2,4.3591283E-2,-2.4692133E-1,4.7118307E2,2.8642693E1,-3.1048234E-4,3.6472406E-2,2.8415884E1,7.818585E-2,-9.261427E-3,3.415466E4,1.77072E-2,-4.9382053E-2,1.5897254E-2,-4.9156938E-2,2.8541083E-2,-3.5533037E-2,7.029315E-2,6.55139E-3,-5.854973E-2,-8.798335E-3,-5.134199E-2,9.398512E-3,2.1103324E-2,-2.7779726E-2,-5.2348252E-2,4.7378458E-2,1.2979122E-2,-3.3317324E-2],"split_indices":[37,23,33,12,13,32,35,12,26,0,0,32,33,27,27,31,0,0,37,20,10,35,0,12,37,36,24,0,0,0,0,0,0,0,0,0,0,0,0,0,0,0,0,0,0],"split_type":[0,0,0,0,0,0,0,0,0,0,0,0,0,0,0,0,0,0,0,0,0,0,0,0,0,0,0,0,0,0,0,0,0,0,0,0,0,0,0,0,0,0,0,0,0],"sum_hessian":[1.5538083E2,7.7272095E1,7.8108734E1,7.269E1,4.582094E0,1.585092E1,6.225781E1,6.2615864E1,1.007414E1,1.9669605E0,2.6151335E0,1.1244592E1,4.606328E0,3.1154821E1,3.110299E1,5.9059605E1,3.5562615E0,1.3384202E0,8.735719E0,6.1351194E0,5.1094728E0,2.9204967E0,1.6858313E0,1.5138606E1,1.6016214E1,1.1403789E1,1.9699202E1,5.634052E1,2.7190828E0,1.9453108E0,6.790408E0,3.2151966E0,2.9199228E0,3.8877215E0,1.2217513E0,1.699864E0,1.2206327E0,1.34332075E1,1.7053986E0,5.8445234E0,1.0171691E1,1.4670405E0,9.936748E0,9.937284E0,9.761916E0],"tree_param":{"num_deleted":"0","num_feature":"38","num_nodes":"45","size_leaf_vector":"1"}},{"base_weights":[2.6069708E-2,-4.9120256E-1,6.4186655E-2,2.5703454E-2,-7.6908034E-1,9.095627E-2,-7.985055E-1,-9.572231E-1,1.1761682E-2,1.2220469E-1,-6.445569E-1,-5.231422E-2,-1.7369551E-3,-4.6157255E-4,-6.366206E-2,-3.481522E-1,1.6806455E-1,9.6705435E-3,-4.989031E-2,-1.6786602E-4,-6.30686E-2,4.890408E-3,3.220834E-2],"categories":[],"categories_nodes":[],"categories_segments":[],"categories_sizes":[],"default_left":[0,0,0,0,0,0,0,0,0,0,0,0,0,0,0,0,0,0,0,0,0,0,0],"id":20,"left_children":[1,3,5,-1,7,9,11,13,-1,15,17,-1,-1,-1,-1,19,21,-1,-1,-1,-1,-1,-1],"loss_changes":[3.1039045E0,3.4150558E0,3.4446902E0,0E0,1.9011259E0,3.3543525E0,8.1464887E-1,2.2852855E0,0E0,3.0255485E0,1.9594445E0,0E0,0E0,0E0,0E0,3.9459624E0,4.1517754E0,0E0,0E0,0E0,0E0,0E0,0E0],"parents":[2147483647,0,0,1,1,2,2,4,4,5,5,6,6,7,7,9,9,10,10,15,15,16,16],"right_children":[2,4,6,-1,8,10,12,14,-1,16,18,-1,-1,-1,-1,20,22,-1,-1,-1,-1,-1,-1],"split_conditions":[1.4508841E1,3.245279E-3,-2.240939E-2,2.5703454E-2,-2.5094943E-2,3.5017746E4,7.4134326E-1,9.501054E-2,1.1761682E-2,-9.086485E-2,-1.689098E-2,-5.231422E-2,-1.7369551E-3,-4.6157255E-4,-6.366206E-2,-9.768943E-2,1.166972E-2,9.6705435E-3,-4.989031E-2,-1.6786602E-4,-6.30686E-2,4.890408E-3,3.220834E-2],"split_indices":[12,7,26,0,26,5,19,23,0,7,9,0,0,0,0,7,32,0,0,0,0,0,0],"split_type":[0,0,0,0,0,0,0,0,0,0,0,0,0,0,0,0,0,0,0,0,0,0,0],"sum_hessian":[1.5482498E2,9.810002E0,1.4501498E2,1.9403746E0,7.869628E0,1.4151819E2,3.4967887E0,6.667469E0,1.2021589E0,1.3655066E2,4.9675303E0,2.3609536E0,1.1358352E0,1.9242653E0,4.7432036E0,1.1545346E1,1.2500531E2,1.6072766E0,3.3602538E0,9.109605E0,2.435742E0,1.0998128E2,1.5024036E1],"tree_param":{"num_deleted":"0","num_feature":"38","num_nodes":"23","size_leaf_vector":"1"}},{"base_weights":[2.3837158E-2,5.52197E-2,-6.01785E-1,8.509804E-2,-6.588106E-1,-9.3968993E-1,3.0622406E-2,-8.422529E-2,2.3151681E-1,3.868454E-4,-9.017951E-1,-6.599833E-2,-7.707534E-3,3.9025392E-2,-5.856055E-1,8.0076194E-1,1.2774311E-1,-8.549268E-3,-5.5537075E-2,9.773361E-3,-2.3932222E-2,1.1770244E-2,-5.173262E-2,5.505708E-2,-3.9549753E-2,-2.3947693E-2,1.1648971E-2],"categories":[],"categories_nodes":[],"categories_segments":[],"categories_sizes":[],"default_left":[0,0,0,0,0,0,0,0,0,0,0,0,0,0,0,0,0,0,0,0,0,0,0,0,0,0,0],"id":21,"left_children":[1,3,5,7,9,11,-1,13,15,-1,17,-1,-1,19,21,23,25,-1,-1,-1,-1,-1,-1,-1,-1,-1,-1],"loss_changes":[3.087641E0,3.2360191E0,3.6588974E0,3.5884328E0,9.9510837E-1,1.6705832E0,0E0,4.193371E0,4.473792E0,0E0,4.9412227E-1,0E0,0E0,4.5566387E0,5.1761227E0,6.4912763E0,4.37083E0,0E0,0E0,0E0,0E0,0E0,0E0,0E0,0E0,0E0,0E0],"parents":[2147483647,0,0,1,1,2,2,3,3,4,4,5,5,7,7,8,8,10,10,13,13,14,14,15,15,16,16],"right_children":[2,4,6,8,10,12,-1,14,16,-1,18,-1,-1,20,22,24,26,-1,-1,-1,-1,-1,-1,-1,-1,-1,-1],"split_conditions":[3.706915E4,1.275611E-1,2.3131457E-3,5.8831455E1,6.6098536E-4,7.6284075E-1,3.0622406E-2,6.733671E-3,6.9623024E1,3.868454E-4,8.965027E1,-6.599833E-2,-7.707534E-3,3.3155207E4,1.6518793E1,9.771473E-3,1.5142568E1,-8.549268E-3,-5.5537075E-2,9.773361E-3,-2.3932222E-2,1.1770244E-2,-5.173262E-2,5.505708E-2,-3.9549753E-2,-2.3947693E-2,1.1648971E-2],"split_indices":[24,7,31,16,34,19,0,35,16,0,16,0,0,25,11,36,12,0,0,0,0,0,0,0,0,0,0],"split_type":[0,0,0,0,0,0,0,0,0,0,0,0,0,0,0,0,0,0,0,0,0,0,0,0,0,0,0],"sum_hessian":[1.545705E2,1.4805545E2,6.515041E0,1.4295439E2,5.101056E0,5.273578E0,1.2414626E0,6.648907E1,7.6465324E1,1.6214107E0,3.4796453E0,3.0949788E0,2.1785994E0,5.410981E1,1.2379261E1,1.0754678E1,6.571065E1,1.1779557E0,2.3016894E0,4.2030453E1,1.2079355E1,4.5450788E0,7.8341823E0,9.306648E0,1.4480298E0,9.188258E0,5.6522385E1],"tree_param":{"num_deleted":"0","num_feature":"38","num_nodes":"27","size_leaf_vector":"1"}},{"base_weights":[2.16715E-2,5.1788006E-2,-5.8051896E-1,1.9699752E-1,-9.254072E-2,-9.0983844E-1,2.9804558E-2,3.7965414E-1,-1.335854E-1,9.104744E-2,-3.9612165E-1,-6.4079575E-2,-7.4433833E-3,-1.6951216E-2,5.95859E-1,5.26573E-1,-4.5116526E-1,8.802414E-1,4.8440164E-3,2.938485E-1,-5.477422E-1,5.0416507E-2,-1.8798897E-2,3.548838E-2,-3.675533E-2,-3.196023E-2,4.346491E-2,-4.200906E-2,1.4998818E-2,6.573272E-2,-9.139249E-3,-5.13089E-2,5.800721E-3,-1.9848278E-2,5.561618E-2,1.2132986E-3,-3.7755355E-2],"categories":[],"categories_nodes":[],"categories_segments":[],"categories_sizes":[],"default_left":[0,0,0,0,0,0,0,0,0,0,0,0,0,0,0,0,0,0,0,0,0,0,0,0,0,0,0,0,0,0,0,0,0,0,0,0,0],"id":22,"left_children":[1,3,5,7,9,11,-1,13,15,17,19,-1,-1,21,23,25,27,29,31,33,35,-1,-1,-1,-1,-1,-1,-1,-1,-1,-1,-1,-1,-1,-1,-1,-1],"loss_changes":[2.8458757E0,3.136453E0,3.4395251E0,4.548406E0,4.232782E0,1.5738211E0,0E0,4.1463585E0,5.950292E0,3.2432778E0,3.1490507E0,0E0,0E0,7.001625E0,5.25898E0,4.276199E0,5.7853723E0,2.4085073E0,5.1669745E0,3.7191281E0,2.8373613E0,0E0,0E0,0E0,0E0,0E0,0E0,0E0,0E0,0E0,0E0,0E0,0E0,0E0,0E0,0E0,0E0],"parents":[2147483647,0,0,1,1,2,2,3,3,4,4,5,5,7,7,8,8,9,9,10,10,13,13,14,14,15,15,16,16,17,17,18,18,19,19,20,20],"right_children":[2,4,6,8,10,12,-1,14,16,18,20,-1,-1,22,24,26,28,30,32,34,36,-1,-1,-1,-1,-1,-1,-1,-1,-1,-1,-1,-1,-1,-1,-1,-1],"split_conditions":[3.706915E4,-8.202863E-3,2.3131457E-3,1.6948406E-3,6.234898E-1,7.6284075E-1,2.9804558E-2,4.88236E1,1.1430676E-1,-2.9834088E-2,-6.75394E-3,-6.4079575E-2,-7.4433833E-3,-7.5527094E-3,5.274785E0,3.1785342E4,1.1113819E-2,9.035841E0,-1.1648878E-2,6.6098536E-4,3.182208E4,5.0416507E-2,-1.8798897E-2,3.548838E-2,-3.675533E-2,-3.196023E-2,4.346491E-2,-4.200906E-2,1.4998818E-2,6.573272E-2,-9.139249E-3,-5.13089E-2,5.800721E-3,-1.9848278E-2,5.561618E-2,1.2132986E-3,-3.7755355E-2],"split_indices":[24,37,31,31,3,19,0,17,13,19,33,0,0,36,15,29,32,16,35,34,28,0,0,0,0,0,0,0,0,0,0,0,0,0,0,0,0],"split_type":[0,0,0,0,0,0,0,0,0,0,0,0,0,0,0,0,0,0,0,0,0,0,0,0,0,0,0,0,0,0,0,0,0,0,0,0,0],"sum_hessian":[1.5426201E2,1.4778503E2,6.476965E0,7.3485825E1,7.429921E1,5.2377176E0,1.2392472E0,4.7237373E1,2.6248455E1,4.6736046E1,2.7563166E1,3.059112E0,2.1786053E0,1.699091E1,3.0246464E1,8.312028E0,1.7936426E1,3.6952012E0,4.3040844E1,4.7967663E0,2.2766397E1,3.9376264E0,1.3053284E1,2.8291876E1,1.9545873E0,1.691917E0,6.620111E0,1.1738516E1,6.1979113E0,2.4551704E0,1.2400309E0,3.3880985E0,3.965275E1,2.8805242E0,1.9162425E0,6.292302E0,1.6474096E1],"tree_param":{"num_deleted":"0","num_feature":"38","num_nodes":"37","size_leaf_vector":"1"}},{"base_weights":[2.0555021E-2,5.222774E-2,-5.3248733E-1,8.0398103E-4,4.301319E-1,1.2946342E-1,-9.782889E-1,3.0231303E-2,-4.6756182E-2,8.150584E-1,-4.8680525E-2,-2.7777677E-2,5.0649922E-2,-6.113345E-2,-4.4389437E-3,5.664199E-2,-4.8150375E-2,-3.40729E-2,1.1087087E0,-4.2198116E-1,4.1780997E-2,1.347072E-3,5.954931E-2,5.4772813E-3,6.683942E-2,1.2156215E-2,-4.8540395E-2],"categories":[],"categories_nodes":[],"categories_segments":[],"categories_sizes":[],"default_left":[0,0,0,0,0,0,0,0,0,0,0,0,0,0,0,0,0,0,0,0,0,0,0,0,0,0,0],"id":23,"left_children":[1,3,5,7,9,11,13,15,-1,17,19,-1,-1,-1,-1,21,-1,-1,23,25,-1,-1,-1,-1,-1,-1,-1],"loss_changes":[2.7403326E0,2.8637073E0,2.6283681E0,3.6287653E0,3.2928524E0,3.1621568E0,1.0180688E0,3.4046984E0,0E0,5.0802126E0,3.260798E0,0E0,0E0,0E0,0E0,4.190979E0,0E0,0E0,1.8150978E0,2.7398071E0,0E0,0E0,0E0,0E0,0E0,0E0,0E0],"parents":[2147483647,0,0,1,1,2,2,3,3,4,4,5,5,6,6,7,7,9,9,10,10,15,15,18,18,19,19],"right_children":[2,4,6,8,10,12,14,16,-1,18,20,-1,-1,-1,-1,22,-1,-1,24,26,-1,-1,-1,-1,-1,-1,-1],"split_conditions":[6.826602E1,8.876633E-1,2.5205135E-3,-2.2540534E-2,9.648493E1,8.440757E-4,1.3881069E-2,2.123486E-2,-4.6756182E-2,-1.9387147E-1,1.166972E-2,-2.7777677E-2,5.0649922E-2,-6.113345E-2,-4.4389437E-3,1.7994473E-2,-4.8150375E-2,-3.40729E-2,3.10256E4,1.9983746E-2,4.1780997E-2,1.347072E-3,5.954931E-2,5.4772813E-3,6.683942E-2,1.2156215E-2,-4.8540395E-2],"split_indices":[14,19,36,26,16,36,36,35,0,37,32,0,0,0,0,35,0,0,28,9,0,0,0,0,0,0,0],"split_type":[0,0,0,0,0,0,0,0,0,0,0,0,0,0,0,0,0,0,0,0,0,0,0,0,0,0,0],"sum_hessian":[1.5385654E2,1.4637898E2,7.4775567E0,1.297282E2,1.665079E1,3.29482E0,4.182737E0,1.2671184E2,3.016359E0,8.84105E0,7.809739E0,2.0650067E0,1.2298133E0,2.9874387E0,1.1952982E0,1.2434833E2,2.3635077E0,1.2336111E0,7.6074395E0,5.859152E0,1.9505876E0,1.2217322E2,2.1751122E0,1.6889297E0,5.9185095E0,2.9007895E0,2.958362E0],"tree_param":{"num_deleted":"0","num_feature":"38","num_nodes":"27","size_leaf_vector":"1"}},{"base_weights":[1.9347873E-2,3.988035E-1,-2.6138077E-2,5.90796E-1,-4.8575785E-2,-8.3252805E-1,1.04703E-2,-3.9666966E-1,8.0760044E-1,9.447521E-4,-6.530533E-2,4.4271678E-2,-7.925702E-1,-4.7992032E-2,1.7472263E-2,-7.163135E-3,9.8675334E-1,1.175232E-1,-3.9062688E-1,-5.222088E-2,5.774643E-3,6.4194016E-2,1.6880587E-2,2.5775144E-3,3.4860946E-2,-3.6393385E-2,1.4667642E-2],"categories":[],"categories_nodes":[],"categories_segments":[],"categories_sizes":[],"default_left":[0,0,0,0,0,0,0,0,0,0,0,0,0,0,0,0,0,0,0,0,0,0,0,0,0,0,0],"id":24,"left_children":[1,3,5,7,-1,9,11,13,15,-1,-1,17,19,-1,-1,-1,21,23,25,-1,-1,-1,-1,-1,-1,-1,-1],"loss_changes":[2.6789258E0,4.9440985E0,4.1119747E0,3.5726037E0,0E0,2.4635406E0,3.6709504E0,1.7663674E0,2.3194199E0,0E0,0E0,4.1708937E0,1.3700359E0,0E0,0E0,0E0,1.6661139E0,4.2316384E0,4.572391E0,0E0,0E0,0E0,0E0,0E0,0E0,0E0,0E0],"parents":[2147483647,0,0,1,1,2,2,3,3,5,5,6,6,7,7,8,8,11,11,12,12,16,16,17,17,18,18],"right_children":[2,4,6,8,-1,10,12,14,16,-1,-1,18,20,-1,-1,-1,22,24,26,-1,-1,-1,-1,-1,-1,-1,-1],"split_conditions":[-5.933688E-2,2.4819642E-2,-8.8715024E-2,-7.1048036E-2,-4.8575785E-2,1.8049257E1,3.5017582E4,-3.907222E-2,-1.734841E-2,9.447521E-4,-6.530533E-2,2.0706493E-2,3.515241E4,-4.7992032E-2,1.7472263E-2,-7.163135E-3,-1.3640018E-3,9.2479095E1,9.929375E-3,-5.222088E-2,5.774643E-3,6.4194016E-2,1.6880587E-2,2.5775144E-3,3.4860946E-2,-3.6393385E-2,1.4667642E-2],"split_indices":[26,35,7,26,0,11,5,9,34,0,0,9,8,0,0,0,36,17,32,0,0,0,0,0,0,0,0],"split_type":[0,0,0,0,0,0,0,0,0,0,0,0,0,0,0,0,0,0,0,0,0,0,0,0,0,0,0],"sum_hessian":[1.5360703E2,1.561072E1,1.379963E2,1.4191274E1,1.4194468E0,5.048528E0,1.3294778E2,2.405495E0,1.1785778E1,2.1475883E0,2.90094E0,1.2848451E2,4.463268E0,1.2075666E0,1.1979282E0,1.90028E0,9.885498E0,1.10587616E2,1.7896898E1,3.3766174E0,1.0866501E0,6.1106863E0,3.774812E0,1.0026569E2,1.0321922E1,1.1943775E1,5.9531236E0],"tree_param":{"num_deleted":"0","num_feature":"38","num_nodes":"27","size_leaf_vector":"1"}},{"base_weights":[1.7764991E-2,4.712756E-2,-5.694521E-1,1.7883247E-1,-1.0555317E-1,-8.892044E-1,2.85731E-2,6.596033E-2,8.4254503E-1,-1.8123628E-1,8.385726E-1,-6.249528E-2,-7.5298594E-3,-8.50734E-2,3.9514232E-1,1.1627138E0,-7.685366E-2,-8.1752324E-1,-8.4485374E-2,6.1464705E-2,-5.236806E-3,-1.9616289E-2,1.09972665E-2,-3.6961075E-2,3.4537576E-2,1.5638968E-2,6.473813E-2,3.187512E-2,-3.751575E-2,-5.342516E-3,-6.24303E-2,-4.904661E-4,-4.784315E-2],"categories":[],"categories_nodes":[],"categories_segments":[],"categories_sizes":[],"default_left":[0,0,0,0,0,0,0,0,0,0,0,0,0,0,0,0,0,0,0,0,0,0,0,0,0,0,0,0,0,0,0,0,0],"id":25,"left_children":[1,3,5,7,9,11,-1,13,15,17,19,-1,-1,21,23,25,27,29,31,-1,-1,-1,-1,-1,-1,-1,-1,-1,-1,-1,-1,-1,-1],"loss_changes":[2.6878824E0,2.993114E0,3.2172422E0,5.9210777E0,5.0914607E0,1.4613266E0,0E0,3.4774995E0,3.4776373E0,3.9213283E0,2.0850885E0,0E0,0E0,4.613404E0,7.8754616E0,5.601692E-1,2.359908E0,2.452279E0,3.7286613E0,0E0,0E0,0E0,0E0,0E0,0E0,0E0,0E0,0E0,0E0,0E0,0E0,0E0,0E0],"parents":[2147483647,0,0,1,1,2,2,3,3,4,4,5,5,7,7,8,8,9,9,10,10,13,13,14,14,15,15,16,16,17,17,18,18],"right_children":[2,4,6,8,10,12,-1,14,16,18,20,-1,-1,22,24,26,28,30,32,-1,-1,-1,-1,-1,-1,-1,-1,-1,-1,-1,-1,-1,-1],"split_conditions":[3.706915E4,9.6783787E-4,2.3131457E-3,-2.2377931E-4,1.5435352E-2,7.6284075E-1,2.85731E-2,2.4962938E1,2.7113384E1,2.895657E4,2.1638129E-2,-6.249528E-2,-7.5298594E-3,1.9258331E1,1.52915535E1,1.6426983E1,4.9668236E-4,2.6226336E4,3.195204E1,6.1464705E-2,-5.236806E-3,-1.9616289E-2,1.09972665E-2,-3.6961075E-2,3.4537576E-2,1.5638968E-2,6.473813E-2,3.187512E-2,-3.751575E-2,-5.342516E-3,-6.24303E-2,-4.904661E-4,-4.784315E-2],"split_indices":[24,32,31,32,34,19,0,11,11,25,9,0,0,10,12,12,32,5,12,0,0,0,0,0,0,0,0,0,0,0,0,0,0],"split_type":[0,0,0,0,0,0,0,0,0,0,0,0,0,0,0,0,0,0,0,0,0,0,0,0,0,0,0,0,0,0,0,0,0],"sum_hessian":[1.5333328E2,1.4690724E2,6.4260464E0,7.877947E1,6.812776E1,5.191655E0,1.2343911E0,6.826892E1,1.0510554E1,6.3819862E1,4.307897E0,3.0230787E0,2.1685767E0,4.730584E1,2.0963081E1,7.5994854E0,2.9110692E0,7.440076E0,5.6379787E1,2.8317885E0,1.4761083E0,2.3424034E1,2.3881805E1,4.0233397E0,1.6939743E1,1.4749047E0,6.124581E0,1.4385548E0,1.4725144E0,3.2802305E0,4.1598454E0,5.2865696E1,3.5140915E0],"tree_param":{"num_deleted":"0","num_feature":"38","num_nodes":"33","size_leaf_vector":"1"}},{"base_weights":[1.6687574E-2,1.1715759E-1,-1.4514615E-1,5.5248357E-2,9.0358055E-1,-1.1630156E0,-3.4741607E-2,-7.573153E-1,1.254535E-1,-1.3994688E-2,6.691086E-2,-6.738638E-2,-1.2773836E-2,-2.0568101E-1,2.8987625E-1,4.8798718E-2,-6.1515737E-2,3.6340743E-1,-1.1644159E-1,-8.727625E-2,-5.432077E-2,1.0548466E0,1.0298668E-2,-3.2141395E-2,3.297692E-2,2.5263837E-2,-2.5483852E-2,1.3221708E-2,-1.8904679E-2,-8.708633E-3,5.333295E-2,1.1937909E-2,6.5653704E-2,-4.4347133E-2,2.3473736E-2],"categories":[],"categories_nodes":[],"categories_segments":[],"categories_sizes":[],"default_left":[0,0,0,0,0,0,0,0,0,0,0,0,0,0,0,0,0,0,0,0,0,0,0,0,0,0,0,0,0,0,0,0,0,0,0],"id":26,"left_children":[1,3,5,7,9,11,13,15,17,-1,-1,-1,-1,19,21,23,-1,25,27,29,-1,31,33,-1,-1,-1,-1,-1,-1,-1,-1,-1,-1,-1,-1],"loss_changes":[2.521329E0,4.6036115E0,6.6395216E0,5.2103786E0,3.9290056E0,6.255722E-1,3.092491E0,2.8333545E0,4.8426538E0,0E0,0E0,0E0,0E0,3.6998155E0,4.1100307E0,1.9663726E0,0E0,5.4949636E0,4.2968807E0,3.511125E0,0E0,7.7123547E-1,6.6461053E0,0E0,0E0,0E0,0E0,0E0,0E0,0E0,0E0,0E0,0E0,0E0,0E0],"parents":[2147483647,0,0,1,1,2,2,3,3,4,4,5,5,6,6,7,7,8,8,13,13,14,14,15,15,17,17,18,18,19,19,21,21,22,22],"right_children":[2,4,6,8,10,12,14,16,18,-1,-1,-1,-1,20,22,24,-1,26,28,30,-1,32,34,-1,-1,-1,-1,-1,-1,-1,-1,-1,-1,-1,-1],"split_conditions":[3.533677E4,3.5197258E4,3.5395355E4,-1.6426578E-2,3.8648702E-2,-3.143645E-2,6.1036672E-2,3.2130438E4,9.5394894E-4,-1.3994688E-2,6.691086E-2,-6.738638E-2,-1.2773836E-2,2.6851593E-2,1.18909426E-1,3.3033215E1,-6.1515737E-2,6.361371E1,-1.4795408E-3,1.2482857E-2,-5.432077E-2,-1.674092E-3,3.2226074E-1,-3.2141395E-2,3.297692E-2,2.5263837E-2,-2.5483852E-2,1.3221708E-2,-1.8904679E-2,-8.708633E-3,5.333295E-2,1.1937909E-2,6.5653704E-2,-4.4347133E-2,2.3473736E-2],"split_indices":[24,24,24,32,18,26,18,8,32,0,0,0,0,6,13,12,0,14,36,35,0,35,13,0,0,0,0,0,0,0,0,0,0,0,0],"split_type":[0,0,0,0,0,0,0,0,0,0,0,0,0,0,0,0,0,0,0,0,0,0,0,0,0,0,0,0,0,0,0,0,0,0,0],"sum_hessian":[1.530228E2,9.45809E1,5.8441895E1,8.867076E1,5.910138E0,4.7857523E0,5.3656143E1,6.2734814E0,8.2397285E1,1.6831391E0,4.226999E0,3.5734162E0,1.2123361E0,3.5387794E1,1.8268347E1,2.6514883E0,3.6219928E0,4.128379E1,4.1113495E1,3.2162945E1,3.2248492E0,4.147393E0,1.41209545E1,1.218767E0,1.4327213E0,3.587557E1,5.4082217E0,1.6738024E1,2.437547E1,3.0700151E1,1.4627945E0,1.4594922E0,2.687901E0,4.464877E0,9.656077E0],"tree_param":{"num_deleted":"0","num_feature":"38","num_nodes":"35","size_leaf_vector":"1"}},{"base_weights":[1.5598453E-2,1.422396E-1,-1.0964432E-1,2.098066E-1,-7.727893E-1,2.7083457E-1,-2.0923595E-1,3.1373775E-1,-4.0772563E-1,8.390443E-3,-5.371384E-2,5.8199495E-1,-1.8597606E-1,-5.1809245E-1,9.681771E-2,6.404783E-1,1.06045745E-1,4.116137E-2,-6.582894E-1,8.2064785E-2,1.0721538E0,-7.275802E-1,5.199235E-1,-1.1135695E0,-3.0976954E-1,6.1507076E-1,-1.9113608E-1,-1.8632328E-2,4.1059073E-2,4.0713456E-2,-3.7368499E-3,-1.1627699E-3,-5.7889737E-2,-3.7751038E-2,2.8319538E-2,1.0919215E-2,6.337746E-2,-6.0641553E-2,3.715377E-3,5.037527E-2,-1.5327926E-2,-3.1336625E-3,-6.4659946E-2,-5.77343E-3,-4.6572667E-2,-2.864452E-2,5.828789E-2,-2.0340864E-2,3.3848476E-2],"categories":[],"categories_nodes":[],"categories_segments":[],"categories_sizes":[],"default_left":[0,0,0,0,0,0,0,0,0,0,0,0,0,0,0,0,0,0,0,0,0,0,0,0,0,0,0,0,0,0,0,0,0,0,0,0,0,0,0,0,0,0,0,0,0,0,0,0,0],"id":27,"left_children":[1,3,5,7,9,11,13,15,17,-1,-1,19,21,23,25,27,29,-1,31,33,35,37,39,41,43,45,47,-1,-1,-1,-1,-1,-1,-1,-1,-1,-1,-1,-1,-1,-1,-1,-1,-1,-1,-1,-1,-1,-1],"loss_changes":[2.4523714E0,4.9119596E0,3.0050194E0,4.7700915E0,1.7389252E0,2.464562E0,5.932645E0,4.1717367E0,3.8897614E0,0E0,0E0,2.3876638E0,3.2359257E0,3.5169096E0,4.907917E0,4.714595E0,5.1047044E0,0E0,3.0100632E0,2.8944073E0,5.6036663E-1,1.8980434E0,1.8515742E0,1.3692751E0,2.84563E0,8.323383E0,4.2817683E0,0E0,0E0,0E0,0E0,0E0,0E0,0E0,0E0,0E0,0E0,0E0,0E0,0E0,0E0,0E0,0E0,0E0,0E0,0E0,0E0,0E0,0E0],"parents":[2147483647,0,0,1,1,2,2,3,3,4,4,5,5,6,6,7,7,8,8,11,11,12,12,13,13,14,14,15,15,16,16,18,18,19,19,20,20,21,21,22,22,23,23,24,24,25,25,26,26],"right_children":[2,4,6,8,10,12,14,16,18,-1,-1,20,22,24,26,28,30,-1,32,34,36,38,40,42,44,46,48,-1,-1,-1,-1,-1,-1,-1,-1,-1,-1,-1,-1,-1,-1,-1,-1,-1,-1,-1,-1,-1,-1],"split_conditions":[-8.202863E-3,2.3177119E-1,-5.8598304E-3,3.1235725E1,3.280278E-2,3.1675508E1,1.5385835E-3,-2.5538483E-3,-6.172324E-2,8.390443E-3,-5.371384E-2,-6.1701005E-3,-8.070397E-3,3.51624E-2,3.2308314E-2,-6.228644E-2,-3.1525625E-3,4.116137E-2,3.0095627E4,-4.890227E-3,1.3813572E1,2.7604617E-2,9.285564E-2,-7.8121456E-3,-6.10302E-4,-2.110646E-3,7.7753067E-3,-1.8632328E-2,4.1059073E-2,4.0713456E-2,-3.7368499E-3,-1.1627699E-3,-5.7889737E-2,-3.7751038E-2,2.8319538E-2,1.0919215E-2,6.337746E-2,-6.0641553E-2,3.715377E-3,5.037527E-2,-1.5327926E-2,-3.1336625E-3,-6.4659946E-2,-5.77343E-3,-4.6572667E-2,-2.864452E-2,5.828789E-2,-2.0340864E-2,3.3848476E-2],"split_indices":[37,23,33,12,18,16,35,35,26,0,0,32,33,18,27,7,32,0,22,36,11,7,23,32,35,36,34,0,0,0,0,0,0,0,0,0,0,0,0,0,0,0,0,0,0,0,0,0,0],"split_type":[0,0,0,0,0,0,0,0,0,0,0,0,0,0,0,0,0,0,0,0,0,0,0,0,0,0,0,0,0,0,0,0,0,0,0,0,0,0,0,0,0,0,0,0,0,0,0,0,0],"sum_hessian":[1.5263425E2,7.582596E1,7.680828E1,7.132959E1,4.496366E0,1.5577335E1,6.123095E1,6.1475216E1,9.854376E0,1.1990132E0,3.297353E0,9.102828E0,6.4745073E0,3.0131094E1,3.1099854E1,2.3080786E1,3.839443E1,1.2800974E0,8.574278E0,5.0844474E0,4.01838E0,3.6462185E0,2.8282886E0,6.6829453E0,2.3448149E1,1.0702222E1,2.0397633E1,3.3328311E0,1.9747955E1,7.095073E0,3.1299356E1,4.2357793E0,4.3384986E0,1.6587075E0,3.42574E0,1.1427685E0,2.8756118E0,1.9523267E0,1.693892E0,1.641097E0,1.1871917E0,1.1724715E0,5.510474E0,1.8768105E1,4.680045E0,3.376975E0,7.3252463E0,1.6763987E1,3.6336458E0],"tree_param":{"num_deleted":"0","num_feature":"38","num_nodes":"49","size_leaf_vector":"1"}},{"base_weights":[1.4650365E-2,3.2596476E-2,-4.2591304E-2,1.6515395E-1,-9.6517295E-2,2.3364633E-1,-7.474643E-1,5.0480016E-2,-3.4395143E-1,3.4107423E-1,-3.9204082E-1,8.163906E-3,-5.2093636E-2,8.21886E-1,-2.9495103E-2,-9.816189E-1,-1.692947E-1,8.851422E-3,3.8231786E-2,4.0364876E-2,-3.1789944E-2,6.2484544E-2,-9.858473E-3,4.7202907E-3,-4.3722104E-2,-1.034785E-2,-6.432053E-2,3.8049795E-2,-1.5560559E-2],"categories":[],"categories_nodes":[],"categories_segments":[],"categories_sizes":[],"default_left":[0,0,0,0,0,0,0,0,0,0,0,0,0,0,0,0,0,0,0,0,0,0,0,0,0,0,0,0,0],"id":28,"left_children":[1,3,-1,5,7,9,11,13,15,17,19,-1,-1,21,23,25,27,-1,-1,-1,-1,-1,-1,-1,-1,-1,-1,-1,-1],"loss_changes":[2.4068758E0,2.5978596E0,0E0,4.8504915E0,2.8199236E0,4.862003E0,1.6341984E0,3.0600698E0,3.046256E0,4.0733323E0,3.6628191E0,0E0,0E0,2.2766838E0,4.8513083E0,1.148848E0,3.3856826E0,0E0,0E0,0E0,0E0,0E0,0E0,0E0,0E0,0E0,0E0,0E0,0E0],"parents":[2147483647,0,0,1,1,3,3,4,4,5,5,6,6,7,7,8,8,9,9,10,10,13,13,14,14,15,15,16,16],"right_children":[2,4,-1,6,8,10,12,14,16,18,20,-1,-1,22,24,26,28,-1,-1,-1,-1,-1,-1,-1,-1,-1,-1,-1,-1],"split_conditions":[2.4819642E-2,-8.202863E-3,-4.2591304E-2,2.3177119E-1,6.234898E-1,3.1235725E1,3.280278E-2,-2.9834088E-2,-7.0909695E-3,2.5869246E1,-6.172324E-2,8.163906E-3,-5.2093636E-2,9.035841E0,3.503561E4,-2.648624E-2,-5.759086E-3,8.851422E-3,3.8231786E-2,4.0364876E-2,-3.1789944E-2,6.2484544E-2,-9.858473E-3,4.7202907E-3,-4.3722104E-2,-1.034785E-2,-6.432053E-2,3.8049795E-2,-1.5560559E-2],"split_indices":[33,37,0,23,3,12,18,19,34,12,26,0,0,16,4,6,35,0,0,0,0,0,0,0,0,0,0,0,0],"split_type":[0,0,0,0,0,0,0,0,0,0,0,0,0,0,0,0,0,0,0,0,0,0,0,0,0,0,0,0,0],"sum_hessian":[1.5199854E2,1.4985713E2,2.1413999E0,7.380475E1,7.605239E1,6.93444E1,4.4603434E0,4.820841E1,2.7843985E1,5.957116E1,9.773242E0,1.1984338E0,3.2619097E0,3.6570723E0,4.4551334E1,4.993299E0,2.2850685E1,4.396242E1,1.5608738E1,1.2603227E0,8.512919E0,2.416352E0,1.2407203E0,3.962857E1,4.922765E0,1.8839757E0,3.1093233E0,2.4471104E0,2.0403574E1],"tree_param":{"num_deleted":"0","num_feature":"38","num_nodes":"29","size_leaf_vector":"1"}},{"base_weights":[1.3499048E-2,4.0743973E-2,-5.3421974E-1,1.609292E-1,-9.8034516E-2,-8.4228724E-1,2.7263282E-2,5.2598722E-2,8.0224663E-1,-2.5206596E-1,3.315093E-1,-5.9960883E-2,-6.279506E-3,-9.163058E-2,3.6837342E-1,1.0589967E0,-9.32089E-3,-6.0072464E-1,-1.8727368E-2,8.180544E-1,-4.3399936E-1,-1.9333405E-2,1.0131621E-2,-3.524343E-2,3.2460447E-2,1.4984833E-2,6.2415596E-2,-3.6782153E-2,3.7641276E-2,-2.1065202E-2,1.3101711E-2,4.8522227E-2,-1.4082062E-2,-4.790157E-2,2.2263566E-2],"categories":[],"categories_nodes":[],"categories_segments":[],"categories_sizes":[],"default_left":[0,0,0,0,0,0,0,0,0,0,0,0,0,0,0,0,0,0,0,0,0,0,0,0,0,0,0,0,0,0,0,0,0,0,0],"id":29,"left_children":[1,3,5,7,9,11,-1,13,15,17,19,-1,-1,21,23,25,-1,27,29,31,33,-1,-1,-1,-1,-1,-1,-1,-1,-1,-1,-1,-1,-1,-1],"loss_changes":[2.2981186E0,2.455017E0,2.8866677E0,5.4289837E0,4.615341E0,1.4025788E0,0E0,3.1508365E0,3.0683556E0,4.1365294E0,7.249359E0,0E0,0E0,4.2268047E0,6.9854813E0,9.380226E-1,0E0,4.2807775E0,3.6792486E0,2.2280025E0,4.0419903E0,0E0,0E0,0E0,0E0,0E0,0E0,0E0,0E0,0E0,0E0,0E0,0E0,0E0,0E0],"parents":[2147483647,0,0,1,1,2,2,3,3,4,4,5,5,7,7,8,8,9,9,10,10,13,13,14,14,15,15,17,17,18,18,19,19,20,20],"right_children":[2,4,6,8,10,12,-1,14,16,18,20,-1,-1,22,24,26,-1,28,30,32,34,-1,-1,-1,-1,-1,-1,-1,-1,-1,-1,-1,-1,-1,-1],"split_conditions":[3.706915E4,9.6783787E-4,2.3131457E-3,-2.2377931E-4,1.166972E-2,7.6284075E-1,2.7263282E-2,2.4962938E1,2.9054548E1,4.3388373E-1,1.748777E-2,-5.9960883E-2,-6.279506E-3,1.9258331E1,1.52915535E1,1.8445541E1,-9.32089E-3,3.649732E4,-2.4847006E-3,5.722394E-1,6.234898E-1,-1.9333405E-2,1.0131621E-2,-3.524343E-2,3.2460447E-2,1.4984833E-2,6.2415596E-2,-3.6782153E-2,3.7641276E-2,-2.1065202E-2,1.3101711E-2,4.8522227E-2,-1.4082062E-2,-4.790157E-2,2.2263566E-2],"split_indices":[24,32,31,32,32,19,0,11,11,2,32,0,0,10,12,12,0,24,33,13,3,0,0,0,0,0,0,0,0,0,0,0,0,0,0],"split_type":[0,0,0,0,0,0,0,0,0,0,0,0,0,0,0,0,0,0,0,0,0,0,0,0,0,0,0,0,0,0,0,0,0,0,0],"sum_hessian":[1.5154437E2,1.4524512E2,6.2992506E0,7.775123E1,6.749389E1,5.0716243E0,1.2276263E0,6.744117E1,1.0310056E1,4.9983376E1,1.7510515E1,2.9361186E0,2.1355057E0,4.678298E1,2.0658188E1,8.1281E0,2.1819558E0,1.9408447E1,3.0574926E1,1.0664003E1,6.846512E0,2.3203941E1,2.3579042E1,3.9713533E0,1.6686834E1,2.1376262E0,5.9904737E0,1.8064348E1,1.344099E0,1.2356578E1,1.821835E1,9.469327E0,1.1946765E0,4.23371E0,2.6128023E0],"tree_param":{"num_deleted":"0","num_feature":"38","num_nodes":"35","size_leaf_vector":"1"}},{"base_weights":[1.3006977E-2,3.044796E-2,-4.1461974E-2,7.771952E-2,-3.041164E-1,6.508693E-1,2.5481736E-2,-7.0675564E-1,2.562218E-1,-8.526138E-2,9.515838E-1,9.2739865E-2,-3.136716E-1,1.3396776E-1,-1.1315573E0,-7.3008597E-1,7.5000656E-1,-5.2394416E-2,4.0310036E-2,5.9548356E-2,-9.696292E-3,-2.1451607E-3,2.7036285E-2,-2.363933E-2,5.232016E-2,3.3314597E-2,-4.1343726E-2,-6.330662E-2,-1.0902573E-2,-5.2521724E-2,-2.6112003E-3,6.0586315E-2,1.7778695E-4],"categories":[],"categories_nodes":[],"categories_segments":[],"categories_sizes":[],"default_left":[0,0,0,0,0,0,0,0,0,0,0,0,0,0,0,0,0,0,0,0,0,0,0,0,0,0,0,0,0,0,0,0,0],"id":30,"left_children":[1,3,-1,5,7,9,11,13,15,17,19,21,23,25,27,29,31,-1,-1,-1,-1,-1,-1,-1,-1,-1,-1,-1,-1,-1,-1,-1,-1],"loss_changes":[2.2604566E0,2.3965771E0,0E0,3.9433339E0,4.417807E0,2.517673E0,2.817818E0,4.1490655E0,4.7289724E0,4.3718505E0,2.3963876E0,6.269609E0,4.922535E0,2.9299936E0,6.510534E-1,6.7717147E-1,2.1375532E0,0E0,0E0,0E0,0E0,0E0,0E0,0E0,0E0,0E0,0E0,0E0,0E0,0E0,0E0,0E0,0E0],"parents":[2147483647,0,0,1,1,3,3,4,4,5,5,6,6,7,7,8,8,9,9,10,10,11,11,12,12,13,13,14,14,15,15,16,16],"right_children":[2,4,-1,6,8,10,12,14,16,18,20,22,24,26,28,30,32,-1,-1,-1,-1,-1,-1,-1,-1,-1,-1,-1,-1,-1,-1,-1,-1],"split_conditions":[2.4819642E-2,-2.6463674E-2,-4.1461974E-2,2.6244162E-2,3.0654633E2,-3.3308638E-3,3.1292591E1,1.8624523E1,3.3598855E4,2.8415884E1,1.8689492E-1,2.611105E1,3.09256E-1,3.5896428E-2,3.84577E-3,8.26552E-3,9.144211E1,-5.2394416E-2,4.0310036E-2,5.9548356E-2,-9.696292E-3,-2.1451607E-3,2.7036285E-2,-2.363933E-2,5.232016E-2,3.3314597E-2,-4.1343726E-2,-6.330662E-2,-1.0902573E-2,-5.2521724E-2,-2.6112003E-3,6.0586315E-2,1.7778695E-4],"split_indices":[33,26,0,27,20,31,12,12,8,12,37,12,37,6,33,32,16,0,0,0,0,0,0,0,0,0,0,0,0,0,0,0,0],"split_type":[0,0,0,0,0,0,0,0,0,0,0,0,0,0,0,0,0,0,0,0,0,0,0,0,0,0,0,0,0,0,0,0,0],"sum_hessian":[1.5116255E2,1.4904012E2,2.1224284E0,1.312615E2,1.7778616E1,1.000688E1,1.2125463E2,1.019299E1,7.5856247E0,3.1100755E0,6.8968043E0,1.0179419E2,1.946044E1,3.6513178E0,6.5416727E0,2.3710442E0,5.2145805E0,1.410983E0,1.6990925E0,5.6718454E0,1.2249589E0,7.882995E1,2.296424E1,1.800627E1,1.45417E0,2.5468633E0,1.1044544E0,5.365264E0,1.176409E0,1.2368816E0,1.1341625E0,2.8366463E0,2.377934E0],"tree_param":{"num_deleted":"0","num_feature":"38","num_nodes":"33","size_leaf_vector":"1"}},{"base_weights":[1.2214136E-2,2.9263657E-1,-3.970561E-2,4.406769E-1,-4.3015793E-2,-5.1998484E-1,5.442559E-2,-4.951779E-2,5.891572E-1,-1.3864948E-1,-9.5511746E-1,1.0563748E-1,-5.173235E-1,8.3701545E-1,-2.4246557E-1,-6.7688876E-1,3.495643E-1,8.634404E-3,-1.1996133E0,5.6708943E-2,5.4172967E-2,3.082896E-1,-1.0467515E0,-1.7340448E-2,4.779571E-2,1.849651E-2,-5.1409967E-2,-4.659304E-2,7.912999E-3,3.7291307E-2,-4.905588E-2,-3.780548E-3,-7.349621E-2,4.855198E-3,-6.222179E-2,4.7370564E-2,-1.6077347E-2,1.113946E-2,-7.0809536E-2],"categories":[],"categories_nodes":[],"categories_segments":[],"categories_sizes":[],"default_left":[0,0,0,0,0,0,0,0,0,0,0,0,0,0,0,0,0,0,0,0,0,0,0,0,0,0,0,0,0,0,0,0,0,0,0,0,0,0,0],"id":31,"left_children":[1,3,5,7,-1,9,11,-1,13,15,17,19,21,23,25,27,29,-1,31,-1,33,35,37,-1,-1,-1,-1,-1,-1,-1,-1,-1,-1,-1,-1,-1,-1,-1,-1],"loss_changes":[2.22181E0,4.4473505E0,5.858916E0,5.2121487E0,0E0,3.3902254E0,3.2385926E0,0E0,4.400312E0,3.517111E0,2.894434E0,5.265305E0,4.304175E0,2.5712557E0,3.0032573E0,1.4843841E0,4.531275E0,0E0,2.3605375E0,0E0,5.52229E0,2.0481997E0,3.0252185E0,0E0,0E0,0E0,0E0,0E0,0E0,0E0,0E0,0E0,0E0,0E0,0E0,0E0,0E0,0E0,0E0],"parents":[2147483647,0,0,1,1,2,2,3,3,5,5,6,6,8,8,9,9,10,10,11,11,12,12,13,13,14,14,15,15,16,16,18,18,20,20,21,21,22,22],"right_children":[2,4,6,8,-1,10,12,-1,14,16,18,20,22,24,26,28,30,-1,32,-1,34,36,38,-1,-1,-1,-1,-1,-1,-1,-1,-1,-1,-1,-1,-1,-1,-1,-1],"split_conditions":[1.6612902E1,-3.034624E-2,1.9770735E1,-7.1048036E-2,-4.3015793E-2,1.836559E1,5.8654837E-2,-4.951779E-2,3.6363335E1,-6.7319797E-4,-8.771888E-3,-5.9778348E-2,-2.3460425E-3,2.4867218E1,-3.907222E-2,3.969456E-3,2.8642693E1,8.634404E-3,5.218715E-2,5.6708943E-2,6.49954E0,-2.8959652E-3,1.6568726E1,-1.7340448E-2,4.779571E-2,1.849651E-2,-5.1409967E-2,-4.659304E-2,7.912999E-3,3.7291307E-2,-4.905588E-2,-3.780548E-3,-7.349621E-2,4.855198E-3,-6.222179E-2,4.7370564E-2,-1.6077347E-2,1.113946E-2,-7.0809536E-2],"split_indices":[11,26,11,26,0,11,27,0,12,31,33,26,36,12,9,33,10,0,13,0,15,33,12,0,0,0,0,0,0,0,0,0,0,0,0,0,0,0,0],"split_type":[0,0,0,0,0,0,0,0,0,0,0,0,0,0,0,0,0,0,0,0,0,0,0,0,0,0,0,0,0,0,0,0,0,0,0,0,0,0,0],"sum_hessian":[1.5080443E2,2.283493E1,1.2796949E2,2.0784023E1,2.0509071E0,2.0229557E1,1.0773994E2,1.4207816E0,1.9363243E1,1.1484004E1,8.745552E0,9.963116E1,8.108781E0,1.4912278E1,4.4509645E0,5.278346E0,6.2056584E0,1.6104763E0,7.1350756E0,3.7451227E0,9.588603E1,3.331378E0,4.777403E0,1.1860855E0,1.3726192E1,2.7987943E0,1.6521702E0,3.955059E0,1.323287E0,5.1203833E0,1.0852754E0,1.6313475E0,5.503728E0,9.371317E1,2.1728594E0,1.4032369E0,1.9281411E0,1.1663412E0,3.6110616E0],"tree_param":{"num_deleted":"0","num_feature":"38","num_nodes":"39","size_leaf_vector":"1"}},{"base_weights":[1.0018185E-2,3.6476027E-2,-5.217511E-1,6.2118478E-2,-5.834326E-1,-8.2327956E-1,2.6435254E-2,-9.3060076E-2,1.9616137E-1,-5.0146993E-2,-1.1840357E-1,-5.859349E-2,-6.3972175E-3,1.098637E-2,-6.7626476E-1,7.2527504E-1,1.0145684E-1,3.0604219E-2,-3.2943964E-2,-5.7375517E-2,3.5576366E-3,2.2919811E-2,-7.036858E-2,5.0190296E-2,-3.6070596E-2,9.585505E-5,3.303888E-2],"categories":[],"categories_nodes":[],"categories_segments":[],"categories_sizes":[],"default_left":[0,0,0,0,0,0,0,0,0,0,0,0,0,0,0,0,0,0,0,0,0,0,0,0,0,0,0],"id":32,"left_children":[1,3,5,7,9,11,-1,13,15,-1,17,-1,-1,19,21,23,25,-1,-1,-1,-1,-1,-1,-1,-1,-1,-1],"loss_changes":[2.1486933E0,2.343194E0,2.7283578E0,2.9358912E0,1.0246245E0,1.3082733E0,0E0,3.9933157E0,3.7137136E0,0E0,1.9483945E0,0E0,0E0,4.035591E0,8.908041E0,5.2821164E0,3.6325576E0,0E0,0E0,0E0,0E0,0E0,0E0,0E0,0E0,0E0,0E0],"parents":[2147483647,0,0,1,1,2,2,3,3,4,4,5,5,7,7,8,8,10,10,13,13,14,14,15,15,16,16],"right_children":[2,4,6,8,10,12,-1,14,16,-1,18,-1,-1,20,22,24,26,-1,-1,-1,-1,-1,-1,-1,-1,-1,-1],"split_conditions":[3.706915E4,1.275611E-1,2.3131457E-3,5.8831455E1,9.328318E-1,7.6284075E-1,2.6435254E-2,2.3948655E-3,6.9623024E1,-5.0146993E-2,2.481052E-3,-5.859349E-2,-6.3972175E-3,2.4993826E-2,3.295713E-2,9.771473E-3,3.628011E4,3.0604219E-2,-3.2943964E-2,-5.7375517E-2,3.5576366E-3,2.2919811E-2,-7.036858E-2,5.0190296E-2,-3.6070596E-2,9.585505E-5,3.303888E-2],"split_indices":[24,7,31,16,19,19,0,9,16,0,36,0,0,18,27,36,24,0,0,0,0,0,0,0,0,0,0],"split_type":[0,0,0,0,0,0,0,0,0,0,0,0,0,0,0,0,0,0,0,0,0,0,0,0,0,0,0],"sum_hessian":[1.5036763E2,1.4412804E2,6.2395916E0,1.3926706E2,4.8609724E0,5.0160294E0,1.2235625E0,6.468657E1,7.458049E1,1.9474416E0,2.9135308E0,2.8845806E0,2.1314487E0,5.5725956E1,8.960609E0,1.0311562E1,6.426893E1,1.1826333E0,1.7308977E0,1.8589914E0,5.3866966E1,3.6574075E0,5.3032017E0,8.903503E0,1.4080579E0,5.5411102E1,8.857831E0],"tree_param":{"num_deleted":"0","num_feature":"38","num_nodes":"27","size_leaf_vector":"1"}},{"base_weights":[8.575428E-3,1.0117753E-1,-1.411137E-1,4.280442E-2,8.5045904E-1,-1.1138837E0,-3.5627577E-2,-6.986389E-1,1.1120989E-1,-1.3208634E-2,6.342418E-2,-6.446931E-2,-1.2300684E-2,2.1052991E-1,-2.4376507E-1,-9.70402E-1,2.1746559E-2,3.3219624E-1,-1.09889515E-1,3.470894E-1,-4.661065E-2,-2.6234265E-2,-6.2390883E-2,1.0662914E-2,-6.713854E-2,2.2572836E-2,-3.1247277E-2,-1.0337914E-2,3.9598428E-2,-5.2463273E-3,2.9900415E-2,-3.1798113E-2,1.5505214E-2],"categories":[],"categories_nodes":[],"categories_segments":[],"categories_sizes":[],"default_left":[0,0,0,0,0,0,0,0,0,0,0,0,0,0,0,0,0,0,0,0,0,0,0,0,0,0,0,0,0,0,0,0,0],"id":33,"left_children":[1,3,5,7,9,11,13,15,17,-1,-1,-1,-1,19,21,23,-1,25,27,29,-1,31,-1,-1,-1,-1,-1,-1,-1,-1,-1,-1,-1],"loss_changes":[2.1083763E0,4.0712905E0,5.9279795E0,4.550147E0,3.473123E0,5.44343E-1,2.7923784E0,2.7589383E0,4.0232644E0,0E0,0E0,0E0,0E0,4.232352E0,6.399991E0,3.1196785E0,0E0,4.9687395E0,3.7926552E0,2.6830604E0,0E0,5.3710623E0,0E0,0E0,0E0,0E0,0E0,0E0,0E0,0E0,0E0,0E0,0E0],"parents":[2147483647,0,0,1,1,2,2,3,3,4,4,5,5,6,6,7,7,8,8,13,13,14,14,15,15,17,17,18,18,19,19,21,21],"right_children":[2,4,6,8,10,12,14,16,18,-1,-1,-1,-1,20,22,24,-1,26,28,30,-1,32,-1,-1,-1,-1,-1,-1,-1,-1,-1,-1,-1],"split_conditions":[3.533677E4,3.5197258E4,3.5395355E4,-1.6027302E-2,3.8648702E-2,-3.143645E-2,8.1505516E-4,8.253164E-3,9.5394894E-4,-1.3208634E-2,6.342418E-2,-6.446931E-2,-1.2300684E-2,-2.2540534E-2,3.4981727E4,3.0332645E4,2.1746559E-2,1.3649145E-2,1.5435352E-2,-3.779803E-3,-4.661065E-2,3.969456E-3,-6.2390883E-2,1.0662914E-2,-6.713854E-2,2.2572836E-2,-3.1247277E-2,-1.0337914E-2,3.9598428E-2,-5.2463273E-3,2.9900415E-2,-3.1798113E-2,1.5505214E-2],"split_indices":[24,24,24,32,18,26,33,34,32,0,0,0,0,26,5,5,0,34,34,9,0,33,0,0,0,0,0,0,0,0,0,0,0],"split_type":[0,0,0,0,0,0,0,0,0,0,0,0,0,0,0,0,0,0,0,0,0,0,0,0,0,0,0,0,0,0,0,0,0],"sum_hessian":[1.5007274E2,9.291615E1,5.715658E1,8.718137E1,5.7347765E0,4.656434E0,5.250015E1,6.585735E0,8.059564E1,1.6645147E0,4.070262E0,3.4691958E0,1.1872383E0,2.4047937E1,2.8452211E1,5.4282928E0,1.1574419E0,4.0056824E1,4.0538815E1,2.2102877E1,1.945061E0,2.4229048E1,4.223163E0,1.4012828E0,4.02701E0,3.60885E1,3.9683225E0,3.7302853E1,3.2359653E0,8.097509E0,1.4005366E1,8.297027E0,1.5932021E1],"tree_param":{"num_deleted":"0","num_feature":"38","num_nodes":"33","size_leaf_vector":"1"}},{"base_weights":[7.227249E-3,3.5083613E-1,-3.3164974E-2,5.3229713E-1,-4.579151E-2,-7.963635E-1,1.8514167E-3,-3.455415E-1,7.2686917E-1,-7.8192883E-4,-6.1408248E-2,-8.323879E-1,2.9186226E-2,-4.4911385E-2,1.8660022E-2,-8.005997E-3,8.975936E-1,-5.498994E-2,-2.5665232E-3,1.5958892E-1,-1.4032756E-1,1.8241402E-3,5.2748915E-2,4.180174E-3,3.867173E-2,-4.719682E-2,-1.4113672E-3],"categories":[],"categories_nodes":[],"categories_segments":[],"categories_sizes":[],"default_left":[0,0,0,0,0,0,0,0,0,0,0,0,0,0,0,0,0,0,0,0,0,0,0,0,0,0,0],"id":34,"left_children":[1,3,5,7,-1,9,11,13,15,-1,-1,17,19,-1,-1,-1,21,-1,-1,23,25,-1,-1,-1,-1,-1,-1],"loss_changes":[2.1018565E0,4.1485143E0,3.6272864E0,2.7388015E0,0E0,1.9880328E0,3.0052E0,1.6541576E0,1.997858E0,0E0,0E0,8.16839E-1,2.8416433E0,0E0,0E0,0E0,1.3735781E0,0E0,0E0,3.3194597E0,5.016793E0,0E0,0E0,0E0,0E0,0E0,0E0],"parents":[2147483647,0,0,1,1,2,2,3,3,5,5,6,6,7,7,8,8,11,11,12,12,16,16,19,19,20,20],"right_children":[2,4,6,8,-1,10,12,14,16,-1,-1,18,20,-1,-1,-1,22,-1,-1,24,26,-1,-1,-1,-1,-1,-1],"split_conditions":[-5.933688E-2,2.4819642E-2,-8.8715024E-2,-7.1048036E-2,-4.579151E-2,1.8049257E1,1.33226595E1,-3.907222E-2,-1.734841E-2,-7.8192883E-4,-6.1408248E-2,3.5197258E4,3.533677E4,-4.4911385E-2,1.8660022E-2,-8.005997E-3,4.5569796E-2,-5.498994E-2,-2.5665232E-3,2.2703873E-1,3.406332E4,1.8241402E-3,5.2748915E-2,4.180174E-3,3.867173E-2,-4.719682E-2,-1.4113672E-3],"split_indices":[26,35,7,26,0,11,12,9,34,0,0,24,24,0,0,0,13,0,0,37,28,0,0,0,0,0,0],"split_type":[0,0,0,0,0,0,0,0,0,0,0,0,0,0,0,0,0,0,0,0,0,0,0,0,0,0,0],"sum_hessian":[1.4960176E2,1.4927832E1,1.3467393E2,1.3564381E1,1.3634504E0,4.9541144E0,1.2971982E2,2.3202677E0,1.1244113E1,2.13326E0,2.8208547E0,3.1811695E0,1.2653865E2,1.1704854E0,1.1497823E0,1.8249265E0,9.419187E0,2.0658088E0,1.1153609E0,7.1553154E1,5.4985497E1,1.6458622E0,7.7733245E0,6.468256E1,6.8705935E0,5.822864E0,4.9162632E1],"tree_param":{"num_deleted":"0","num_feature":"38","num_nodes":"27","size_leaf_vector":"1"}},{"base_weights":[5.8794734E-3,2.8726779E-2,-5.679311E-1,1.8498844E-1,-8.622154E-2,-4.9012933E-2,-1.1227872E-1,4.3794385E-1,2.3497988E-2,-5.9479065E-2,-4.9447894E-2,-3.2018304E-2,2.9681547E-2,4.8430716E-3,8.2167876E-1,1.3245404E-1,-9.379535E-1,-1.256802E-1,3.6180454E-1,-2.0110315E-2,2.7481643E-2,4.972565E-2,4.50616E-3,1.856703E-3,5.57927E-2,-5.797393E-2,-1.0506104E-2,-1.5805846E-2,5.4995054E-3,-3.994461E-2,2.6735669E-2],"categories":[],"categories_nodes":[],"categories_segments":[],"categories_sizes":[],"default_left":[0,0,0,0,0,0,0,0,0,0,0,0,0,0,0,0,0,0,0,0,0,0,0,0,0,0,0,0,0,0,0],"id":35,"left_children":[1,3,5,7,9,-1,11,13,15,-1,17,-1,-1,19,21,23,25,27,29,-1,-1,-1,-1,-1,-1,-1,-1,-1,-1,-1,-1],"loss_changes":[1.9863592E0,2.6288435E0,9.800639E-1,2.5212688E0,3.3695447E0,0E0,1.82866E0,3.9998517E0,4.1972747E0,0E0,2.641736E0,0E0,0E0,2.9538732E0,1.5246744E0,3.3143523E0,4.1442943E-1,3.2035618E0,3.0779748E0,0E0,0E0,0E0,0E0,0E0,0E0,0E0,0E0,0E0,0E0,0E0,0E0],"parents":[2147483647,0,0,1,1,2,2,3,3,4,4,6,6,7,7,8,8,10,10,13,13,14,14,15,15,16,16,17,17,18,18],"right_children":[2,4,6,8,10,-1,12,14,16,-1,18,-1,-1,20,22,24,26,28,30,-1,-1,-1,-1,-1,-1,-1,-1,-1,-1,-1,-1],"split_conditions":[1.275611E-1,3.2455135E4,9.328318E-1,-1.1054004E-3,3.245892E4,-4.9012933E-2,4.3388373E-1,1.2592207E-2,1.1324381E-2,-5.9479065E-2,1.0883063E-2,-3.2018304E-2,2.9681547E-2,2.5045885E1,3.2383334E4,3.5412118E-1,1.6338307E-1,6.3148845E-4,-1.8536177E-1,-2.0110315E-2,2.7481643E-2,4.972565E-2,4.50616E-3,1.856703E-3,5.57927E-2,-5.797393E-2,-1.0506104E-2,-1.5805846E-2,5.4995054E-3,-3.994461E-2,2.6735669E-2],"split_indices":[7,5,19,36,5,0,2,21,33,0,36,0,0,11,5,37,23,31,37,0,0,0,0,0,0,0,0,0,0,0,0],"split_type":[0,0,0,0,0,0,0,0,0,0,0,0,0,0,0,0,0,0,0,0,0,0,0,0,0,0,0,0,0,0,0],"sum_hessian":[1.4927005E2,1.4446774E2,4.8023076E0,6.0972256E1,8.349549E1,1.9166074E0,2.8857002E0,2.3091034E1,3.788122E1,1.681931E0,8.181356E1,1.7038836E0,1.1818167E0,1.1323469E1,1.1767565E1,3.479979E1,3.0814345E0,6.960545E1,1.2208101E1,6.630841E0,4.6926284E0,9.227957E0,2.539608E0,3.26708E1,2.1289868E0,1.907732E0,1.1737025E0,3.8308434E1,3.1297022E1,1.1134516E0,1.109465E1],"tree_param":{"num_deleted":"0","num_feature":"38","num_nodes":"31","size_leaf_vector":"1"}},{"base_weights":[5.0611612E-3,1.8880857E-2,-4.676316E-2,-2.7592793E-2,3.653901E-1,1.0279622E-1,-2.2446524E-1,7.714885E-1,-3.3279252E-1,6.4382185E-3,6.919607E-1,-1.0535779E0,-1.5240231E-1,9.163451E-1,-1.3299483E-2,-8.133329E-1,3.905728E-1,2.8370246E-2,-3.1366774E-3,5.191195E-2,-8.318049E-3,-6.083807E-2,-1.6810235E-2,1.3970183E-2,-1.8072633E-2,-8.827893E-4,5.7450414E-2,6.563622E-3,-5.8292013E-2,-1.40376305E-2,4.323682E-2],"categories":[],"categories_nodes":[],"categories_segments":[],"categories_sizes":[],"default_left":[0,0,0,0,0,0,0,0,0,0,0,0,0,0,0,0,0,0,0,0,0,0,0,0,0,0,0,0,0,0,0],"id":36,"left_children":[1,3,-1,5,7,9,11,13,15,17,19,21,23,25,-1,27,29,-1,-1,-1,-1,-1,-1,-1,-1,-1,-1,-1,-1,-1,-1],"loss_changes":[1.9657503E0,2.4049993E0,0E0,3.4131117E0,5.2632284E0,4.544654E0,3.0019643E0,1.9668245E0,2.8177238E0,2.747048E0,3.5176067E0,6.661081E-2,4.602481E0,2.2554417E0,0E0,1.7000208E0,1.3716471E0,0E0,0E0,0E0,0E0,0E0,0E0,0E0,0E0,0E0,0E0,0E0,0E0,0E0,0E0],"parents":[2147483647,0,0,1,1,3,3,4,4,5,5,6,6,7,7,8,8,9,9,10,10,11,11,12,12,13,13,15,15,16,16],"right_children":[2,4,-1,6,8,10,12,14,16,18,20,22,24,26,-1,28,30,-1,-1,-1,-1,-1,-1,-1,-1,-1,-1,-1,-1,-1,-1],"split_conditions":[9.997439E1,1.166972E-2,-4.676316E-2,9.6783787E-4,1.748777E-2,-2.2377931E-4,1.3272424E-3,5.722394E-1,6.234898E-1,3.0185918E4,2.7113384E1,1.4852768E-1,1.683792E-1,-8.215625E-3,-1.3299483E-2,3.1170105E4,-7.5264866E-3,2.8370246E-2,-3.1366774E-3,5.191195E-2,-8.318049E-3,-6.083807E-2,-1.6810235E-2,1.3970183E-2,-1.8072633E-2,-8.827893E-4,5.7450414E-2,6.563622E-3,-5.8292013E-2,-1.40376305E-2,4.323682E-2],"split_indices":[16,32,0,32,32,32,32,13,3,8,11,23,13,35,0,4,34,0,0,0,0,0,0,0,0,0,0,0,0,0,0],"split_type":[0,0,0,0,0,0,0,0,0,0,0,0,0,0,0,0,0,0,0,0,0,0,0,0,0,0,0,0,0,0,0],"sum_hessian":[1.4891092E2,1.4771983E2,1.1910784E0,1.3106221E2,1.665763E1,7.913126E1,5.1930943E1,1.0465418E1,6.192213E0,6.88773E1,1.0253972E1,3.063532E0,4.8867413E1,9.285674E0,1.1797436E0,3.645854E0,2.546359E0,6.7701483E0,6.2107147E1,7.1569724E0,3.0969992E0,1.9286752E0,1.1348569E0,1.58309965E1,3.3036415E1,2.0360978E0,7.2495766E0,1.161368E0,2.4844859E0,1.2228854E0,1.3234737E0],"tree_param":{"num_deleted":"0","num_feature":"38","num_nodes":"31","size_leaf_vector":"1"}},{"base_weights":[4.589161E-3,2.6694667E-1,-4.363146E-2,-5.1285196E-2,3.845338E-1,-5.049514E-1,4.6173327E-2,-2.0054735E-1,7.4464315E-1,-1.5148057E-1,-9.061009E-1,8.056444E-2,-7.044951E-1,3.3445114E-1,-8.887197E-1,9.308665E-1,-3.867541E-2,-6.612739E-1,3.150103E-1,8.302411E-3,-1.1407323E0,1.0393583E-2,7.8895795E-1,-6.0974892E-2,1.5713075E-2,-2.1652063E-2,3.61555E-2,-6.919816E-3,-5.642438E-2,5.488286E-2,1.8712565E-3,-4.5226127E-2,7.211747E-3,3.4734648E-2,-4.7464367E-2,-3.892919E-3,-7.000184E-2,4.5979363E-3,-2.1414584E-2,-8.242103E-3,5.291394E-2],"categories":[],"categories_nodes":[],"categories_segments":[],"categories_sizes":[],"default_left":[0,0,0,0,0,0,0,0,0,0,0,0,0,0,0,0,0,0,0,0,0,0,0,0,0,0,0,0,0,0,0,0,0,0,0,0,0,0,0,0,0],"id":37,"left_children":[1,3,5,-1,7,9,11,13,15,17,19,21,23,25,27,29,-1,31,33,-1,35,37,39,-1,-1,-1,-1,-1,-1,-1,-1,-1,-1,-1,-1,-1,-1,-1,-1,-1,-1],"loss_changes":[1.9038053E0,3.9454393E0,5.2931857E0,0E0,4.814399E0,2.8136787E0,2.8292217E0,3.6930754E0,4.6548524E0,3.124823E0,2.591176E0,5.140852E0,2.905368E0,2.0777936E0,6.187885E-1,1.8739605E0,0E0,1.3418782E0,4.0586843E0,0E0,2.084916E0,3.448002E0,2.5692215E0,0E0,0E0,0E0,0E0,0E0,0E0,0E0,0E0,0E0,0E0,0E0,0E0,0E0,0E0,0E0,0E0,0E0,0E0],"parents":[2147483647,0,0,1,1,2,2,4,4,5,5,6,6,7,7,8,8,9,9,10,10,11,11,12,12,13,13,14,14,15,15,17,17,18,18,20,20,21,21,22,22],"right_children":[2,4,6,-1,8,10,12,14,16,18,20,22,24,26,28,30,-1,32,34,-1,36,38,40,-1,-1,-1,-1,-1,-1,-1,-1,-1,-1,-1,-1,-1,-1,-1,-1,-1,-1],"split_conditions":[1.6612902E1,2.3903553E1,1.9770735E1,-5.1285196E-2,-3.133694E-2,1.836559E1,5.1334165E-3,-7.5264866E-3,-2.7825283E-2,-6.7319797E-4,-8.771888E-3,1.166972E-2,9.021264E-1,1.9369186E1,-2.2252093E-1,7.3320726E-3,-3.867541E-2,3.969456E-3,2.8642693E1,8.302411E-3,5.218715E-2,2.0706493E-2,7.210104E-2,-6.0974892E-2,1.5713075E-2,-2.1652063E-2,3.61555E-2,-6.919816E-3,-5.642438E-2,5.488286E-2,1.8712565E-3,-4.5226127E-2,7.211747E-3,3.4734648E-2,-4.7464367E-2,-3.892919E-3,-7.000184E-2,4.5979363E-3,-2.1414584E-2,-8.242103E-3,5.291394E-2],"split_indices":[11,12,11,0,9,11,31,33,26,31,33,32,19,10,3,36,0,33,10,0,13,9,13,0,0,0,0,0,0,0,0,0,0,0,0,0,0,0,0,0,0],"split_type":[0,0,0,0,0,0,0,0,0,0,0,0,0,0,0,0,0,0,0,0,0,0,0,0,0,0,0,0,0,0,0,0,0,0,0,0,0,0,0,0,0],"sum_hessian":[1.4856538E2,2.2362133E1,1.26203255E2,1.2206323E0,2.11415E1,1.9811321E1,1.0639194E2,8.223542E0,1.2917957E1,1.1263852E1,8.547469E0,1.0258479E2,3.8071418E0,4.915859E0,3.307683E0,1.185109E1,1.0668668E0,5.182611E0,6.081241E0,1.5871736E0,6.9602957E0,9.42622E1,8.322595E0,2.3979053E0,1.4092366E0,1.6141568E0,3.3017023E0,1.1829622E0,2.1247208E0,9.794118E0,2.0569725E0,3.8861465E0,1.2964647E0,5.0232377E0,1.0580035E0,1.620053E0,5.340243E0,8.015018E1,1.411202E1,1.9179848E0,6.4046097E0],"tree_param":{"num_deleted":"0","num_feature":"38","num_nodes":"41","size_leaf_vector":"1"}},{"base_weights":[2.9271548E-3,3.3132738E-1,-3.5260797E-2,5.059316E-1,-4.407616E-2,-5.154777E-1,1.4817761E-2,-3.4046248E-1,6.917741E-1,-9.942244E-1,1.7299893E-1,-5.5186164E-1,5.6449745E-2,8.060688E-3,-3.364663E-2,-9.560556E-2,9.595253E-1,-6.116293E-2,-8.892653E-3,7.2023255E-1,-4.82797E-2,1.0831228E-2,-7.6701885E-1,3.1269435E-2,5.5249628E-2,-3.4607913E-2,2.9839236E-2,5.8839466E-2,6.434241E-3,-1.3485648E-2,5.6302767E-2,1.6498044E-2,-5.1817E-2,-4.2994775E-2,2.8105988E-3],"categories":[],"categories_nodes":[],"categories_segments":[],"categories_sizes":[],"default_left":[0,0,0,0,0,0,0,0,0,0,0,0,0,0,0,0,0,0,0,0,0,0,0,0,0,0,0,0,0,0,0,0,0,0,0],"id":38,"left_children":[1,3,5,7,-1,9,11,13,15,17,19,21,23,-1,-1,25,27,-1,-1,29,-1,-1,31,33,-1,-1,-1,-1,-1,-1,-1,-1,-1,-1,-1],"loss_changes":[1.8811485E0,3.754858E0,3.2408292E0,2.4839022E0,0E0,4.3659735E0,2.9263613E0,6.4949894E-1,2.6322045E0,1.2134638E0,4.4779797E0,1.5701995E0,3.0077808E0,0E0,0E0,2.0517476E0,1.4881554E0,0E0,0E0,2.1810102E0,0E0,0E0,2.367015E0,2.5724335E0,0E0,0E0,0E0,0E0,0E0,0E0,0E0,0E0,0E0,0E0,0E0],"parents":[2147483647,0,0,1,1,2,2,3,3,5,5,6,6,7,7,8,8,9,9,10,10,11,11,12,12,15,15,16,16,19,19,22,22,23,23],"right_children":[2,4,6,8,-1,10,12,14,16,18,20,22,24,-1,-1,26,28,-1,-1,30,-1,-1,32,34,-1,-1,-1,-1,-1,-1,-1,-1,-1,-1,-1],"split_conditions":[-5.933688E-2,2.4819642E-2,-5.274048E-2,-1.734841E-2,-4.407616E-2,-6.7319223E-3,1.4508841E1,2.0882633E1,-1.6426578E-2,-1.3640018E-3,4.7963563E-2,-3.1525625E-3,3.3184357E1,8.060688E-3,-3.364663E-2,6.454716E-3,1.0724641E-2,-6.116293E-2,-8.892653E-3,3.1622523E-1,-4.82797E-2,1.0831228E-2,9.029064E-3,2.58322E4,5.5249628E-2,-3.4607913E-2,2.9839236E-2,5.8839466E-2,6.434241E-3,-1.3485648E-2,5.6302767E-2,1.6498044E-2,-5.1817E-2,-4.2994775E-2,2.8105988E-3],"split_indices":[26,35,26,34,0,6,12,10,32,32,6,32,10,0,0,34,33,0,0,15,0,0,21,22,0,0,0,0,0,0,0,0,0,0,0],"split_type":[0,0,0,0,0,0,0,0,0,0,0,0,0,0,0,0,0,0,0,0,0,0,0,0,0,0,0,0,0,0,0,0,0,0,0],"sum_hessian":[1.480691E2,1.4624903E1,1.3344421E2,1.329394E1,1.3309631E0,1.1724207E1,1.2172E2,2.2436314E0,1.1050308E1,6.6534786E0,5.0707283E0,7.491584E0,1.1422842E2,1.0995634E0,1.144068E0,2.9672894E0,8.083018E0,4.8065767E0,1.8469019E0,3.6728904E0,1.3978381E0,1.6371799E0,5.854404E0,1.12555275E2,1.6731454E0,1.5941391E0,1.3731505E0,6.0774E0,2.0056183E0,1.1654174E0,2.507473E0,1.10962E0,4.744784E0,2.1530895E0,1.1040218E2],"tree_param":{"num_deleted":"0","num_feature":"38","num_nodes":"35","size_leaf_vector":"1"}},{"base_weights":[2.1577664E-3,1.7272757E-2,-4.1114744E-2,1.12014115E-1,-1.3235576E-1,3.0506039E-2,7.0326585E-1,-1.0691179E0,-3.1685814E-2,8.732489E-2,-6.335863E-1,3.182295E-1,6.221935E-2,-6.1694693E-2,-1.260592E-2,-1.9624764E-1,2.826377E-1,-3.154348E-2,7.6474547E-3,1.1791742E-2,-5.8181006E-2,4.556636E-2,-9.007828E-3,-2.6323858E-3,-4.0683758E-2,4.836023E-2,1.3606849E-3],"categories":[],"categories_nodes":[],"categories_segments":[],"categories_sizes":[],"default_left":[0,0,0,0,0,0,0,0,0,0,0,0,0,0,0,0,0,0,0,0,0,0,0,0,0,0,0],"id":39,"left_children":[1,3,-1,5,7,9,11,13,15,17,19,21,-1,-1,-1,23,25,-1,-1,-1,-1,-1,-1,-1,-1,-1,-1],"loss_changes":[1.8670658E0,2.098535E0,0E0,4.341982E0,5.3834324E0,3.0973117E0,1.8801103E0,4.352312E-1,2.79183E0,3.6380806E0,3.2583053E0,2.4480224E0,0E0,0E0,0E0,3.0880904E0,3.2239857E0,0E0,0E0,0E0,0E0,0E0,0E0,0E0,0E0,0E0,0E0],"parents":[2147483647,0,0,1,1,3,3,4,4,5,5,6,6,7,7,8,8,9,9,10,10,11,11,15,15,16,16],"right_children":[2,4,-1,6,8,10,12,14,16,18,20,22,-1,-1,-1,24,26,-1,-1,-1,-1,-1,-1,-1,-1,-1,-1],"split_conditions":[3.0975246E4,3.533677E4,-4.1114744E-2,3.5073023E4,3.5395355E4,4.950268E-2,4.3729617E-4,9.749279E-1,6.1036672E-2,-1.6027302E-2,2.3575767E-3,-5.933124E-3,6.221935E-2,-6.1694693E-2,-1.260592E-2,2.8570776E1,1.18909426E-1,-3.154348E-2,7.6474547E-3,1.1791742E-2,-5.8181006E-2,4.556636E-2,-9.007828E-3,-2.6323858E-3,-4.0683758E-2,4.836023E-2,1.3606849E-3],"split_indices":[22,24,0,24,24,6,33,2,18,32,36,33,0,0,0,11,13,0,0,0,0,0,0,0,0,0,0],"split_type":[0,0,0,0,0,0,0,0,0,0,0,0,0,0,0,0,0,0,0,0,0,0,0,0,0,0,0],"sum_hessian":[1.4768584E2,1.4598842E2,1.6974094E0,8.954314E1,5.6445282E1,7.961875E1,9.924391E0,4.543812E0,5.190147E1,7.414362E1,5.475124E0,6.726338E0,3.198053E0,3.356569E0,1.1872425E0,3.4312866E1,1.7588606E1,5.486437E0,6.865719E1,2.2838888E0,3.1912348E0,2.6930053E0,4.0333323E0,2.8718784E1,5.594082E0,4.0221357E0,1.3566469E1],"tree_param":{"num_deleted":"0","num_feature":"38","num_nodes":"27","size_leaf_vector":"1"}},{"base_weights":[1.5048685E-3,1.4857057E-2,-4.5124378E-2,5.7562277E-2,-2.892503E-1,6.1482006E-1,6.936357E-3,-6.65894E-1,2.325476E-1,8.668759E-1,-1.5870884E-1,7.151644E-2,-3.1733584E-1,1.203241E-1,-1.067981E0,-7.0319384E-1,7.0620376E-1,-2.4029396E-3,5.467816E-2,2.4766691E-2,-3.321043E-2,-1.2449177E-3,2.7152374E-2,-2.3379212E-2,4.8868272E-2,3.1456795E-2,-4.0197104E-2,-6.0006678E-2,-9.839125E-3,-5.0785866E-2,-1.7505538E-3,5.69625E-2,6.0680433E-4],"categories":[],"categories_nodes":[],"categories_segments":[],"categories_sizes":[],"default_left":[0,0,0,0,0,0,0,0,0,0,0,0,0,0,0,0,0,0,0,0,0,0,0,0,0,0,0,0,0,0,0,0,0],"id":40,"left_children":[1,3,-1,5,7,9,11,13,15,17,19,21,23,25,27,29,31,-1,-1,-1,-1,-1,-1,-1,-1,-1,-1,-1,-1,-1,-1,-1,-1],"loss_changes":[1.8038107E0,1.9277651E0,0E0,3.6595893E0,3.7486844E0,2.244153E0,2.5370517E0,3.567709E0,4.2227955E0,1.7748017E0,1.4863812E0,4.6025743E0,4.371708E0,2.6596236E0,6.042042E-1,6.590761E-1,1.8138001E0,0E0,0E0,0E0,0E0,0E0,0E0,0E0,0E0,0E0,0E0,0E0,0E0,0E0,0E0,0E0,0E0],"parents":[2147483647,0,0,1,1,3,3,4,4,